svm_type c_svc
kernel_type linear
nr_class 9
total_sv 368
rho -0.383394 -0.451942 -0.0448211 0.319016 -0.530166 -0.206022 -0.0830261 -0.726461 0.111678 0.352115 0.791221 0.0889257 0.319772 0.384428 0.130542 0.163706 0.319643 -0.0803558 0.120752 0.0976199 -0.200917 0.347505 -0.188334 -0.240405 0.0593974 -0.203733 -0.273261 -0.354534 -0.47101 -0.555714 0.225985 0.0915576 -0.224106 0.156203 -0.373199 -0.268621
label 0 1 2 3 4 5 6 7 8
probA -4.91697 -4.61791 -4.6926 -4.61944 -4.60049 -4.63235 -4.78657 -4.60971 -5.0711 -5.01568 -4.80365 -5.02319 -4.97716 -4.84075 -5.11949 -5.09412 -4.94798 -4.56787 -4.77584 -4.93172 -4.64202 -4.72541 -4.90449 -5.0556 -4.44347 -5.01094 -4.97505 -4.6773 -4.62801 -4.785 -4.87996 -4.93993 -4.62294 -4.85815 -4.86824 -4.89258
probB -0.200691 -0.38504 -0.261556 -0.156421 -0.295318 0.17749 -0.154873 -0.228669 -0.171966 -0.0315716 0.006128 -0.213597 0.219473 -0.234965 -0.0662538 0.0320987 0.0648201 -0.0163722 0.332766 0.115423 0.0633481 -0.733939 0.0229196 0.283048 0.109878 0.0774815 0.0260644 -0.024424 0.0928592 -0.0581681 0.163389 0.147793 0.00565505 -0.49209 -0.371649 0.189312
nr_sv 28 38 47 36 39 43 47 52 38
SV
0 1 0 0 0 0 0 0 0:-0.01311066 1:0.018852517 2:-0.03645632 3:0.022967163 4:0.080224216 5:-0.035078906 6:0.053901196 7:-0.042451445 8:0.03217025 9:0.035568763 10:0.11490565 11:0.0022572137 12:0.069506355 13:0.02117065 14:-0.020380814 15:-0.025025858 16:0.016282767 17:0.08840091 18:0.003645201 19:0.010860975 20:0.047206588 21:-0.037234027 22:0.0071702045 23:-0.11342984 24:-0.07533739 25:-0.060563482 26:0.0070733777 27:-0.08078814 28:0.005874582 29:-0.035891138 30:0.052408915 31:-0.024472872 32:0.0059813363 33:0.04738805 34:0.0215811 35:-0.06638964 36:0.06573217 37:-0.059368417 38:-0.03895835 39:0.046237435 40:-0.10400987 41:-0.02780209 42:-0.0061189397 43:0.078802675 44:-0.013143431 45:0.061896123 46:0.026155382 47:0.019142643 48:-0.02419025 49:-0.055839118 50:-0.004241593 51:-0.026869657 52:-0.04320218 53:-0.0022263124 54:0.0057470673 55:-0.10669003 56:0.023918375 57:-0.031635255 58:-0.086658664 59:0.019952724 60:-0.0031284136 61:0.0641106 62:-0.06114568 63:-0.062416706 64:-0.04574371 65:-0.04299137 66:0.0042601894 67:-0.018559875 68:0.019223945 69:-0.03327668 70:0.018601129 71:-0.03240285 72:-0.018116122 73:-0.029866168 74:0.08088391 75:-0.04528671 76:0.063109964 77:0.015394456 78:-0.054525457 79:0.010879486 80:-0.09713419 81:0.02250743 82:0.055316202 83:-0.030330542 84:-0.08300885 85:0.036438428 86:0.038460825 87:0.04415574 88:-0.013180396 89:0.013367808 90:-0.06842965 91:-0.019627178 92:-0.057731096 93:0.04201612 94:0.04394241 95:0.033930864 96:0.004532092 97:0.039295293 98:-0.07775519 99:0.052569475 100:-0.014797186 101:0.022665463 102:0.06014186 103:-0.021246508 104:-0.061684683 105:-0.031085499 106:-0.028310396 107:-0.05862922 108:-0.055410024 109:0.00395986 110:0.040735934 111:0.0066613895 112:-0.06588733 113:-0.025295828 114:0.0034934983 115:0.026504342 116:0.07967701 117:0.03461308 118:0.04304656 119:0.08806186 120:0.041166067 121:0.023441076 122:-0.0037881238 123:0.053875316 124:-0.077716686 125:-0.044653766 126:-0.09513304 127:-0.01602102 128:0.065273345 129:-0.005895542 130:0.054341517 131:0.045076195 132:0.032221746 133:0.016230406 134:0.05344668 135:0.0070525208 136:-0.036943056 137:-0.079166226 138:-0.016332285 139:-0.008009404 140:-0.015287587 141:0.082500264 142:-0.066825286 143:0.027416833 144:0.056757174 145:0.03809868 146:-0.010692408 147:-0.011564937 148:0.077885404 149:0.01341564 150:0.019534579 151:-0.018926201 152:-0.03185654 153:0.0676869 154:0.026955739 155:-0.098690145 156:-0.03545948 157:0.02499086 158:0.0020510103 159:-0.072797164 160:0.00057618367 161:0.040010672 162:-0.082149014 163:0.084618814 164:0.06592579 165:0.07042614 166:-0.010932798 167:0.03024033 168:-0.012810947 169:0.040845647 170:0.03317947 171:0.054727625 172:-0.01329065 173:-0.0059362473 174:-0.06827144 175:-0.058804896 176:-0.014844871 177:0.0029855557 178:0.012243333 179:-0.004023039 180:0.079427615 181:0.0047019646 182:0.0055065234 183:0.015255223 184:0.0351941 185:0.07454675 186:0.025580626 187:-0.057464924 188:0.004604797 189:-0.0042604776 190:-0.060521472 191:0.008384509 192:0.03241052 193:0.048267897 194:-0.013971689 195:-0.07484982 196:-0.029851533 197:0.025810907 198:0.038660016 199:0.0419745 200:0.04173064 201:-0.08903164 202:0.00916163 203:-0.00011327855 204:-0.025913944 205:0.050533418 206:-0.022545274 207:-0.024614964 208:0.009095615 209:0.025826681 210:-0.013066372 211:-0.06219197 212:-0.02144859 213:0.012445195 214:-0.02688451 215:-0.0014828151 216:0.0014612355 217:-0.008671831 218:0.062867135 219:0.030979339 220:0.04614769 221:-0.07185824 222:0.06192415 223:-0.03624527 224:0.014431277 225:0.009199 226:0.017256103 227:-0.02998646 228:-0.01997745 229:0.012283454 230:-0.037092336 231:0.06285428 232:0.006345923 233:0.014087441 234:0.01752423 235:0.042204488 236:-0.043885063 237:-0.020572694 238:0.08599793 239:0.027489958 240:0.032873992 241:0.01242795 242:0.067066684 243:0.016108397 244:-0.03518286 245:-0.0055976603 246:-0.01739732 247:0.02775255 248:0.019905781 249:0.030731268 250:-0.0027632567 251:-0.017320177 252:0.05483683 253:-0.062493328 254:-0.043108616 255:-0.03141733 256:0.04921268 257:0.018889941 258:0.080165185 259:-0.0778572 260:-0.061300978 261:0.032927923 262:-0.028305493 263:0.01584962 264:-0.030881837 265:0.014076437 266:0.03451371 267:-0.046581287 268:-0.0032493318 269:-0.06931054 270:0.05244656 271:-0.0022623248 272:0.009775875 273:-0.0040226597 274:0.027821664 275:0.009070065 276:0.01334863 277:0.044857673 278:-0.030561434 279:0.005666988 280:0.027895762 281:0.023839846 282:-0.010968358 283:0.015598413 284:-0.010165284 285:-0.060906157 286:0.004890371 287:-0.06798806 288:-0.031388782 289:0.03808925 290:0.006683911 291:-0.061321497 292:-0.05849872 293:-0.0060022357 294:-0.023036996 295:0.023391267 296:-0.023754803 297:0.0018844627 298:0.059967622 299:-0.033514246 300:0.01821973 301:0.044677034 302:-0.026326528 303:0.009200691 304:-0.0070551895 305:-0.046476845 306:0.012978949 307:0.023097238 308:-0.053996053 309:0.017097665 310:-0.0076213633 311:0.041426335 312:0.078599535 313:-0.04181465 314:0.05128565 315:0.0076541947 316:0.04880819 317:-0.04594461 318:0.084588 319:-0.005568886 320:-0.010238611 321:0.0014260279 322:0.017231988 323:0.0096069155 324:0.0010586345 325:-0.021338398 326:0.07065714 327:0.06435684 328:0.07206905 329:0.029191498 330:-0.02078743 331:0.04584599 332:-0.047430005 333:0.05965718 334:-0.07093167 335:-0.004946502 336:0.024316251 337:-0.083364576 338:-0.005261141 339:0.025107898 340:0.05178464 341:-0.026709262 342:-0.0334724 343:0.02917583 344:0.01988088 345:0.061781652 346:-0.1039833 347:-0.010662788 348:-0.009467827 349:-0.035703946 350:0.026270373 351:-0.0028185467 352:0.073356085 353:0.059252456 354:0.09772828 355:-0.00039272403 356:0.031620488 357:0.10435708 358:-0.04773953 359:-0.008806111 360:-0.017133322 361:-0.005298992 362:-0.085260555 363:-0.036771055 364:-0.0048688697 365:-0.017574638 366:-0.03219485 367:0.046632223 368:-0.046935543 369:0.0059856055 370:-0.013388228 371:-0.04743787 372:-0.013498813 373:0.009062403 374:-0.06780696 375:-0.002499767 376:0.045182273 377:0.03388357 378:-0.0782128 379:-0.025237028 380:0.005941756 381:-0.04256203 382:-0.024825819 383:-0.03290178 384:-0.052820995 385:0.04164988 386:-0.100927 387:-0.049642585 388:-0.017969975 389:0.015192168 390:-0.059819017 391:0.053450074 392:-0.03716336 393:0.06168706 394:0.028646378 395:0.046877228 396:0.013609531 397:0.07086465 398:0.061068647 399:-0.030626483 400:0.006895208 401:0.0018378997 402:0.06005109 403:0.054007657 404:0.05106169 405:0.023443332 406:-0.008838522 407:-0.0035426475 408:-0.012861409 409:-0.016625902 410:-0.0055311834 411:-0.019134495 412:0.01682374 413:0.06337034 414:-0.053447578 415:0.02510413 416:0.032106183 417:0.013215071 418:0.039166704 419:0.019226372 420:0.0018784654 421:0.029420711 422:-0.04560945 423:0.007953771 424:-0.03419942 425:0.14300491 426:-0.050661955 427:0.018136432 428:-0.014492983 429:0.05884931 430:-0.03337776 431:0.031482834 432:-0.058417108 433:0.03885749 434:-0.02119986 435:0.024149407 436:-0.045394424 437:0.0027163343 438:-0.004449618 439:0.031392377 440:-0.0046352562 441:0.0169192 442:0.0062041185 443:0.03674848 444:0.06477782 445:-0.025834663 446:-0.011553681 447:-0.08262719 448:-0.010484131 449:-0.023587445 450:-0.01144659 451:0.09047219 452:-0.049935073 453:0.003190384 454:-0.060955904 455:-0.020370312 456:-0.08330263 457:0.09594262 458:0.059964236 459:0.06869251 460:0.06140084 461:0.048379246 462:0.048639894 463:-0.038966447 464:-0.06155224 465:0.007815748 466:-0.053165298 467:0.049631506 468:0.02498833 469:0.0027327288 470:0.07061091 471:0.016293008 472:0.038179103 473:-0.015822453 474:-0.013065073 475:-0.013532617 476:0.00032357938 477:-0.04358831 478:0.038588274 479:0.025550658 480:-0.024438635 481:0.022521337 482:-0.0018921688 483:0.004593947 484:-0.025736611 485:0.043675568 486:-0.04066223 487:0.021010559 488:0.011425697 489:-0.05591637 490:-0.018634867 491:-0.045476623 492:-0.036311954 493:0.04133892 494:0.089609295 495:-0.020186525 496:0.03282487 497:0.074126355 498:0.034821626 499:0.029813975 500:-0.006684201 501:-0.06448001 502:0.0674216 503:-0.04452451 504:-0.038486164 505:0.10115217 506:0.04317284 507:0.025278505 508:-0.015388613 509:-0.05373737 510:-0.01844081 511:0.037959978 
0 0 0 0 1 0 0 0 0:-0.013913782 1:0.013653971 2:-0.040130224 3:0.029875344 4:0.07817318 5:-0.04964026 6:0.061168823 7:-0.03885836 8:0.020044796 9:0.03356718 10:0.11970706 11:-0.0035675669 12:0.073434316 13:0.020508261 14:0.013952252 15:-0.005709741 16:0.03674463 17:0.10008596 18:0.0218772 19:0.014677703 20:0.042099785 21:-0.037794724 22:0.010984217 23:-0.10754795 24:-0.06431036 25:-0.0806787 26:-0.0067010587 27:-0.08968784 28:0.028005486 29:-0.032636877 30:0.015247449 31:-0.048002437 32:-0.013366445 33:0.043433066 34:0.02121976 35:-0.07375767 36:0.056779694 37:-0.06374279 38:-0.024575217 39:0.042977415 40:-0.08815283 41:-0.0182266 42:-0.014760655 43:0.066062614 44:-0.019487683 45:0.08752083 46:0.026438914 47:0.01083937 48:-0.028443169 49:-0.02773975 50:-0.011372524 51:-0.026119102 52:-0.059028022 53:-0.012896535 54:-0.010003239 55:-0.13776374 56:0.034314744 57:-0.048905883 58:-0.09158607 59:0.01805294 60:-0.01652558 61:0.075220816 62:-0.05407678 63:-0.034290448 64:-0.042572353 65:-0.06330982 66:-0.00037939203 67:-0.04098819 68:0.006616012 69:-0.037894007 70:0.008430764 71:-0.007430581 72:-0.026833262 73:-0.03778994 74:0.08187294 75:-0.045578938 76:0.06280785 77:0.0078780195 78:-0.042026114 79:-0.0019633498 80:-0.073222056 81:0.009892208 82:0.01469388 83:-0.03545965 84:-0.0628389 85:0.047294725 86:0.042801928 87:0.05790497 88:-0.023946868 89:0.009186103 90:-0.051256265 91:-0.03196511 92:-0.073758714 93:0.032625753 94:0.05108646 95:0.026201721 96:0.00012566756 97:0.038715538 98:-0.08842367 99:0.042735506 100:-0.017645964 101:0.007734723 102:0.045397937 103:0.00019102904 104:-0.07933022 105:-0.05952669 106:-0.0269887 107:-0.04326675 108:-0.049330633 109:0.020968007 110:0.029594691 111:-0.009672353 112:-0.053217836 113:-0.03121249 114:-0.01177136 115:0.0026533697 116:0.05757044 117:0.03998241 118:0.03211203 119:0.10737084 120:0.05056443 121:0.018388031 122:0.0019939353 123:0.020872965 124:-0.058317073 125:-0.034982126 126:-0.07010793 127:-0.013680292 128:0.04204507 129:-0.0030704325 130:0.058275227 131:0.021399114 132:0.025710065 133:0.024087438 134:0.05547893 135:0.023388788 136:-0.032736093 137:-0.054524753 138:-0.01471854 139:0.0032680032 140:-0.016031237 141:0.10403682 142:-0.039683796 143:0.036867443 144:0.05873887 145:0.0355653 146:0.00012279657 147:0.00680964 148:0.069827124 149:0.0011912215 150:0.025291229 151:-0.01582349 152:-0.026200797 153:0.05217051 154:0.038797922 155:-0.10385145 156:-0.04990168 157:0.03094196 158:0.008370291 159:-0.051135175 160:-0.007900063 161:0.024996748 162:-0.08318483 163:0.11373555 164:0.044534232 165:0.08395061 166:-0.02153849 167:0.027329296 168:-0.022962619 169:0.019423509 170:0.027564194 171:0.046573598 172:0.020270329 173:-0.013558071 174:-0.06417646 175:-0.041732285 176:-0.012054943 177:-0.0013227868 178:0.02096089 179:0.0060444465 180:0.06470789 181:-0.0322374 182:0.015064612 183:0.02680237 184:0.022232043 185:0.060825046 186:0.04175433 187:-0.060295835 188:-0.0066711004 189:-0.018480433 190:-0.06279611 191:0.011631565 192:0.05822262 193:0.04550154 194:-0.0017713272 195:-0.086886145 196:-0.05355339 197:0.0014829733 198:0.025559647 199:0.038654163 200:0.051275514 201:-0.089690275 202:0.018055394 203:-0.017970927 204:-0.040169097 205:0.062424112 206:-0.023020178 207:-0.018372675 208:0.016250858 209:0.019201659 210:-0.021613851 211:-0.044323266 212:-0.036940213 213:-0.01544477 214:-0.029952792 215:-0.02182403 216:0.017177327 217:-0.017551221 218:0.07051044 219:0.0535465 220:0.058597557 221:-0.059554223 222:0.04193164 223:-0.038270254 224:0.033643708 225:0.007312496 226:0.022154957 227:-0.03681737 228:-0.047085352 229:0.0063193077 230:-0.050031558 231:0.06800657 232:0.020535734 233:0.0070540006 234:-0.00067699625 235:0.047544975 236:-0.006889837 237:-0.013128621 238:0.082188725 239:0.046837665 240:0.022686923 241:-0.0067089326 242:0.044970486 243:0.028356997 244:-0.04636444 245:0.0016071524 246:-0.02902155 247:0.024693202 248:0.024711642 249:0.039303973 250:-0.00083762984 251:-0.01573459 252:0.04465351 253:-0.050662052 254:-0.064260855 255:-0.012066925 256:0.0308304 257:0.013297282 258:0.07018044 259:-0.07218742 260:-0.089570984 261:0.0249869 262:-0.024879806 263:0.0071597276 264:-0.025014646 265:0.030851243 266:0.027355071 267:-0.061684042 268:-0.0097105075 269:-0.07855064 270:0.06194962 271:-0.0009944806 272:0.03202144 273:-0.005396997 274:0.008926446 275:0.0017349288 276:-0.015624317 277:0.02994704 278:-0.013826405 279:0.015813481 280:0.014548821 281:0.014316715 282:0.0058936286 283:0.012764948 284:-0.001973242 285:-0.04571709 286:0.013443652 287:-0.06115494 288:-0.01971434 289:0.032092374 290:0.009276357 291:-0.07894785 292:-0.04098974 293:0.013996148 294:-0.023673136 295:-0.0019413551 296:-0.032319788 297:-0.0021110596 298:0.056315925 299:-0.051046718 300:0.021694522 301:0.033920504 302:-0.020519821 303:0.014023903 304:0.0063850656 305:-0.03708429 306:0.014567393 307:0.022147445 308:-0.048113964 309:0.013974273 310:-0.0044168946 311:0.055999357 312:0.073668964 313:-0.027081411 314:0.066010065 315:-0.0110858 316:0.051180914 317:-0.05350746 318:0.0660965 319:-0.021648716 320:-0.012365049 321:0.011268043 322:0.012747775 323:0.0023728102 324:0.0021944179 325:-0.021124337 326:0.07089885 327:0.07506526 328:0.06568561 329:0.029904444 330:-0.03968974 331:0.042415936 332:-0.06166213 333:0.052879505 334:-0.078086615 335:0.0041840645 336:0.026049105 337:-0.08053751 338:-0.018157393 339:0.04538453 340:0.04810936 341:-0.02004411 342:-0.03899957 343:0.056458548 344:0.026128916 345:0.07019994 346:-0.08769344 347:-0.014850912 348:-0.015748858 349:-0.022962749 350:0.032862987 351:-0.0046370975 352:0.06926242 353:0.07813758 354:0.08296188 355:0.007156567 356:0.032828726 357:0.10440516 358:-0.030300353 359:-0.03007085 360:-0.003923954 361:-0.011727771 362:-0.08369236 363:-0.011278862 364:-0.010364476 365:0.0019826621 366:-0.029348845 367:0.03750981 368:-0.05547755 369:0.01660192 370:-0.026186299 371:-0.051425267 372:-0.0046785325 373:0.010603154 374:-0.04866135 375:0.0073543913 376:0.047932267 377:0.015843246 378:-0.09149258 379:-0.01211789 380:0.02162507 381:-0.04291787 382:-0.021722082 383:-0.0031992726 384:-0.014849545 385:0.04480066 386:-0.10632328 387:-0.014892186 388:-0.009690676 389:0.009776956 390:-0.045590494 391:0.05303138 392:-0.044539083 393:0.059968475 394:0.020244991 395:0.030770326 396:-0.0044668964 397:0.054043975 398:0.031019172 399:-0.020988287 400:-0.002131687 401:-0.0060269833 402:0.0638402 403:0.06669972 404:0.048359867 405:0.01967907 406:-0.0050328183 407:0.012502934 408:-0.013647617 409:-0.04106034 410:-0.010488658 411:-0.014244559 412:0.00013986767 413:0.07248321 414:-0.041459125 415:0.009647014 416:0.034637406 417:0.0361496 418:0.049879987 419:0.008161559 420:-0.02621494 421:0.010451129 422:-0.044440538 423:0.005505448 424:-0.03439511 425:0.14637682 426:-0.023225958 427:0.0082105575 428:-0.023863738 429:0.061774746 430:-0.027190091 431:0.05030424 432:-0.03495588 433:0.04603048 434:-0.015371408 435:0.03900463 436:-0.05287959 437:-0.024910612 438:-0.015924845 439:0.027801909 440:0.00087024143 441:0.017834261 442:0.021902952 443:0.038882434 444:0.06562414 445:-0.046834208 446:0.020752126 447:-0.07002723 448:-0.025593117 449:-0.008105487 450:-0.038972855 451:0.07209673 452:-0.030042158 453:0.0017872322 454:-0.051194493 455:-0.024853034 456:-0.04536245 457:0.10181706 458:0.032346155 459:0.06849122 460:0.056424543 461:0.05505852 462:0.050462913 463:-0.029979115 464:-0.05404693 465:0.021057392 466:-0.035547096 467:0.053012967 468:0.039781533 469:0.014330613 470:0.08265003 471:0.0036475663 472:0.050074384 473:-0.015623833 474:-0.006068575 475:-0.015722003 476:-0.0026119838 477:-0.02292539 478:0.033027235 479:0.034905452 480:-0.03168141 481:0.003328896 482:0.015912268 483:0.008078384 484:-0.026642833 485:0.06455258 486:-0.034895495 487:0.019657204 488:0.027343366 489:-0.033174064 490:-0.021001693 491:-0.06979187 492:-0.041645255 493:0.025635788 494:0.083642334 495:-0.03789326 496:0.05141669 497:0.075154334 498:0.03369144 499:0.027432565 500:0.0034733976 501:-0.072778806 502:0.06730236 503:-0.041291732 504:-0.061639078 505:0.12117236 506:0.035050355 507:0.039912384 508:-0.020544212 509:-0.0758181 510:-0.040570293 511:0.0320024 
0 0 0 0 0.4890391352458469 0 0 0 0:-0.014756296 1:-0.01878506 2:-0.07335164 3:0.029885836 4:0.08591216 5:-0.029519195 6:0.05316201 7:-0.03189885 8:0.0057921573 9:0.07477292 10:0.12118622 11:0.034451157 12:0.07582423 13:-0.006163543 14:-0.016564729 15:0.013547828 16:0.04786374 17:0.10086465 18:0.026870657 19:0.022623207 20:0.057435047 21:-0.033929426 22:0.012714086 23:-0.10727119 24:-0.07316049 25:-0.036916375 26:-0.0026531466 27:-0.061846144 28:0.01090523 29:-0.026894234 30:-0.011056946 31:-0.0662332 32:-0.035031084 33:0.036243096 34:0.004910941 35:-0.0590374 36:0.050711576 37:-0.06329865 38:-0.050489496 39:0.042493943 40:-0.10163228 41:0.00395512 42:-0.004639383 43:0.04544692 44:-0.0412153 45:0.077780515 46:0.030995639 47:0.016255157 48:-0.043521587 49:-0.020823881 50:-0.036100578 51:-0.05162148 52:-0.018438296 53:-0.00076826045 54:-0.009240759 55:-0.13670255 56:0.014803862 57:-0.0067863665 58:-0.096563235 59:0.0065289605 60:0.012598553 61:0.09993393 62:-0.07328793 63:-0.008834227 64:-0.03506384 65:-0.07773895 66:0.021780005 67:-0.059728205 68:0.007195964 69:-0.0031796282 70:-0.010505952 71:-0.021479337 72:-0.014416064 73:-0.029548679 74:0.05702499 75:-0.036861483 76:0.041001573 77:0.0271175 78:-0.013358194 79:-0.034010414 80:-0.07469032 81:0.012255187 82:0.027425671 83:-0.04398803 84:-0.06688056 85:0.049552053 86:0.018395081 87:0.05915996 88:-0.04457323 89:-0.021169517 90:-0.030913876 91:-0.021317497 92:-0.08938795 93:0.041910682 94:0.07223519 95:0.06337825 96:0.06216051 97:0.026769131 98:-0.073551975 99:0.061049927 100:-0.0463699 101:-0.02229961 102:0.025318222 103:0.014542944 104:-0.08900517 105:-0.09070185 106:-0.0277575 107:-0.035623286 108:-0.02947066 109:0.036347274 110:0.037627336 111:-0.014440429 112:-0.0367996 113:-0.048491314 114:-0.007876729 115:-0.019819226 116:0.051279366 117:0.050312907 118:0.038942456 119:0.12325857 120:0.05714171 121:-0.010668803 122:-0.0056996387 123:-0.013145539 124:-0.053847503 125:-0.034102615 126:-0.068795204 127:0.0074970014 128:0.0030429342 129:-0.022703791 130:0.0299242 131:0.016648857 132:0.03248356 133:0.018544387 134:0.012294355 135:0.032344565 136:-0.012402871 137:-0.021729175 138:0.0053505027 139:0.014683417 140:-0.017030468 141:0.07009967 142:-0.021514501 143:0.06012384 144:0.015529122 145:0.0036767302 146:-0.005837689 147:0.0054976535 148:0.066210456 149:0.023975855 150:0.014436516 151:-0.0013284901 152:-0.032909114 153:0.06969713 154:0.06685785 155:-0.09854521 156:-0.06516208 157:0.047833525 158:-0.00077718846 159:-0.03763101 160:-0.0064920285 161:0.030250492 162:-0.06956756 163:0.13117793 164:0.042179234 165:0.09533412 166:-0.012554982 167:-0.019028611 168:-0.006495006 169:0.036538184 170:0.025894063 171:0.024715008 172:0.012121739 173:0.0028681066 174:-0.035734177 175:-0.013546526 176:-0.011047885 177:0.04312586 178:0.0074527417 179:-0.008296015 180:0.013315449 181:-0.037239093 182:0.0032579447 183:0.03878952 184:0.0044672852 185:0.05059426 186:0.04387772 187:-0.044777542 188:0.020285059 189:-0.016569367 190:-0.048695743 191:0.008128868 192:0.049275406 193:0.01794462 194:-0.009975371 195:-0.04411977 196:-0.044853218 197:0.047048233 198:0.010800486 199:0.034954436 200:0.0683858 201:-0.073654234 202:-0.01235337 203:-0.041720048 204:-0.030090643 205:0.081250355 206:-0.012505053 207:-0.02841769 208:0.008270194 209:-0.026262391 210:-0.020394191 211:-0.04501813 212:-0.0016942514 213:-0.018246822 214:-0.0053450153 215:-0.03081544 216:0.0057071485 217:0.0145636 218:0.032584358 219:0.06167994 220:0.043916877 221:-0.07333934 222:0.059332855 223:-0.041321345 224:0.0450659 225:-0.013396175 226:0.0024751667 227:-0.05217431 228:-0.038407892 229:-0.015794847 230:-0.020881902 231:0.11340646 232:0.016434379 233:-0.028525848 234:0.007191465 235:0.043162018 236:0.012316908 237:-0.02287442 238:0.05368654 239:0.03272219 240:0.0072876383 241:0.010948261 242:0.02262086 243:0.05522808 244:-0.04692172 245:0.015731286 246:0.0047056284 247:0.015552193 248:0.024083022 249:0.0734672 250:-0.039834097 251:-0.016903235 252:0.08209614 253:-0.03754005 254:-0.068584114 255:-0.012544326 256:-0.012639298 257:0.0074683875 258:0.06255655 259:-0.068502285 260:-0.0837971 261:0.032208756 262:-0.033253837 263:-0.0012754288 264:-0.043755 265:0.0043217507 266:0.010310149 267:-0.053594533 268:-0.02122004 269:-0.09742091 270:0.08599811 271:0.013826505 272:0.025432827 273:-0.0018276308 274:0.005390077 275:0.0026069283 276:-0.0036068538 277:0.020848358 278:-0.020710155 279:0.01226071 280:0.026121726 281:0.021019697 282:-0.0070210155 283:0.013562343 284:-0.013603291 285:-0.04138655 286:0.023023471 287:-0.039273076 288:-0.027680581 289:0.03416001 290:0.015637958 291:-0.09141674 292:-0.04504389 293:0.06704292 294:-0.018038074 295:-0.042450387 296:-0.0026828363 297:0.018104974 298:0.044119366 299:-0.055935748 300:0.042227365 301:0.045721933 302:-0.022020899 303:0.052961946 304:0.014742491 305:0.0013542095 306:-0.027376905 307:0.024121651 308:-0.03650881 309:0.020176148 310:0.015235462 311:0.07024516 312:0.05026418 313:-0.019212618 314:0.08468835 315:0.027617577 316:0.0638218 317:-0.038600925 318:0.069945715 319:-0.05016417 320:0.009938097 321:0.014976107 322:-0.01342153 323:0.0029535487 324:-0.031591244 325:0.013175596 326:0.04665995 327:0.066140585 328:0.040563136 329:0.020004956 330:-0.011016069 331:0.06385577 332:-0.058963094 333:0.037016686 334:-0.05050442 335:0.018652974 336:0.024156393 337:-0.07064385 338:-0.054776352 339:0.04814604 340:0.075445585 341:0.006910799 342:-0.022293609 343:0.035860192 344:0.026152302 345:0.05131052 346:-0.08826048 347:-0.01832417 348:0.0074064867 349:-0.052846085 350:0.0010837364 351:0.011400919 352:0.054562077 353:0.0747885 354:0.052329272 355:-0.0071601947 356:0.076798536 357:0.08015815 358:0.006033298 359:-0.009472841 360:-0.0030391377 361:0.0027241823 362:-0.07699381 363:-0.02098983 364:-0.015753267 365:0.023369225 366:-0.019617477 367:0.024180038 368:-0.022838144 369:-0.0036319175 370:-0.0363599 371:-0.012689675 372:-0.013993151 373:0.04028174 374:-0.06015133 375:0.014444178 376:0.048312217 377:0.046176083 378:-0.080859594 379:-0.03913484 380:0.04541008 381:-0.028044483 382:0.017965239 383:-0.0047639045 384:0.035124123 385:0.024266828 386:-0.08570459 387:-0.030184748 388:-0.021293906 389:0.024552854 390:-0.031774722 391:0.072730124 392:-0.006434173 393:0.05856962 394:-0.0012742368 395:0.04892256 396:-0.020007752 397:0.058762014 398:0.06241605 399:-0.021771245 400:0.006812338 401:-0.0030307283 402:0.065468155 403:0.07240291 404:0.06624027 405:0.03036066 406:-0.006877946 407:0.031918533 408:0.0069701746 409:-0.036868047 410:0.029610448 411:-0.012371499 412:0.015457307 413:0.050737176 414:-0.0357912 415:0.0066499384 416:0.076954894 417:0.021405958 418:0.024413453 419:-0.0040512527 420:0.016212178 421:0.010973563 422:-0.011372409 423:0.016805269 424:-0.027140096 425:0.15694857 426:0.017575063 427:0.011023094 428:-0.023481559 429:0.0638898 430:-0.024375435 431:0.06702743 432:-0.032161396 433:0.030596532 434:0.030980716 435:0.06047571 436:-0.06027744 437:-0.026062768 438:-0.013993313 439:0.019024875 440:-0.007671258 441:0.020371469 442:0.01514595 443:0.07756786 444:0.052087747 445:-0.06956719 446:-0.0037539322 447:-0.009148851 448:-0.033290233 449:-0.02025063 450:-0.019669242 451:0.05518432 452:-0.028518599 453:-0.0057782736 454:-0.012290847 455:-0.018247994 456:-0.045952316 457:0.06930029 458:0.036722016 459:0.020738218 460:0.086416416 461:0.0948748 462:0.047204938 463:-0.0069238925 464:-0.021029739 465:0.02050428 466:-0.0013305413 467:0.05285711 468:0.0068343473 469:0.00042842005 470:0.080466 471:-0.027074004 472:0.053947054 473:0.0016650045 474:-0.01910819 475:0.014958596 476:0.004974403 477:-0.01911861 478:0.03771117 479:0.008638014 480:-0.02755851 481:0.002697797 482:0.024167834 483:0.004369363 484:-0.03562777 485:0.054247536 486:-0.053868152 487:0.034106564 488:-0.011581611 489:-0.033906866 490:0.024369044 491:-0.03430133 492:-0.041600958 493:0.05589486 494:0.11130345 495:-0.03945489 496:0.052232303 497:0.070699684 498:0.029696269 499:0.01685324 500:-0.0016963681 501:-0.026132543 502:0.060537662 503:-0.06860424 504:-0.047763284 505:0.091601476 506:-0.0029038547 507:0.03544036 508:-0.029520804 509:-0.066592395 510:-0.043982524 511:0.06610761 
0.9353128396380946 0 0 0.1568825084490921 0 0 0 0.4774234766005351 0:-0.016263168 1:0.0011527905 2:-0.06959257 3:0.05273852 4:0.078572154 5:-0.04619347 6:0.036625087 7:-0.008741945 8:0.037570864 9:0.09578076 10:0.098545894 11:0.048733663 12:0.034413103 13:0.009051821 14:-0.011542351 15:0.012081146 16:0.06060227 17:0.10472718 18:0.010932256 19:0.033789262 20:0.058207124 21:-0.011140711 22:0.014246906 23:-0.10376494 24:-0.08472047 25:-0.033382002 26:0.014513031 27:-0.04263035 28:0.022025416 29:-0.014950098 30:-0.012502979 31:-0.057326667 32:-0.005607299 33:0.046078883 34:0.007302357 35:-0.067994885 36:0.019959867 37:-0.06656857 38:-0.033073228 39:0.059289217 40:-0.09218941 41:-0.014832348 42:-0.01114192 43:0.04310325 44:-0.056901585 45:0.088865906 46:0.022469368 47:0.017361464 48:-0.048005518 49:-0.0025905382 50:-0.021317877 51:-0.0460151 52:-0.0035625636 53:-0.005466482 54:-0.011179103 55:-0.14136177 56:0.014073554 57:-0.013692846 58:-0.07814181 59:0.0041434653 60:-0.02354892 61:0.08265875 62:-0.06795731 63:-0.00016793754 64:-0.047588773 65:-0.075260095 66:0.0042896005 67:-0.056358684 68:0.019542933 69:-0.027148027 70:-0.0036351979 71:-0.030741453 72:-0.018439392 73:-0.02271976 74:0.05591797 75:-0.014644539 76:0.031234765 77:0.014765733 78:-0.024289653 79:-0.018442772 80:-0.04954362 81:-0.013926516 82:0.03282525 83:-0.05444187 84:-0.068660505 85:0.054812253 86:0.013557058 87:0.039442226 88:-0.05695152 89:-0.033689376 90:-0.05677697 91:-0.021395145 92:-0.07321575 93:0.026953125 94:0.06274337 95:0.081255 96:0.040560942 97:0.03466127 98:-0.07055617 99:0.057753768 100:-0.03160629 101:0.015923675 102:0.032407496 103:0.01916706 104:-0.05143954 105:-0.08409907 106:-0.022777913 107:-0.048774034 108:-0.012103397 109:0.014237381 110:0.041416243 111:-0.03117773 112:-0.044482272 113:-0.06840959 114:0.0029536956 115:-0.0074222544 116:0.049340647 117:0.047124203 118:0.025283435 119:0.099597625 120:0.06493719 121:0.015562152 122:-0.017957773 123:-0.027850788 124:-0.05954496 125:-0.07575805 126:-0.06007799 127:-0.01481755 128:-0.0060008266 129:-0.024859782 130:0.018202716 131:0.025444098 132:0.029940603 133:-0.004964662 134:0.01036424 135:0.027673548 136:-0.02543353 137:-0.043835986 138:0.022813104 139:0.032308575 140:0.011197484 141:0.092551365 142:-0.024259515 143:0.06152305 144:0.04060579 145:0.024534043 146:-0.014513568 147:0.018483093 148:0.026605017 149:0.015182033 150:0.015318132 151:0.015872326 152:-0.03014991 153:0.07628003 154:0.053164613 155:-0.091327816 156:-0.081709094 157:0.050703842 158:-0.03216935 159:-0.07079662 160:0.010558138 161:0.07265361 162:-0.06113006 163:0.13970353 164:0.054860514 165:0.10539398 166:-0.02385402 167:-0.008119232 168:-0.034165226 169:0.050090067 170:0.012389465 171:0.015673501 172:0.025172327 173:0.014203758 174:-0.022178806 175:-0.022633128 176:-0.036502816 177:0.0037042478 178:0.0044826274 179:-0.015596774 180:0.012706041 181:-0.041404508 182:0.010846352 183:0.033945464 184:0.014190031 185:0.0335428 186:0.048781995 187:-0.057942417 188:0.02698705 189:-0.009409351 190:-0.032649852 191:0.046404596 192:0.064737976 193:0.016951544 194:0.013104576 195:-0.053302485 196:-0.052784428 197:0.029237537 198:0.027238786 199:0.017485414 200:0.06226885 201:-0.06303845 202:0.016161773 203:-0.045871746 204:-0.011610915 205:0.068292655 206:0.016043356 207:-0.0263752 208:0.0018188847 209:-0.0056348084 210:-0.013394158 211:-0.023031864 212:-0.01611087 213:-0.018961068 214:0.010535032 215:-0.0348133 216:0.01694261 217:0.0023462982 218:0.011611015 219:0.052480955 220:0.041618284 221:-0.060519084 222:0.07157789 223:-0.04602411 224:0.043597944 225:-0.02036859 226:0.015719809 227:-0.04573054 228:-0.024569118 229:0.006595245 230:-0.020503916 231:0.07901326 232:0.013946234 233:-0.028449051 234:-0.023427783 235:0.03800718 236:0.014813806 237:-0.010181866 238:0.035284936 239:0.04369854 240:0.011474257 241:0.003961922 242:0.038014982 243:0.05290595 244:-0.042264797 245:0.05938891 246:-0.007317464 247:0.010190018 248:0.029921334 249:0.04705347 250:-0.04232862 251:-0.00045234628 252:0.10994627 253:-0.021812698 254:-0.07240649 255:-0.00741701 256:-0.015915899 257:0.013207527 258:0.05508468 259:-0.04703859 260:-0.067378104 261:0.026638955 262:-0.023652568 263:-0.014210007 264:-0.061086234 265:-0.004177974 266:0.022700101 267:-0.04370184 268:-0.034739826 269:-0.10315321 270:0.0879011 271:0.007738491 272:0.028529415 273:0.010717007 274:0.021320293 275:0.024169985 276:-0.01801478 277:0.03831269 278:-0.025339205 279:0.037322827 280:0.017368164 281:0.023297474 282:-0.021929853 283:0.010924386 284:-0.037134092 285:-0.0340465 286:0.045458775 287:-0.028348908 288:-0.046017617 289:0.04523784 290:0.0021499034 291:-0.090006806 292:-0.028362373 293:0.045101594 294:-0.038613208 295:-0.055707734 296:-0.025116855 297:-0.005554811 298:0.050352074 299:-0.0469978 300:0.038589206 301:0.019543817 302:-0.046704035 303:0.05306443 304:-0.005184103 305:-0.024711175 306:-0.008442595 307:0.023320707 308:-0.037954833 309:-0.005734648 310:-0.004980884 311:0.055720232 312:0.032511417 313:-0.02631196 314:0.07124548 315:0.030941505 316:0.06582112 317:-0.03617192 318:0.10997516 319:-0.057944536 320:-0.008681368 321:0.01865299 322:-0.0012262112 323:0.0040999316 324:-0.042222265 325:0.016963175 326:0.036806654 327:0.062290642 328:0.037848692 329:0.041005675 330:-0.00068674993 331:0.057910994 332:-0.07273185 333:0.033418532 334:-0.060070343 335:0.044273965 336:0.028528022 337:-0.07324104 338:-0.054404 339:0.026071498 340:0.06572859 341:-0.012809509 342:-0.014969368 343:0.034710992 344:0.04309346 345:0.022824448 346:-0.10015118 347:0.010656295 348:-0.0054243943 349:-0.04042656 350:0.0037379134 351:0.013937314 352:0.029583747 353:0.06427737 354:0.05470485 355:-0.0040048775 356:0.052610002 357:0.09574446 358:-0.029997123 359:0.0022708455 360:-0.005134341 361:0.008844841 362:-0.06639009 363:-0.012299525 364:0.0016304749 365:0.028991934 366:-0.035594042 367:0.06123025 368:-0.012119393 369:0.00013372349 370:-0.039809857 371:-0.009919134 372:0.000589746 373:0.032928746 374:-0.059465747 375:0.023371577 376:0.026996473 377:0.055562414 378:-0.079813115 379:-0.03372907 380:0.015785564 381:-0.013065699 382:0.0073713576 383:-0.009819459 384:0.037059333 385:0.011167685 386:-0.07268927 387:-0.022702245 388:-0.044705924 389:0.024671288 390:-0.022091229 391:0.074773505 392:-0.022037655 393:0.053305827 394:-0.008050924 395:0.020532947 396:-0.026620245 397:0.054833334 398:0.0830607 399:-0.036510363 400:0.02050301 401:-0.020277547 402:0.06839173 403:0.08348475 404:0.061866663 405:0.02363113 406:-0.0075600734 407:0.018290397 408:-0.0016457165 409:-0.03192387 410:0.007304628 411:-0.041178804 412:0.029754896 413:0.048885524 414:-0.06742531 415:0.01702278 416:0.0778511 417:-0.006556714 418:0.025119534 419:-0.022556147 420:0.05492181 421:0.021889213 422:0.017802406 423:0.0077610933 424:-0.050377928 425:0.13897176 426:-0.0032949853 427:0.003916286 428:-0.013078539 429:0.036677413 430:-0.028305627 431:0.044257753 432:-0.026560798 433:0.020182254 434:0.037896857 435:0.038400397 436:-0.08069798 437:-0.045479815 438:-0.009391752 439:0.027099922 440:-0.045675486 441:0.030750223 442:0.0020031773 443:0.08552949 444:0.031010117 445:-0.04613562 446:-0.010480462 447:-0.036355767 448:-0.045133255 449:-0.03938999 450:-0.024013024 451:0.051009316 452:-0.02397842 453:0.01999234 454:-0.022967992 455:-0.018883005 456:-0.04255152 457:0.06978174 458:0.052453063 459:0.056811042 460:0.09481178 461:0.09469355 462:0.05535189 463:-0.017899051 464:-0.021333821 465:0.03326864 466:-0.008711253 467:0.01679581 468:0.019465921 469:0.0028780252 470:0.06492788 471:-0.0390977 472:0.06439231 473:-0.0021044575 474:-0.014519567 475:0.057009093 476:0.017460585 477:-0.020162076 478:0.06257968 479:0.030036405 480:0.015170791 481:0.011020355 482:-0.009692297 483:-0.0009640697 484:-0.014047823 485:0.034944877 486:-0.063330606 487:0.050547987 488:-0.00953205 489:-0.037105113 490:0.012894891 491:-0.054661836 492:-0.024931662 493:0.044805773 494:0.11034112 495:-0.025389625 496:0.05723192 497:0.06706775 498:0.034780063 499:-0.0060140095 500:0.008659952 501:-0.015668206 502:0.07507289 503:-0.0529059 504:-0.038543846 505:0.083815135 506:-0.004243368 507:0.043047905 508:-0.016780972 509:-0.070679285 510:-0.042447172 511:0.055112712 
0 0 0 0 0 0 0.09300416990331836 0 0:-0.01279507 1:0.0006986122 2:-0.064083055 3:0.052831057 4:0.06558198 5:-0.039825935 6:0.042424306 7:-0.015164244 8:0.044950154 9:0.08905397 10:0.09647437 11:0.044226844 12:0.048135534 13:0.018899592 14:-0.020564368 15:0.003993729 16:0.06242992 17:0.10689638 18:0.024582699 19:0.033520333 20:0.062229246 21:-0.01861333 22:0.021638473 23:-0.10108705 24:-0.07280874 25:-0.03499118 26:0.011388399 27:-0.03944192 28:0.024154494 29:-0.029752366 30:-0.005244452 31:-0.04888627 32:-0.015617697 33:0.043326225 34:0.011174015 35:-0.06427828 36:0.019483358 37:-0.06212472 38:-0.03338944 39:0.046951227 40:-0.08615165 41:-0.021317216 42:-0.009541008 43:0.042884633 44:-0.061259355 45:0.08335056 46:0.013983214 47:0.010339644 48:-0.042262387 49:-0.014073983 50:-0.017089788 51:-0.048699435 52:-0.012001979 53:0.00016117185 54:-0.016013049 55:-0.14043792 56:0.011936015 57:-0.008027902 58:-0.07138493 59:0.0044454117 60:-0.02235114 61:0.08669906 62:-0.06861593 63:0.008684367 64:-0.045484956 65:-0.069505766 66:0.007797304 67:-0.058613203 68:0.019985292 69:-0.02202012 70:-0.00897334 71:-0.033590194 72:-0.009000377 73:-0.014937803 74:0.05955541 75:-0.021182913 76:0.028620385 77:0.017270798 78:-0.033451326 79:-0.024002323 80:-0.04703485 81:-0.0124817 82:0.027811503 83:-0.050949622 84:-0.064725876 85:0.065293066 86:0.024028528 87:0.03488707 88:-0.059833262 89:-0.01916368 90:-0.056985732 91:-0.013241163 92:-0.07005382 93:0.039823357 94:0.06483972 95:0.07931162 96:0.040498927 97:0.027312184 98:-0.07737872 99:0.058994807 100:-0.026310463 101:0.010658184 102:0.032236762 103:0.010425771 104:-0.058338463 105:-0.084370695 106:-0.021000162 107:-0.045589603 108:-0.021650657 109:0.02667149 110:0.038131647 111:-0.03187906 112:-0.046478804 113:-0.06476048 114:-0.012313456 115:-0.021024883 116:0.043282427 117:0.048908282 118:0.017767133 119:0.11008814 120:0.063634515 121:0.016943023 122:-0.023803858 123:-0.023991568 124:-0.07107328 125:-0.07707712 126:-0.04921457 127:-0.0021078605 128:-0.009503908 129:-0.021714086 130:0.014211941 131:0.027768755 132:0.0237088 133:0.0024283861 134:0.015011533 135:0.042189427 136:-0.02044091 137:-0.047718752 138:0.014302395 139:0.032826096 140:0.0067376746 141:0.08912449 142:-0.008080942 143:0.06443986 144:0.03231486 145:0.017938614 146:-0.013540163 147:0.02608131 148:0.042090595 149:0.006919471 150:0.025778743 151:0.018390216 152:-0.022093454 153:0.07856729 154:0.05620775 155:-0.08979552 156:-0.08329405 157:0.053891473 158:-0.027412156 159:-0.065827586 160:0.01281813 161:0.07740683 162:-0.058222283 163:0.14416759 164:0.06059656 165:0.096249856 166:-0.025915952 167:-0.022061475 168:-0.027766746 169:0.05709891 170:0.012034533 171:0.021322878 172:0.019225366 173:0.006782311 174:-0.027964484 175:-0.030633781 176:-0.038208283 177:0.015713902 178:0.0010577334 179:-0.01086185 180:0.011761684 181:-0.030398438 182:0.002284303 183:0.033567958 184:0.0047921375 185:0.03776788 186:0.053284593 187:-0.060129747 188:0.021521114 189:-0.012450046 190:-0.023734093 191:0.049238894 192:0.05453715 193:0.009073062 194:0.010127707 195:-0.05132625 196:-0.06314275 197:0.028323121 198:0.036109373 199:0.021275908 200:0.07471622 201:-0.04899629 202:0.00808695 203:-0.032556653 204:-0.005387371 205:0.06935178 206:0.0032594248 207:-0.028215302 208:0.010805106 209:-0.007243838 210:-0.011299911 211:-0.027615443 212:-0.017297843 213:-0.012205835 214:0.0027468323 215:-0.03859476 216:0.01925656 217:0.0025252884 218:0.014291324 219:0.06347007 220:0.058872014 221:-0.05802705 222:0.07107711 223:-0.045076255 224:0.034849618 225:-0.012798029 226:0.013271595 227:-0.04390213 228:-0.03173902 229:-0.0032164413 230:-0.013102736 231:0.07792867 232:0.012541856 233:-0.02614878 234:-0.024201874 235:0.049058985 236:0.014713399 237:-0.015001219 238:0.03242245 239:0.045894638 240:0.006918437 241:0.010172571 242:0.03398955 243:0.062112298 244:-0.049144298 245:0.055664454 246:-0.0063419673 247:0.015092863 248:0.025361141 249:0.06096104 250:-0.05103015 251:-0.014511802 252:0.10869191 253:-0.01579574 254:-0.07473834 255:-0.00447142 256:-0.015448802 257:0.0023665363 258:0.055600796 259:-0.04778708 260:-0.07341629 261:0.03617684 262:-0.020637363 263:-0.014958715 264:-0.054918464 265:-0.0069236937 266:0.017393284 267:-0.047586247 268:-0.028880484 269:-0.09496901 270:0.09315011 271:0.0027051005 272:0.030407254 273:0.023445187 274:0.03164009 275:0.025824493 276:-0.02883668 277:0.023652634 278:-0.023604682 279:0.0371605 280:0.010866762 281:0.019910559 282:-0.030433027 283:0.0042686802 284:-0.035060216 285:-0.041028947 286:0.028229918 287:-0.023455761 288:-0.041808486 289:0.04813871 290:0.016523013 291:-0.08471832 292:-0.030446827 293:0.036589593 294:-0.03696242 295:-0.061617807 296:-0.018385328 297:0.00010927966 298:0.044242863 299:-0.050937142 300:0.03345046 301:0.02521337 302:-0.039162654 303:0.05226082 304:0.0038780817 305:-0.025543204 306:-0.018086195 307:0.026427178 308:-0.02301787 309:-0.017178847 310:-0.0050950316 311:0.060755827 312:0.031061618 313:-0.030079292 314:0.07363487 315:0.023806864 316:0.078002624 317:-0.03830151 318:0.11201327 319:-0.06119492 320:-0.007043949 321:0.0061363513 322:0.0020178398 323:0.0015078734 324:-0.041640513 325:0.019873243 326:0.038635537 327:0.055927534 328:0.0392894 329:0.02614285 330:-0.012230282 331:0.05331181 332:-0.070735164 333:0.031872265 334:-0.04756335 335:0.046142373 336:0.03456973 337:-0.07800187 338:-0.05292604 339:0.016506119 340:0.068682946 341:-0.010619925 342:-0.016610116 343:0.015693493 344:0.04053522 345:0.024768976 346:-0.093206786 347:0.015431293 348:-0.012363556 349:-0.027245725 350:0.010608042 351:0.010273597 352:0.032283988 353:0.078076616 354:0.052804604 355:-0.006334398 356:0.05990132 357:0.10148975 358:-0.026884759 359:0.008853621 360:-0.00016781002 361:0.013710238 362:-0.058688313 363:-0.01237125 364:0.0042889533 365:0.025407894 366:-0.027416475 367:0.05352168 368:-0.017411048 369:-0.0067532896 370:-0.040918168 371:-0.01071894 372:-3.1880056e-05 373:0.051071353 374:-0.056072995 375:0.020001635 376:0.026361965 377:0.06316214 378:-0.08621273 379:-0.023931732 380:0.023152618 381:0.002947635 382:0.012880854 383:0.0018636477 384:0.040929623 385:0.005737224 386:-0.08573683 387:-0.0086913565 388:-0.041246876 389:0.022286754 390:-0.022638397 391:0.06847354 392:-0.020182021 393:0.055018745 394:-0.009868553 395:0.016282415 396:-0.030423826 397:0.05569913 398:0.06972799 399:-0.038602494 400:0.021114469 401:-0.028578743 402:0.065270945 403:0.079918064 404:0.06035652 405:0.02247222 406:0.0003218999 407:0.02916488 408:0.008723849 409:-0.035604607 410:0.010798859 411:-0.034173343 412:0.03310165 413:0.05736332 414:-0.063120246 415:0.007347726 416:0.07335569 417:-0.0047896914 418:0.011499093 419:-0.019300073 420:0.051720887 421:0.025189133 422:0.007801739 423:0.014005743 424:-0.042816516 425:0.13735071 426:-0.004131762 427:-0.0018449179 428:-0.010703565 429:0.02819388 430:-0.028665941 431:0.042089388 432:-0.019572297 433:0.02099743 434:0.040700864 435:0.05282601 436:-0.07870281 437:-0.048078317 438:-0.0035178256 439:0.006346156 440:-0.03603347 441:0.034530368 442:0.015625969 443:0.08533543 444:0.035596926 445:-0.051618356 446:-0.010737692 447:-0.024111748 448:-0.042355973 449:-0.020104581 450:-0.02614759 451:0.05048173 452:-0.024277946 453:0.012440661 454:-0.027446583 455:-0.0154488 456:-0.04960334 457:0.07567668 458:0.06442129 459:0.0554134 460:0.08984134 461:0.10354035 462:0.05821997 463:-0.018571777 464:-0.027105866 465:0.035264444 466:-0.01950461 467:0.01924967 468:0.026532171 469:0.004090622 470:0.0740853 471:-0.04206961 472:0.06604559 473:-0.0078070317 474:-0.004824818 475:0.05138983 476:0.0168824 477:-0.011487002 478:0.060137413 479:0.021615308 480:0.013973365 481:0.006899394 482:-0.0068357717 483:0.008213765 484:-0.0246576 485:0.03104004 486:-0.061739232 487:0.061606437 488:-0.011005994 489:-0.042121675 490:0.016470596 491:-0.06234028 492:-0.021644406 493:0.05077481 494:0.11366326 495:-0.027278567 496:0.04719089 497:0.06302407 498:0.03300059 499:-0.00939298 500:0.012415919 501:-0.022194711 502:0.07258756 503:-0.048241403 504:-0.038939063 505:0.07834286 506:-0.003285836 507:0.03891712 508:-0.020122683 509:-0.06903067 510:-0.04671274 511:0.062030822 
0 1 0 0 0 0 0 0 0:-0.023782989 1:0.017634252 2:-0.081504986 3:0.027885828 4:0.09613452 5:-0.044732444 6:0.010421563 7:0.014973137 8:0.04013171 9:0.00691063 10:0.10002331 11:-0.0011466163 12:0.0775273 13:-0.030546045 14:-0.028955637 15:-0.059578743 16:0.015539648 17:0.060672056 18:0.05798823 19:-0.040359747 20:-0.006685377 21:-0.010301406 22:-0.0064393603 23:-0.10954937 24:-0.042759057 25:-0.046164453 26:0.02275732 27:-0.060454294 28:0.05563104 29:0.0015333663 30:0.011675051 31:-0.07241544 32:-0.014667222 33:0.015365277 34:-0.00076953176 35:-0.037835944 36:0.015252233 37:-0.025732903 38:-0.06984914 39:0.059489492 40:-0.09474498 41:0.009047114 42:0.026419679 43:0.06867364 44:-0.013908256 45:0.03649363 46:0.0041381037 47:0.05168776 48:-0.081760444 49:-0.08255143 50:-0.007264374 51:-0.03495715 52:-0.009420045 53:-3.0319427e-05 54:0.01670822 55:-0.039051015 56:0.0003443658 57:-0.010852438 58:-0.091284275 59:-0.022472056 60:0.024556214 61:0.06762612 62:-0.042019755 63:-0.033602133 64:-0.01806239 65:-0.058824982 66:0.002775219 67:-0.0047212415 68:-0.033304647 69:-0.017575024 70:0.04043219 71:-0.020551214 72:-0.037974752 73:-0.07243784 74:0.081624895 75:-0.08500175 76:0.05530858 77:0.03362108 78:-0.007500071 79:-0.010116009 80:-0.035977967 81:0.08078444 82:0.041815773 83:-0.0009949337 84:-0.06810246 85:0.06067246 86:-0.0018360306 87:0.029121308 88:0.04234847 89:0.0029607788 90:0.009727649 91:-0.007255292 92:-0.04776727 93:0.014582141 94:0.026589759 95:0.053985637 96:0.026936382 97:0.0631592 98:-0.06951194 99:0.018265776 100:-0.034849707 101:-0.0540232 102:0.034873273 103:-0.0012222751 104:-0.10347175 105:0.0011161003 106:-0.005976356 107:-0.013543628 108:0.0027050616 109:0.051689904 110:0.05167821 111:0.033757247 112:-0.025831288 113:0.013111479 114:0.036526296 115:0.05361427 116:0.061388444 117:0.083900966 118:0.03786668 119:0.11750641 120:0.012818347 121:-0.02572414 122:0.024606716 123:-0.0013991809 124:-0.07136108 125:-0.020817585 126:-0.05831256 127:-0.014831557 128:0.01482839 129:0.030254854 130:0.036755856 131:0.027655018 132:0.061191425 133:0.022759844 134:0.01978158 135:0.032638144 136:-0.018793734 137:-0.047686256 138:0.0058588027 139:-0.008542066 140:-0.081921875 141:0.05351449 142:-0.040623073 143:0.026374644 144:0.03988947 145:-0.00072743854 146:0.030684981 147:0.0246902 148:0.04152457 149:-0.025272422 150:0.023735926 151:-0.013058562 152:-0.030041387 153:0.077793784 154:0.042044144 155:-0.08832311 156:-0.018450882 157:-0.031481106 158:0.042724293 159:-0.046167284 160:0.039662164 161:0.024415635 162:-0.05372832 163:0.018431442 164:0.04531965 165:0.056622572 166:-0.009272027 167:0.027078949 168:-0.055942893 169:0.07138128 170:0.017590271 171:0.01041922 172:0.019205317 173:0.022360243 174:-0.0499771 175:0.0066899667 176:0.037664402 177:0.023773879 178:-0.0043084896 179:-0.031884752 180:0.08633277 181:-0.022511508 182:-0.018956734 183:0.036733467 184:0.043293536 185:0.095862255 186:0.02141571 187:-0.02490349 188:0.05031085 189:0.031189354 190:-0.061685428 191:-0.016502671 192:0.022714306 193:0.015250535 194:0.017331116 195:-0.050693143 196:-0.00030763546 197:0.04658627 198:0.015386159 199:0.023233443 200:0.028126549 201:-0.13573535 202:0.02492167 203:-0.039335933 204:-0.055274453 205:0.0431959 206:0.039070535 207:-0.018783355 208:0.06874279 209:0.0097118635 210:-0.01967771 211:-0.03601758 212:-0.031161223 213:-0.0003719013 214:-0.017928371 215:-0.024147667 216:-0.04382642 217:0.041056536 218:0.010257859 219:0.0024889458 220:0.00848773 221:-0.08962332 222:0.033330295 223:-0.011625767 224:-0.008858816 225:-0.0187708 226:-0.014292096 227:-0.039382037 228:-0.020417232 229:-0.07280644 230:-0.048554216 231:0.06972691 232:0.04785637 233:-0.007618281 234:-0.017970802 235:0.041794334 236:-0.044401918 237:-0.016877538 238:0.04231207 239:0.033179265 240:-0.009637054 241:-0.016154097 242:-0.011717829 243:-0.009134597 244:-0.04105988 245:0.02679312 246:-0.028133348 247:-0.005880471 248:-0.0020110232 249:0.0713623 250:0.00087232713 251:0.018842675 252:0.043246273 253:-0.030521367 254:-0.06854264 255:0.00539193 256:0.030093048 257:0.0036908104 258:0.088209786 259:-0.10390885 260:-0.08949547 261:0.00669342 262:-0.03252921 263:-0.019669611 264:-0.02098634 265:0.039592516 266:0.051113732 267:-0.012002226 268:-0.050086625 269:-0.050694123 270:0.043752927 271:0.015425137 272:0.007439466 273:-0.04187192 274:0.004147994 275:0.009552514 276:0.06494623 277:0.043426953 278:0.0039120005 279:0.018747186 280:0.048339676 281:0.03100773 282:0.012584312 283:-0.017144043 284:0.01890902 285:0.0010902074 286:0.01250574 287:0.0028998652 288:0.0057550427 289:-0.00083393586 290:0.05259434 291:-0.11384416 292:-0.08338603 293:0.052832104 294:-0.03841053 295:0.011845852 296:0.037176963 297:0.030050509 298:0.08587196 299:-0.015867192 300:0.003052713 301:0.081528924 302:-0.033712436 303:-0.007573037 304:-0.003086153 305:-0.025380572 306:0.026164122 307:0.030040318 308:-0.057450853 309:0.052711587 310:-0.019973418 311:0.0667544 312:0.10543118 313:0.031934686 314:0.08731879 315:0.0038771285 316:0.076117046 317:-0.056035914 318:0.06735768 319:0.008269069 320:0.021941446 321:0.0050316 322:0.037520282 323:0.018052477 324:-0.015038663 325:-0.03823352 326:0.08928216 327:0.077107914 328:0.084887356 329:0.016251193 330:0.00838101 331:0.06371136 332:-0.012333956 333:0.0753702 334:-0.050879925 335:-0.019911716 336:-0.029339068 337:-0.040850397 338:0.0030163468 339:0.0580972 340:0.07865445 341:0.020263266 342:-0.05999627 343:0.044791177 344:0.026588565 345:0.014745845 346:-0.11036213 347:-0.017618878 348:0.043029588 349:-0.04662405 350:0.03255289 351:-0.007249407 352:0.026692918 353:0.046798687 354:0.011634012 355:-0.028211622 356:0.044091586 357:0.040052686 358:0.02447653 359:-0.028315086 360:-0.00059423316 361:-0.028945167 362:-0.09375376 363:0.01824446 364:-0.005496268 365:0.00323849 366:0.020119525 367:-0.010194618 368:0.0010692438 369:-0.0089156525 370:-0.036425192 371:-0.07671569 372:-0.0297743 373:-0.0022690026 374:-0.041299555 375:0.016076803 376:0.0490744 377:0.012147036 378:-0.04429408 379:-0.06095127 380:0.05364963 381:-0.059414282 382:-0.012817502 383:0.00021814014 384:-0.055563353 385:0.018359266 386:-0.10182308 387:-0.032831773 388:0.030825634 389:-0.041651074 390:-0.04000807 391:0.01615875 392:-0.009522225 393:0.005217823 394:0.027601266 395:0.04909212 396:0.03375535 397:0.08175659 398:0.08568491 399:-0.015045665 400:-0.02258229 401:0.04155361 402:0.049710106 403:0.058279317 404:0.0997643 405:0.05861399 406:-0.04430768 407:0.033039384 408:0.05530555 409:-0.030010577 410:0.04995884 411:0.06315647 412:0.010050732 413:-0.0047177225 414:0.010788209 415:0.01191569 416:0.061487183 417:0.07697916 418:-0.0033360776 419:0.04881597 420:-0.018338678 421:0.03931646 422:0.0053711818 423:0.025343241 424:-0.061938293 425:0.10604232 426:-0.05610882 427:0.007023465 428:-0.024780482 429:0.053799614 430:-0.023775548 431:0.048112627 432:-0.06254492 433:0.06905707 434:-0.053012744 435:0.025467262 436:-0.045288548 437:-0.054046206 438:-0.031290907 439:0.08937873 440:0.034517203 441:-0.015370541 442:-0.008710125 443:0.020581236 444:0.059322804 445:-0.023630204 446:-0.075057045 447:-0.025488747 448:-0.019808328 449:-0.019590957 450:-0.018966753 451:0.07347106 452:-0.07624259 453:-0.024733186 454:-0.036025684 455:-0.0041706613 456:-0.08181911 457:0.030938424 458:0.02318943 459:0.012222082 460:0.08168832 461:0.028265374 462:0.014114586 463:0.0046913475 464:-0.0052409214 465:-0.02760956 466:0.0028633014 467:0.032123733 468:-0.05729092 469:0.031809986 470:0.03998346 471:-0.013553236 472:0.035956286 473:-0.01903177 474:-0.03354952 475:-0.0030338375 476:0.018727813 477:-0.032374643 478:0.04305169 479:0.012658671 480:-0.018729664 481:-0.0070782425 482:-0.026572468 483:0.016213058 484:-0.06701432 485:0.03420274 486:-0.074909315 487:0.062901914 488:-0.045373548 489:-0.009188058 490:0.030478287 491:-0.03036153 492:-0.025864707 493:0.019564252 494:0.053706437 495:-0.035938624 496:0.029255137 497:0.04888695 498:0.0038282708 499:-0.0015958583 500:-0.018878285 501:-0.03921759 502:0.03214285 503:-0.0734922 504:-0.024416676 505:0.08570272 506:-0.0032181088 507:-0.013046797 508:-0.011415064 509:-0.09853074 510:0.023790183 511:0.038525857 
0 0.2319367036159149 0 0 0 0 0 0 0:-0.01523734 1:-0.021806592 2:-0.08055428 3:0.03336178 4:0.071687266 5:-0.036033083 6:0.049383096 7:-0.04173055 8:0.0055676377 9:0.055716094 10:0.12551586 11:0.02525045 12:0.07511325 13:-0.008694151 14:-0.03707942 15:0.0024581873 16:0.034627147 17:0.10526417 18:0.0396543 19:0.03242382 20:0.05359657 21:-0.05224503 22:-0.0040796464 23:-0.11729519 24:-0.07667182 25:-0.05830943 26:0.006542575 27:-0.049674567 28:0.022031657 29:-0.025313541 30:0.014936489 31:-0.05985254 32:-0.035363566 33:0.04493353 34:0.0017069345 35:-0.08095435 36:0.036894657 37:-0.05579591 38:-0.047223967 39:0.056380298 40:-0.12499201 41:0.007729984 42:-0.0045493334 43:0.05615096 44:-0.017736984 45:0.069468655 46:0.019456621 47:0.012289273 48:-0.031421278 49:-0.016808538 50:-0.04424794 51:-0.04611001 52:-0.011171241 53:0.01054374 54:-0.0019707987 55:-0.11423827 56:0.012862086 57:0.0056624725 58:-0.085480265 59:0.022721823 60:0.028860936 61:0.094564095 62:-0.05073882 63:-0.005469526 64:-0.023101112 65:-0.047147658 66:0.018739412 67:-0.05792109 68:-0.021963077 69:-0.023886604 70:-0.03150993 71:-0.02833358 72:-0.0076063527 73:-0.009138347 74:0.05258789 75:-0.044819657 76:0.04106271 77:0.023750823 78:-0.010008018 79:-0.03946124 80:-0.08755753 81:0.02796312 82:0.03169912 83:-0.027878862 84:-0.059463356 85:0.039949946 86:0.017757423 87:0.061132606 88:-0.038959946 89:-0.010582577 90:-0.015715469 91:-0.032547604 92:-0.0715089 93:0.025132312 94:0.05331672 95:0.069342166 96:0.06360026 97:0.03782187 98:-0.06098871 99:0.06321493 100:-0.035031736 101:-0.030164916 102:0.032503966 103:0.0022070804 104:-0.09021511 105:-0.081879154 106:-0.04394246 107:-0.034723368 108:-0.045596868 109:0.026891878 110:0.047181547 111:0.011122039 112:-0.04599187 113:-0.033174604 114:0.007862922 115:0.0024093231 116:0.04828066 117:0.06192254 118:0.040866815 119:0.12279528 120:0.03639786 121:0.001954423 122:0.012838324 123:0.010189258 124:-0.055741776 125:-0.0345805 126:-0.06879398 127:-0.010570881 128:0.006057583 129:-0.00791821 130:0.0067022503 131:0.016740324 132:0.050893743 133:0.014682095 134:0.01940287 135:0.013726592 136:-0.017090544 137:-0.030460002 138:0.004410885 139:0.015084727 140:-0.011432939 141:0.070976295 142:-0.035847705 143:0.054673363 144:0.013050718 145:0.003508596 146:-0.02120656 147:0.029236041 148:0.06417359 149:0.033019453 150:0.025504893 151:0.020038074 152:-0.040637203 153:0.07019027 154:0.062447306 155:-0.09718952 156:-0.06453779 157:0.039527327 158:0.00033753822 159:-0.043664962 160:0.007989344 161:0.037428394 162:-0.056408145 163:0.11247099 164:0.043968566 165:0.09698181 166:-0.0057241754 167:-0.014731274 168:-7.340383e-05 169:0.056972004 170:0.013110501 171:0.041153893 172:0.026749345 173:-0.024607247 174:-0.047522705 175:-0.0273658 176:-0.010187212 177:0.0439251 178:0.008140605 179:-0.028691368 180:0.031147841 181:-0.02765422 182:0.0011070122 183:0.033676088 184:-0.00053988106 185:0.06803894 186:0.02978281 187:-0.055230927 188:0.007617988 189:-0.010956288 190:-0.056870304 191:0.0092138415 192:0.058395475 193:0.02361193 194:-0.023561155 195:-0.045259573 196:-0.040266477 197:0.05162235 198:0.020409998 199:0.020442301 200:0.066098824 201:-0.073389515 202:-0.017231576 203:-0.04485359 204:-0.016870745 205:0.06552137 206:-0.034109652 207:-0.033694807 208:0.012813297 209:-0.008522682 210:-0.014951 211:-0.04708806 212:-0.0039113774 213:-0.012189577 214:-0.01200235 215:-0.018089196 216:-0.0094479695 217:0.027410975 218:0.029032305 219:0.059091866 220:0.04495903 221:-0.0676841 222:0.06290047 223:-0.04521029 224:0.043068342 225:-0.010265017 226:0.03411476 227:-0.039517384 228:-0.053823445 229:-0.0053310837 230:-0.006567856 231:0.10380031 232:0.013347144 233:-0.04041066 234:0.007126544 235:0.059972577 236:0.0016316411 237:-0.019358687 238:0.0609008 239:0.02652625 240:0.014333316 241:0.025286525 242:0.01664479 243:0.0497524 244:-0.06441096 245:0.0005843997 246:-0.014030852 247:0.02489143 248:0.00922628 249:0.06716641 250:-0.054234833 251:-0.006850803 252:0.0812853 253:-0.021538848 254:-0.05972632 255:-0.0048485273 256:-0.020373698 257:0.01345368 258:0.082107574 259:-0.051178157 260:-0.08721156 261:0.019487962 262:-0.03784248 263:0.016130516 264:-0.043948486 265:0.0027852221 266:0.014130568 267:-0.051239315 268:-0.021635719 269:-0.10521886 270:0.0789749 271:0.013506384 272:0.022878468 273:0.017345142 274:0.020359017 275:0.010946652 276:0.0080346195 277:0.025213227 278:-0.03073465 279:0.010252268 280:0.01616491 281:0.026901735 282:-0.015820589 283:0.011838464 284:-0.0010824363 285:-0.04272516 286:0.02720737 287:-0.040235084 288:-0.0385763 289:0.033044703 290:0.02014524 291:-0.07650431 292:-0.054322876 293:0.059027582 294:-0.005795642 295:-0.021139508 296:-0.0038801096 297:0.024244487 298:0.06560212 299:-0.049348548 300:0.046276733 301:0.06759702 302:-0.008847207 303:0.039852016 304:0.0129925 305:0.013459694 306:-0.005128352 307:0.03224873 308:-0.03750175 309:0.02118129 310:-0.007002186 311:0.06270068 312:0.073576085 313:-0.02251029 314:0.0836632 315:0.019306293 316:0.04691513 317:-0.055843893 318:0.078302264 319:-0.030646538 320:-0.0017115048 321:-0.0028602635 322:-0.013346519 323:0.006545318 324:-0.014784473 325:-0.0075379596 326:0.058454975 327:0.053380422 328:0.02701793 329:0.033175685 330:-0.02350891 331:0.059145633 332:-0.07295384 333:0.0485496 334:-0.047900278 335:0.018192647 336:0.013469372 337:-0.07700554 338:-0.047377113 339:0.055264384 340:0.08197361 341:0.0023102101 342:-0.00028310105 343:0.024740446 344:0.013020273 345:0.051678173 346:-0.094229154 347:-0.019734152 348:0.018919643 349:-0.011705087 350:0.001942068 351:-0.00012527255 352:0.06950932 353:0.08212676 354:0.03922916 355:-0.016098483 356:0.0918986 357:0.080552496 358:-0.0015504954 359:-0.013553019 360:-0.021620054 361:-0.012354502 362:-0.08214105 363:-0.027800519 364:-0.007929021 365:0.019619085 366:-0.018687638 367:0.023464398 368:-0.044344854 369:-0.01190887 370:-0.032015238 371:0.001120001 372:-0.030193489 373:0.056689046 374:-0.057044815 375:0.015237555 376:0.055836663 377:0.028609285 378:-0.084198445 379:-0.04519832 380:0.03460669 381:-0.0272283 382:0.010285876 383:-0.023078963 384:0.007125594 385:0.015899915 386:-0.0728713 387:-0.04491669 388:-0.027519029 389:0.022998597 390:-0.026192531 391:0.08076757 392:-0.007284789 393:0.045893755 394:0.022839066 395:0.06647358 396:-0.0060245423 397:0.07717113 398:0.064784355 399:-0.035436552 400:0.022278504 401:-0.0056695715 402:0.05999602 403:0.0628888 404:0.059487935 405:0.033040907 406:-0.022289226 407:0.03054619 408:0.007458095 409:-0.042200387 410:0.023778781 411:0.011030258 412:0.0038589467 413:0.03803121 414:-0.03788364 415:0.00069351227 416:0.06441166 417:0.03674886 418:0.00431593 419:0.01797295 420:0.013550484 421:0.03682902 422:-0.013056768 423:0.033006735 424:-0.020949997 425:0.15559104 426:0.027048491 427:0.009921726 428:-0.01907934 429:0.071053736 430:-0.038710855 431:0.05819947 432:-0.031321842 433:0.020133475 434:0.011206485 435:0.06699148 436:-0.05045188 437:-0.030061696 438:-0.0076009417 439:0.024343627 440:-0.00409327 441:0.023012765 442:0.007199577 443:0.062632225 444:0.061967246 445:-0.050665446 446:0.004984498 447:-0.017185599 448:-0.03551723 449:-0.02712605 450:0.0029998024 451:0.058885746 452:-0.023932315 453:-0.00012663404 454:-0.026343932 455:-0.01790014 456:-0.048830427 457:0.06610525 458:0.054856494 459:0.023810131 460:0.079178356 461:0.08878733 462:0.045196917 463:-0.009967151 464:-0.029393436 465:0.023233285 466:-0.0003296235 467:0.041429788 468:0.0040722326 469:0.008331618 470:0.070951305 471:-0.016518079 472:0.05325312 473:-0.010767057 474:-0.019549312 475:0.013619175 476:-0.0016323634 477:-0.03154801 478:0.056813087 479:0.0006494142 480:-0.019603591 481:0.0005258278 482:0.020471647 483:0.035863277 484:-0.033354927 485:0.04444098 486:-0.067366146 487:0.038578667 488:-0.008862442 489:-0.03913649 490:0.010440116 491:-0.020377507 492:-0.04667294 493:0.055701733 494:0.12468924 495:-0.031414334 496:0.0511775 497:0.059105933 498:0.029050194 499:0.009613674 500:-0.017200919 501:-0.02330952 502:0.040713985 503:-0.06167228 504:-0.05893257 505:0.09210137 506:0.010347922 507:0.030368889 508:-0.030936861 509:-0.06816614 510:-0.031270564 511:0.065429896 
0 1 0 0 0 0 0 0 0:-0.011932897 1:0.017231151 2:-0.03543034 3:0.025423666 4:0.073959984 5:-0.037338536 6:0.048253432 7:-0.040765513 8:0.035203807 9:0.034541406 10:0.11376826 11:0.0019847152 12:0.073116384 13:0.026107641 14:-0.019198708 15:-0.02702355 16:0.01704756 17:0.08934647 18:0.008067569 19:0.012285719 20:0.04929908 21:-0.036732968 22:0.00962958 23:-0.11491717 24:-0.07496283 25:-0.058902264 26:0.0055418955 27:-0.07713994 28:0.009613852 29:-0.032936435 30:0.053038493 31:-0.024781756 32:0.0052672345 33:0.046309587 34:0.019723557 35:-0.07336816 36:0.05929234 37:-0.05805089 38:-0.03739447 39:0.04481441 40:-0.10594942 41:-0.026927799 42:-0.0066276193 43:0.08165961 44:-0.01378124 45:0.06271843 46:0.024574595 47:0.017432632 48:-0.027171517 49:-0.054939616 50:-0.006833037 51:-0.026399896 52:-0.04307725 53:-0.006309199 54:0.0026457864 55:-0.10790843 56:0.024606006 57:-0.03355225 58:-0.08723709 59:0.021461757 60:-0.0067842463 61:0.06528344 62:-0.06251002 63:-0.0571874 64:-0.04514839 65:-0.042198937 66:0.0012888105 67:-0.02088233 68:0.014138192 69:-0.035951883 70:0.017784458 71:-0.026811425 72:-0.018694332 73:-0.028436307 74:0.0807774 75:-0.046341375 76:0.06273024 77:0.012491954 78:-0.055158053 79:0.007165886 80:-0.09322958 81:0.017355079 82:0.05589278 83:-0.031526033 84:-0.08228928 85:0.03682636 86:0.03629372 87:0.044107076 88:-0.017525261 89:0.012459436 90:-0.06327242 91:-0.023501853 92:-0.054569114 93:0.040687565 94:0.04444005 95:0.037735503 96:0.008040126 97:0.03798207 98:-0.074672855 99:0.05230572 100:-0.01270735 101:0.023074647 102:0.062738664 103:-0.01583947 104:-0.061875492 105:-0.03188801 106:-0.032003243 107:-0.056646902 108:-0.05582368 109:0.006997274 110:0.04253079 111:0.008556741 112:-0.065007165 113:-0.02540987 114:0.000956639 115:0.02517715 116:0.07442324 117:0.03899567 118:0.04430459 119:0.09251903 120:0.04551879 121:0.02755153 122:-0.0059835636 123:0.04853228 124:-0.07626441 125:-0.04445377 126:-0.091026925 127:-0.013799097 128:0.06415734 129:-0.009321297 130:0.05411188 131:0.045782268 132:0.03265756 133:0.021874292 134:0.054304343 135:0.009952254 136:-0.038536415 137:-0.081232935 138:-0.015007134 139:-0.0056165718 140:-0.020230262 141:0.08765428 142:-0.065089576 143:0.024660952 144:0.060406316 145:0.038663466 146:-0.010140806 147:-0.008355393 148:0.074460514 149:0.012045939 150:0.019992176 151:-0.014582248 152:-0.028346593 153:0.068373054 154:0.028376311 155:-0.09785473 156:-0.039139513 157:0.023492042 158:0.0026471973 159:-0.07572013 160:0.00084998936 161:0.04164411 162:-0.08061103 163:0.08752816 164:0.068592764 165:0.07321287 166:-0.008568901 167:0.026679361 168:-0.018703228 169:0.04191345 170:0.033933345 171:0.05699498 172:-0.007122824 173:-0.0067818873 174:-0.06843663 175:-0.06265302 176:-0.017501535 177:0.0031314353 178:0.011641485 179:-0.0024609135 180:0.08322237 181:0.0025351124 182:0.004333064 183:0.015723372 184:0.03423935 185:0.07519573 186:0.025467135 187:-0.05782945 188:0.0059840614 189:-0.008201178 190:-0.057489395 191:0.009109366 192:0.034785528 193:0.04673277 194:-0.013688361 195:-0.071776696 196:-0.032830827 197:0.025712328 198:0.037718438 199:0.040796604 200:0.04671518 201:-0.086026 202:0.008468404 203:-0.00184627 204:-0.02744597 205:0.052564155 206:-0.022406345 207:-0.027360441 208:0.012133901 209:0.023476893 210:-0.009339547 211:-0.05695172 212:-0.019888353 213:0.014869195 214:-0.020547612 215:-0.0037164248 216:0.0050611156 217:-0.011649388 218:0.06469904 219:0.029567815 220:0.04865976 221:-0.070996456 222:0.058632396 223:-0.03928176 224:0.013871823 225:0.009249993 226:0.020036902 227:-0.031465758 228:-0.020442082 229:0.00992508 230:-0.03495827 231:0.06377718 232:0.0076119145 233:0.014548749 234:0.012308932 235:0.046597436 236:-0.040983092 237:-0.019533446 238:0.08648582 239:0.028369274 240:0.031239383 241:0.014900704 242:0.06393943 243:0.016181702 244:-0.040652744 245:-0.0006173542 246:-0.016534206 247:0.03275656 248:0.017179528 249:0.03481797 250:-0.0075283768 251:-0.020871276 252:0.057751942 253:-0.060283776 254:-0.043641057 255:-0.026571475 256:0.048357002 257:0.013411156 258:0.08052269 259:-0.07894052 260:-0.06636675 261:0.029861387 262:-0.026674565 263:0.016152905 264:-0.029948672 265:0.014328848 266:0.032177977 267:-0.048761707 268:-0.004651574 269:-0.070231654 270:0.057488084 271:0.0028874767 272:0.017321162 273:0.00083900825 274:0.028802732 275:0.009735372 276:0.014936067 277:0.04556345 278:-0.029589541 279:0.005491168 280:0.02772443 281:0.019038389 282:-0.009160967 283:0.013973991 284:-0.008501946 285:-0.059408713 286:0.007005613 287:-0.06935743 288:-0.033287816 289:0.03865688 290:0.009594785 291:-0.06306493 292:-0.059070017 293:-0.0020240687 294:-0.026137441 295:0.017815607 296:-0.028267942 297:-0.0026513147 298:0.06147088 299:-0.03135203 300:0.017276019 301:0.04219168 302:-0.024469389 303:0.008246709 304:-0.0055085877 305:-0.04276234 306:0.01215276 307:0.026897686 308:-0.052515537 309:0.018196194 310:-0.013902343 311:0.044259544 312:0.078288905 313:-0.040975593 314:0.050214812 315:0.0062281555 316:0.047834206 317:-0.048169013 318:0.086090095 319:-0.0038251174 320:-0.013456499 321:-0.00015081502 322:0.014796617 323:0.0051390827 324:-0.0014787907 325:-0.02189411 326:0.06983803 327:0.06323416 328:0.0716532 329:0.027396845 330:-0.020673867 331:0.044469606 332:-0.050338637 333:0.059388574 334:-0.07139175 335:-0.0031411382 336:0.020452272 337:-0.08238847 338:-0.0076767136 339:0.022976883 340:0.051973928 341:-0.025896143 342:-0.030385954 343:0.031731453 344:0.020639418 345:0.061472457 346:-0.10224603 347:-0.011380135 348:-0.009910997 349:-0.031774268 350:0.024820693 351:-0.008818677 352:0.0742589 353:0.062423617 354:0.097293764 355:-0.0031289835 356:0.031210516 357:0.10245425 358:-0.04893998 359:-0.008500375 360:-0.01684483 361:-0.0061128116 362:-0.085101485 363:-0.033400007 364:-0.0028437981 365:-0.01936249 366:-0.034117233 367:0.04406314 368:-0.04799026 369:0.006264526 370:-0.011451622 371:-0.043775376 372:-0.013858474 373:0.011716445 374:-0.06632309 375:-0.0045211962 376:0.045805093 377:0.034211524 378:-0.07770499 379:-0.02407242 380:0.004126495 381:-0.04407023 382:-0.021168046 383:-0.031897273 384:-0.05258887 385:0.03943012 386:-0.098936915 387:-0.0485979 388:-0.018583631 389:0.012200071 390:-0.05626347 391:0.05398503 392:-0.032512628 393:0.06230939 394:0.032978926 395:0.046384167 396:0.013474802 397:0.07567518 398:0.059956793 399:-0.035727486 400:0.010743159 401:0.002518638 402:0.061998006 403:0.058134075 404:0.05103451 405:0.019960327 406:-0.011195281 407:0.0013057509 408:-0.017531032 409:-0.018340237 410:-0.0077073476 411:-0.01808695 412:0.01669234 413:0.0646557 414:-0.048533086 415:0.022835173 416:0.03545003 417:0.013934169 418:0.040371187 419:0.017425125 420:0.001669385 421:0.03031303 422:-0.041624624 423:0.0073266216 424:-0.03518685 425:0.14072393 426:-0.05075643 427:0.015696656 428:-0.015323911 429:0.05672659 430:-0.03252481 431:0.029976634 432:-0.057353377 433:0.042273004 434:-0.016407738 435:0.029017081 436:-0.042294793 437:0.00021776228 438:-0.0035512443 439:0.03062377 440:-0.0023880415 441:0.017849905 442:0.009168423 443:0.03732149 444:0.06776422 445:-0.026639227 446:-0.01097993 447:-0.08556757 448:-0.009319194 449:-0.019006988 450:-0.017329331 451:0.09210704 452:-0.04831 453:0.0064243646 454:-0.05669519 455:-0.018438293 456:-0.082710125 457:0.092350096 458:0.060627695 459:0.06897529 460:0.06355432 461:0.04755623 462:0.04638075 463:-0.042324428 464:-0.05689541 465:0.0074041532 466:-0.053591803 467:0.04778651 468:0.027228534 469:0.0071710884 470:0.073122084 471:0.014758223 472:0.04172795 473:-0.016679313 474:-0.010262345 475:-0.013050351 476:-0.00034845952 477:-0.04770726 478:0.042722158 479:0.030704865 480:-0.02562609 481:0.021654297 482:-0.0012894918 483:0.010544228 484:-0.028930414 485:0.04281276 486:-0.042414933 487:0.025405668 488:0.011457621 489:-0.05450348 490:-0.017513402 491:-0.04484838 492:-0.034821447 493:0.038913287 494:0.09276506 495:-0.0187906 496:0.03461949 497:0.07102718 498:0.036962897 499:0.02591511 500:-0.0052564666 501:-0.06444222 502:0.066102974 503:-0.046747748 504:-0.039794568 505:0.10445081 506:0.039525095 507:0.023745086 508:-0.017135946 509:-0.05169192 510:-0.01879738 511:0.035188377 
0 0.8541180222605359 0 0 0 0.7468695472500093 0 0 0:-0.0068054404 1:0.026242824 2:-0.028215269 3:0.030194214 4:0.06284527 5:-0.021061976 6:0.061463986 7:-0.039842308 8:0.03163538 9:0.031995345 10:0.09677929 11:0.004790825 12:0.073356256 13:0.026301311 14:-0.032404482 15:-0.014689331 16:0.048097584 17:0.10271838 18:0.030084835 19:0.0074538947 20:0.04238225 21:-0.031114025 22:0.019617315 23:-0.12025734 24:-0.062863104 25:-0.071730144 26:0.019696595 27:-0.068622634 28:0.037351273 29:-0.030561812 30:0.054781828 31:-0.024337694 32:0.011233829 33:0.040900163 34:0.028067563 35:-0.087990716 36:0.048546378 37:-0.057254296 38:-0.022219196 39:0.041885313 40:-0.092009574 41:-0.04080234 42:-0.0012356853 43:0.07264217 44:-0.026398877 45:0.057569508 46:0.0028532264 47:0.014763594 48:-0.030950183 49:-0.03431376 50:-0.015765635 51:-0.023494832 52:-0.044061076 53:-0.017904712 54:0.00014995948 55:-0.11727054 56:0.038499992 57:-0.033314526 58:-0.06849308 59:0.034383707 60:-0.0047745053 61:0.060742844 62:-0.041476917 63:-0.030301707 64:-0.059281435 65:-0.04893083 66:0.0030051619 67:-0.0287091 68:0.0025496357 69:-0.05413201 70:0.002639234 71:-0.031659093 72:-0.014867931 73:-0.011397396 74:0.07580412 75:-0.040554628 76:0.06191831 77:0.012535192 78:-0.049355924 79:-0.019412944 80:-0.09236645 81:-0.01306853 82:0.025510099 83:-0.045866232 84:-0.06836317 85:0.03295731 86:0.036905482 87:0.036336754 88:-0.03394273 89:-0.0044950936 90:-0.069021985 91:-0.05767936 92:-0.057498895 93:0.033881374 94:0.04589649 95:0.026637677 96:-0.0053896825 97:0.02376787 98:-0.08399459 99:0.07049022 100:0.0045841285 101:0.024895176 102:0.05277532 103:-0.014325712 104:-0.05736966 105:-0.04229711 106:-0.040682517 107:-0.056171596 108:-0.03980998 109:0.0043390277 110:0.03764171 111:0.005104623 112:-0.064724304 113:-0.04365466 114:0.004273073 115:0.024592487 116:0.05764962 117:0.041914437 118:0.05483254 119:0.090161115 120:0.060690302 121:0.040760323 122:-0.009621851 123:0.027947733 124:-0.08545384 125:-0.051845938 126:-0.05648501 127:-0.016028127 128:0.053881787 129:0.016465636 130:0.04086068 131:0.035096806 132:0.019794635 133:0.015187523 134:0.03961915 135:0.013853868 136:-0.04473155 137:-0.08301788 138:0.010285187 139:-0.0037963053 140:-0.0019015421 141:0.08729549 142:-0.044278044 143:0.017242411 144:0.041367695 145:0.036862787 146:0.0048310794 147:-0.0053152014 148:0.0645512 149:0.0016113453 150:0.040263455 151:0.000713397 152:-0.018097306 153:0.052183766 154:0.050831184 155:-0.090380155 156:-0.065532275 157:0.03137792 158:0.0094933435 159:-0.061031666 160:-0.009732524 161:0.059345547 162:-0.06497486 163:0.10374919 164:0.06824953 165:0.089605056 166:0.00046099722 167:0.026103681 168:-0.037485328 169:0.04857645 170:0.023146145 171:0.058171704 172:0.024665335 173:-0.015716141 174:-0.05194124 175:-0.06826148 176:-0.03329384 177:-0.003009469 178:0.022008412 179:-0.0013161193 180:0.07054285 181:-0.001253734 182:0.010954065 183:0.006949445 184:0.028537942 185:0.060937475 186:0.03449281 187:-0.06710356 188:-0.0035048758 189:-0.012545542 190:-0.054169256 191:0.03993783 192:0.042502865 193:0.02623666 194:0.0008201774 195:-0.08110848 196:-0.054905917 197:0.016371127 198:0.054173272 199:0.012841567 200:0.050442062 201:-0.08242758 202:0.028125312 203:-0.018328235 204:-0.025739038 205:0.042296734 206:-0.039069757 207:-0.02747724 208:0.0036453572 209:0.009928454 210:-0.016365655 211:-0.053761974 212:-0.02238966 213:0.014976958 214:-0.011527535 215:-0.010654185 216:0.029328395 217:-0.031279378 218:0.055678338 219:0.050381362 220:0.06511285 221:-0.056736793 222:0.0585486 223:-0.041951675 224:0.009401699 225:0.0014257543 226:0.03370673 227:-0.04273772 228:-0.028541548 229:0.007074209 230:-0.029972903 231:0.06961672 232:0.009236183 233:0.008208089 234:-0.009972562 235:0.05298911 236:-0.009779507 237:-0.030525161 238:0.08716144 239:0.029105429 240:0.02249236 241:-0.0018781084 242:0.052984837 243:0.015215823 244:-0.039687335 245:-0.0009656533 246:-0.023786461 247:0.0071629803 248:0.0007359747 249:0.025743552 250:-0.014626177 251:-0.02423892 252:0.067487374 253:-0.036781028 254:-0.06762819 255:-0.027554767 256:0.033755966 257:0.003754559 258:0.06777143 259:-0.053195745 260:-0.07433046 261:0.03897567 262:-0.020890653 263:0.021763666 264:-0.04331852 265:0.0035769762 266:0.032273244 267:-0.06505623 268:-0.0052336203 269:-0.08187891 270:0.08464943 271:0.024355937 272:0.032351885 273:0.002523611 274:0.01695798 275:0.02056312 276:-0.002747996 277:0.037992407 278:-0.021641903 279:0.008696422 280:0.026179124 281:0.02351387 282:-0.014102244 283:0.015441902 284:-0.011309259 285:-0.066525064 286:0.016691359 287:-0.07269265 288:-0.035259463 289:0.034294073 290:-0.001563953 291:-0.0672514 292:-0.06628799 293:-0.0032222322 294:-0.008999634 295:0.017479617 296:-0.046378564 297:0.0015164159 298:0.073012866 299:-0.038568 300:0.0369044 301:0.029485513 302:-0.025414981 303:0.0064154877 304:-0.020868486 305:-0.038627047 306:0.015569469 307:0.030114722 308:-0.050248902 309:0.0095032565 310:-0.021576473 311:0.022116043 312:0.05939997 313:-0.044004332 314:0.045368712 315:-0.0015648303 316:0.056290504 317:-0.06125542 318:0.08587658 319:-0.031606574 320:-0.0058364086 321:-0.006451373 322:-0.0031494605 323:0.000656356 324:-0.008001238 325:-0.002983614 326:0.057462208 327:0.054414 328:0.061552837 329:0.013472192 330:-0.03718763 331:0.037504114 332:-0.060618587 333:0.04795447 334:-0.07113054 335:0.018835887 336:0.040925696 337:-0.08650033 338:-0.023160242 339:0.037915375 340:0.03269407 341:-0.041771233 342:-0.01851094 343:0.03707789 344:0.014125692 345:0.057710946 346:-0.09376983 347:-0.01997638 348:-0.01603896 349:-0.015189042 350:0.021247206 351:-0.0024388593 352:0.07350564 353:0.07361645 354:0.07557754 355:-0.011577891 356:0.056881443 357:0.11546303 358:-0.065434985 359:-0.009595597 360:-0.014667994 361:-0.014270291 362:-0.085281596 363:-0.027599229 364:0.00018284559 365:0.013906994 366:-0.039510053 367:0.05316347 368:-0.060718518 369:0.023777459 370:-0.02381023 371:-0.029503604 372:-0.02299219 373:0.03419014 374:-0.04743123 375:-0.011357001 376:0.034082823 377:0.026618125 378:-0.077125005 379:-0.021800507 380:-0.010558544 381:-0.014979976 382:-0.02914005 383:-0.028075807 384:-0.02362873 385:0.030771982 386:-0.09074113 387:-0.027665595 388:-0.03381814 389:0.004598838 390:-0.030032087 391:0.068039395 392:-0.04994107 393:0.070638925 394:0.02208233 395:0.030714193 396:0.009722143 397:0.08045854 398:0.05397814 399:-0.04007953 400:0.012330288 401:-0.006097843 402:0.05487819 403:0.08015172 404:0.043687604 405:0.00440725 406:-0.020920347 407:0.009718747 408:-0.0026286868 409:-0.025779217 410:-0.010712793 411:-0.01697918 412:-0.004819155 413:0.068096355 414:-0.054121636 415:0.0026540249 416:0.025234926 417:0.017293362 418:0.05519085 419:0.008903412 420:0.003983937 421:0.028740639 422:-0.02937846 423:0.005814037 424:-0.03652303 425:0.13133632 426:-0.031206552 427:0.008315108 428:-0.018617144 429:0.07296262 430:-0.05015978 431:0.03577658 432:-0.051713407 433:0.036279283 434:-0.00469385 435:0.035862263 436:-0.051301043 437:-0.024531508 438:0.011260097 439:0.02211377 440:-0.0058477 441:0.025423823 442:0.019875076 443:0.013877667 444:0.0634535 445:-0.042910717 446:-0.0007992149 447:-0.071238846 448:-0.022277609 449:-0.022307392 450:-0.019668678 451:0.0664365 452:-0.043298896 453:0.0037240775 454:-0.056175288 455:-0.022294035 456:-0.07634384 457:0.095451996 458:0.046795122 459:0.09597909 460:0.057408225 461:0.07549235 462:0.058925916 463:-0.014059179 464:-0.057931878 465:0.022862963 466:-0.032453645 467:0.027959164 468:0.04162036 469:0.0019473888 470:0.08191444 471:-0.015088354 472:0.054335676 473:-0.005351849 474:-0.012518836 475:0.00068392634 476:0.017855033 477:-0.03146255 478:0.03174882 479:0.028610561 480:-0.004501415 481:0.006614121 482:0.005190295 483:0.014556269 484:-0.026334962 485:0.060511284 486:-0.045846984 487:0.040106125 488:0.006236449 489:-0.038731415 490:-0.01702049 491:-0.055560265 492:-0.041083295 493:0.012457214 494:0.10127212 495:-0.015003737 496:0.033906974 497:0.064678825 498:0.031123446 499:0.017079795 500:0.0074315057 501:-0.070578374 502:0.083519734 503:-0.03671899 504:-0.048026368 505:0.1058573 506:0.0522973 507:0.035836853 508:-0.026104052 509:-0.0601379 510:-0.051268127 511:0.037748095 
0 0 0 0 1 0 0 0 0:-0.013913782 1:0.013653971 2:-0.040130224 3:0.029875344 4:0.07817318 5:-0.04964026 6:0.061168823 7:-0.03885836 8:0.020044796 9:0.03356718 10:0.11970706 11:-0.0035675669 12:0.073434316 13:0.020508261 14:0.013952252 15:-0.005709741 16:0.03674463 17:0.10008596 18:0.0218772 19:0.014677703 20:0.042099785 21:-0.037794724 22:0.010984217 23:-0.10754795 24:-0.06431036 25:-0.0806787 26:-0.0067010587 27:-0.08968784 28:0.028005486 29:-0.032636877 30:0.015247449 31:-0.048002437 32:-0.013366445 33:0.043433066 34:0.02121976 35:-0.07375767 36:0.056779694 37:-0.06374279 38:-0.024575217 39:0.042977415 40:-0.08815283 41:-0.0182266 42:-0.014760655 43:0.066062614 44:-0.019487683 45:0.08752083 46:0.026438914 47:0.01083937 48:-0.028443169 49:-0.02773975 50:-0.011372524 51:-0.026119102 52:-0.059028022 53:-0.012896535 54:-0.010003239 55:-0.13776374 56:0.034314744 57:-0.048905883 58:-0.09158607 59:0.01805294 60:-0.01652558 61:0.075220816 62:-0.05407678 63:-0.034290448 64:-0.042572353 65:-0.06330982 66:-0.00037939203 67:-0.04098819 68:0.006616012 69:-0.037894007 70:0.008430764 71:-0.007430581 72:-0.026833262 73:-0.03778994 74:0.08187294 75:-0.045578938 76:0.06280785 77:0.0078780195 78:-0.042026114 79:-0.0019633498 80:-0.073222056 81:0.009892208 82:0.01469388 83:-0.03545965 84:-0.0628389 85:0.047294725 86:0.042801928 87:0.05790497 88:-0.023946868 89:0.009186103 90:-0.051256265 91:-0.03196511 92:-0.073758714 93:0.032625753 94:0.05108646 95:0.026201721 96:0.00012566756 97:0.038715538 98:-0.08842367 99:0.042735506 100:-0.017645964 101:0.007734723 102:0.045397937 103:0.00019102904 104:-0.07933022 105:-0.05952669 106:-0.0269887 107:-0.04326675 108:-0.049330633 109:0.020968007 110:0.029594691 111:-0.009672353 112:-0.053217836 113:-0.03121249 114:-0.01177136 115:0.0026533697 116:0.05757044 117:0.03998241 118:0.03211203 119:0.10737084 120:0.05056443 121:0.018388031 122:0.0019939353 123:0.020872965 124:-0.058317073 125:-0.034982126 126:-0.07010793 127:-0.013680292 128:0.04204507 129:-0.0030704325 130:0.058275227 131:0.021399114 132:0.025710065 133:0.024087438 134:0.05547893 135:0.023388788 136:-0.032736093 137:-0.054524753 138:-0.01471854 139:0.0032680032 140:-0.016031237 141:0.10403682 142:-0.039683796 143:0.036867443 144:0.05873887 145:0.0355653 146:0.00012279657 147:0.00680964 148:0.069827124 149:0.0011912215 150:0.025291229 151:-0.01582349 152:-0.026200797 153:0.05217051 154:0.038797922 155:-0.10385145 156:-0.04990168 157:0.03094196 158:0.008370291 159:-0.051135175 160:-0.007900063 161:0.024996748 162:-0.08318483 163:0.11373555 164:0.044534232 165:0.08395061 166:-0.02153849 167:0.027329296 168:-0.022962619 169:0.019423509 170:0.027564194 171:0.046573598 172:0.020270329 173:-0.013558071 174:-0.06417646 175:-0.041732285 176:-0.012054943 177:-0.0013227868 178:0.02096089 179:0.0060444465 180:0.06470789 181:-0.0322374 182:0.015064612 183:0.02680237 184:0.022232043 185:0.060825046 186:0.04175433 187:-0.060295835 188:-0.0066711004 189:-0.018480433 190:-0.06279611 191:0.011631565 192:0.05822262 193:0.04550154 194:-0.0017713272 195:-0.086886145 196:-0.05355339 197:0.0014829733 198:0.025559647 199:0.038654163 200:0.051275514 201:-0.089690275 202:0.018055394 203:-0.017970927 204:-0.040169097 205:0.062424112 206:-0.023020178 207:-0.018372675 208:0.016250858 209:0.019201659 210:-0.021613851 211:-0.044323266 212:-0.036940213 213:-0.01544477 214:-0.029952792 215:-0.02182403 216:0.017177327 217:-0.017551221 218:0.07051044 219:0.0535465 220:0.058597557 221:-0.059554223 222:0.04193164 223:-0.038270254 224:0.033643708 225:0.007312496 226:0.022154957 227:-0.03681737 228:-0.047085352 229:0.0063193077 230:-0.050031558 231:0.06800657 232:0.020535734 233:0.0070540006 234:-0.00067699625 235:0.047544975 236:-0.006889837 237:-0.013128621 238:0.082188725 239:0.046837665 240:0.022686923 241:-0.0067089326 242:0.044970486 243:0.028356997 244:-0.04636444 245:0.0016071524 246:-0.02902155 247:0.024693202 248:0.024711642 249:0.039303973 250:-0.00083762984 251:-0.01573459 252:0.04465351 253:-0.050662052 254:-0.064260855 255:-0.012066925 256:0.0308304 257:0.013297282 258:0.07018044 259:-0.07218742 260:-0.089570984 261:0.0249869 262:-0.024879806 263:0.0071597276 264:-0.025014646 265:0.030851243 266:0.027355071 267:-0.061684042 268:-0.0097105075 269:-0.07855064 270:0.06194962 271:-0.0009944806 272:0.03202144 273:-0.005396997 274:0.008926446 275:0.0017349288 276:-0.015624317 277:0.02994704 278:-0.013826405 279:0.015813481 280:0.014548821 281:0.014316715 282:0.0058936286 283:0.012764948 284:-0.001973242 285:-0.04571709 286:0.013443652 287:-0.06115494 288:-0.01971434 289:0.032092374 290:0.009276357 291:-0.07894785 292:-0.04098974 293:0.013996148 294:-0.023673136 295:-0.0019413551 296:-0.032319788 297:-0.0021110596 298:0.056315925 299:-0.051046718 300:0.021694522 301:0.033920504 302:-0.020519821 303:0.014023903 304:0.0063850656 305:-0.03708429 306:0.014567393 307:0.022147445 308:-0.048113964 309:0.013974273 310:-0.0044168946 311:0.055999357 312:0.073668964 313:-0.027081411 314:0.066010065 315:-0.0110858 316:0.051180914 317:-0.05350746 318:0.0660965 319:-0.021648716 320:-0.012365049 321:0.011268043 322:0.012747775 323:0.0023728102 324:0.0021944179 325:-0.021124337 326:0.07089885 327:0.07506526 328:0.06568561 329:0.029904444 330:-0.03968974 331:0.042415936 332:-0.06166213 333:0.052879505 334:-0.078086615 335:0.0041840645 336:0.026049105 337:-0.08053751 338:-0.018157393 339:0.04538453 340:0.04810936 341:-0.02004411 342:-0.03899957 343:0.056458548 344:0.026128916 345:0.07019994 346:-0.08769344 347:-0.014850912 348:-0.015748858 349:-0.022962749 350:0.032862987 351:-0.0046370975 352:0.06926242 353:0.07813758 354:0.08296188 355:0.007156567 356:0.032828726 357:0.10440516 358:-0.030300353 359:-0.03007085 360:-0.003923954 361:-0.011727771 362:-0.08369236 363:-0.011278862 364:-0.010364476 365:0.0019826621 366:-0.029348845 367:0.03750981 368:-0.05547755 369:0.01660192 370:-0.026186299 371:-0.051425267 372:-0.0046785325 373:0.010603154 374:-0.04866135 375:0.0073543913 376:0.047932267 377:0.015843246 378:-0.09149258 379:-0.01211789 380:0.02162507 381:-0.04291787 382:-0.021722082 383:-0.0031992726 384:-0.014849545 385:0.04480066 386:-0.10632328 387:-0.014892186 388:-0.009690676 389:0.009776956 390:-0.045590494 391:0.05303138 392:-0.044539083 393:0.059968475 394:0.020244991 395:0.030770326 396:-0.0044668964 397:0.054043975 398:0.031019172 399:-0.020988287 400:-0.002131687 401:-0.0060269833 402:0.0638402 403:0.06669972 404:0.048359867 405:0.01967907 406:-0.0050328183 407:0.012502934 408:-0.013647617 409:-0.04106034 410:-0.010488658 411:-0.014244559 412:0.00013986767 413:0.07248321 414:-0.041459125 415:0.009647014 416:0.034637406 417:0.0361496 418:0.049879987 419:0.008161559 420:-0.02621494 421:0.010451129 422:-0.044440538 423:0.005505448 424:-0.03439511 425:0.14637682 426:-0.023225958 427:0.0082105575 428:-0.023863738 429:0.061774746 430:-0.027190091 431:0.05030424 432:-0.03495588 433:0.04603048 434:-0.015371408 435:0.03900463 436:-0.05287959 437:-0.024910612 438:-0.015924845 439:0.027801909 440:0.00087024143 441:0.017834261 442:0.021902952 443:0.038882434 444:0.06562414 445:-0.046834208 446:0.020752126 447:-0.07002723 448:-0.025593117 449:-0.008105487 450:-0.038972855 451:0.07209673 452:-0.030042158 453:0.0017872322 454:-0.051194493 455:-0.024853034 456:-0.04536245 457:0.10181706 458:0.032346155 459:0.06849122 460:0.056424543 461:0.05505852 462:0.050462913 463:-0.029979115 464:-0.05404693 465:0.021057392 466:-0.035547096 467:0.053012967 468:0.039781533 469:0.014330613 470:0.08265003 471:0.0036475663 472:0.050074384 473:-0.015623833 474:-0.006068575 475:-0.015722003 476:-0.0026119838 477:-0.02292539 478:0.033027235 479:0.034905452 480:-0.03168141 481:0.003328896 482:0.015912268 483:0.008078384 484:-0.026642833 485:0.06455258 486:-0.034895495 487:0.019657204 488:0.027343366 489:-0.033174064 490:-0.021001693 491:-0.06979187 492:-0.041645255 493:0.025635788 494:0.083642334 495:-0.03789326 496:0.05141669 497:0.075154334 498:0.03369144 499:0.027432565 500:0.0034733976 501:-0.072778806 502:0.06730236 503:-0.041291732 504:-0.061639078 505:0.12117236 506:0.035050355 507:0.039912384 508:-0.020544212 509:-0.0758181 510:-0.040570293 511:0.0320024 
0 0 0 0 1 0 0 0 0:-0.014756296 1:-0.01878506 2:-0.07335164 3:0.029885836 4:0.08591216 5:-0.029519195 6:0.05316201 7:-0.03189885 8:0.0057921573 9:0.07477292 10:0.12118622 11:0.034451157 12:0.07582423 13:-0.006163543 14:-0.016564729 15:0.013547828 16:0.04786374 17:0.10086465 18:0.026870657 19:0.022623207 20:0.057435047 21:-0.033929426 22:0.012714086 23:-0.10727119 24:-0.07316049 25:-0.036916375 26:-0.0026531466 27:-0.061846144 28:0.01090523 29:-0.026894234 30:-0.011056946 31:-0.0662332 32:-0.035031084 33:0.036243096 34:0.004910941 35:-0.0590374 36:0.050711576 37:-0.06329865 38:-0.050489496 39:0.042493943 40:-0.10163228 41:0.00395512 42:-0.004639383 43:0.04544692 44:-0.0412153 45:0.077780515 46:0.030995639 47:0.016255157 48:-0.043521587 49:-0.020823881 50:-0.036100578 51:-0.05162148 52:-0.018438296 53:-0.00076826045 54:-0.009240759 55:-0.13670255 56:0.014803862 57:-0.0067863665 58:-0.096563235 59:0.0065289605 60:0.012598553 61:0.09993393 62:-0.07328793 63:-0.008834227 64:-0.03506384 65:-0.07773895 66:0.021780005 67:-0.059728205 68:0.007195964 69:-0.0031796282 70:-0.010505952 71:-0.021479337 72:-0.014416064 73:-0.029548679 74:0.05702499 75:-0.036861483 76:0.041001573 77:0.0271175 78:-0.013358194 79:-0.034010414 80:-0.07469032 81:0.012255187 82:0.027425671 83:-0.04398803 84:-0.06688056 85:0.049552053 86:0.018395081 87:0.05915996 88:-0.04457323 89:-0.021169517 90:-0.030913876 91:-0.021317497 92:-0.08938795 93:0.041910682 94:0.07223519 95:0.06337825 96:0.06216051 97:0.026769131 98:-0.073551975 99:0.061049927 100:-0.0463699 101:-0.02229961 102:0.025318222 103:0.014542944 104:-0.08900517 105:-0.09070185 106:-0.0277575 107:-0.035623286 108:-0.02947066 109:0.036347274 110:0.037627336 111:-0.014440429 112:-0.0367996 113:-0.048491314 114:-0.007876729 115:-0.019819226 116:0.051279366 117:0.050312907 118:0.038942456 119:0.12325857 120:0.05714171 121:-0.010668803 122:-0.0056996387 123:-0.013145539 124:-0.053847503 125:-0.034102615 126:-0.068795204 127:0.0074970014 128:0.0030429342 129:-0.022703791 130:0.0299242 131:0.016648857 132:0.03248356 133:0.018544387 134:0.012294355 135:0.032344565 136:-0.012402871 137:-0.021729175 138:0.0053505027 139:0.014683417 140:-0.017030468 141:0.07009967 142:-0.021514501 143:0.06012384 144:0.015529122 145:0.0036767302 146:-0.005837689 147:0.0054976535 148:0.066210456 149:0.023975855 150:0.014436516 151:-0.0013284901 152:-0.032909114 153:0.06969713 154:0.06685785 155:-0.09854521 156:-0.06516208 157:0.047833525 158:-0.00077718846 159:-0.03763101 160:-0.0064920285 161:0.030250492 162:-0.06956756 163:0.13117793 164:0.042179234 165:0.09533412 166:-0.012554982 167:-0.019028611 168:-0.006495006 169:0.036538184 170:0.025894063 171:0.024715008 172:0.012121739 173:0.0028681066 174:-0.035734177 175:-0.013546526 176:-0.011047885 177:0.04312586 178:0.0074527417 179:-0.008296015 180:0.013315449 181:-0.037239093 182:0.0032579447 183:0.03878952 184:0.0044672852 185:0.05059426 186:0.04387772 187:-0.044777542 188:0.020285059 189:-0.016569367 190:-0.048695743 191:0.008128868 192:0.049275406 193:0.01794462 194:-0.009975371 195:-0.04411977 196:-0.044853218 197:0.047048233 198:0.010800486 199:0.034954436 200:0.0683858 201:-0.073654234 202:-0.01235337 203:-0.041720048 204:-0.030090643 205:0.081250355 206:-0.012505053 207:-0.02841769 208:0.008270194 209:-0.026262391 210:-0.020394191 211:-0.04501813 212:-0.0016942514 213:-0.018246822 214:-0.0053450153 215:-0.03081544 216:0.0057071485 217:0.0145636 218:0.032584358 219:0.06167994 220:0.043916877 221:-0.07333934 222:0.059332855 223:-0.041321345 224:0.0450659 225:-0.013396175 226:0.0024751667 227:-0.05217431 228:-0.038407892 229:-0.015794847 230:-0.020881902 231:0.11340646 232:0.016434379 233:-0.028525848 234:0.007191465 235:0.043162018 236:0.012316908 237:-0.02287442 238:0.05368654 239:0.03272219 240:0.0072876383 241:0.010948261 242:0.02262086 243:0.05522808 244:-0.04692172 245:0.015731286 246:0.0047056284 247:0.015552193 248:0.024083022 249:0.0734672 250:-0.039834097 251:-0.016903235 252:0.08209614 253:-0.03754005 254:-0.068584114 255:-0.012544326 256:-0.012639298 257:0.0074683875 258:0.06255655 259:-0.068502285 260:-0.0837971 261:0.032208756 262:-0.033253837 263:-0.0012754288 264:-0.043755 265:0.0043217507 266:0.010310149 267:-0.053594533 268:-0.02122004 269:-0.09742091 270:0.08599811 271:0.013826505 272:0.025432827 273:-0.0018276308 274:0.005390077 275:0.0026069283 276:-0.0036068538 277:0.020848358 278:-0.020710155 279:0.01226071 280:0.026121726 281:0.021019697 282:-0.0070210155 283:0.013562343 284:-0.013603291 285:-0.04138655 286:0.023023471 287:-0.039273076 288:-0.027680581 289:0.03416001 290:0.015637958 291:-0.09141674 292:-0.04504389 293:0.06704292 294:-0.018038074 295:-0.042450387 296:-0.0026828363 297:0.018104974 298:0.044119366 299:-0.055935748 300:0.042227365 301:0.045721933 302:-0.022020899 303:0.052961946 304:0.014742491 305:0.0013542095 306:-0.027376905 307:0.024121651 308:-0.03650881 309:0.020176148 310:0.015235462 311:0.07024516 312:0.05026418 313:-0.019212618 314:0.08468835 315:0.027617577 316:0.0638218 317:-0.038600925 318:0.069945715 319:-0.05016417 320:0.009938097 321:0.014976107 322:-0.01342153 323:0.0029535487 324:-0.031591244 325:0.013175596 326:0.04665995 327:0.066140585 328:0.040563136 329:0.020004956 330:-0.011016069 331:0.06385577 332:-0.058963094 333:0.037016686 334:-0.05050442 335:0.018652974 336:0.024156393 337:-0.07064385 338:-0.054776352 339:0.04814604 340:0.075445585 341:0.006910799 342:-0.022293609 343:0.035860192 344:0.026152302 345:0.05131052 346:-0.08826048 347:-0.01832417 348:0.0074064867 349:-0.052846085 350:0.0010837364 351:0.011400919 352:0.054562077 353:0.0747885 354:0.052329272 355:-0.0071601947 356:0.076798536 357:0.08015815 358:0.006033298 359:-0.009472841 360:-0.0030391377 361:0.0027241823 362:-0.07699381 363:-0.02098983 364:-0.015753267 365:0.023369225 366:-0.019617477 367:0.024180038 368:-0.022838144 369:-0.0036319175 370:-0.0363599 371:-0.012689675 372:-0.013993151 373:0.04028174 374:-0.06015133 375:0.014444178 376:0.048312217 377:0.046176083 378:-0.080859594 379:-0.03913484 380:0.04541008 381:-0.028044483 382:0.017965239 383:-0.0047639045 384:0.035124123 385:0.024266828 386:-0.08570459 387:-0.030184748 388:-0.021293906 389:0.024552854 390:-0.031774722 391:0.072730124 392:-0.006434173 393:0.05856962 394:-0.0012742368 395:0.04892256 396:-0.020007752 397:0.058762014 398:0.06241605 399:-0.021771245 400:0.006812338 401:-0.0030307283 402:0.065468155 403:0.07240291 404:0.06624027 405:0.03036066 406:-0.006877946 407:0.031918533 408:0.0069701746 409:-0.036868047 410:0.029610448 411:-0.012371499 412:0.015457307 413:0.050737176 414:-0.0357912 415:0.0066499384 416:0.076954894 417:0.021405958 418:0.024413453 419:-0.0040512527 420:0.016212178 421:0.010973563 422:-0.011372409 423:0.016805269 424:-0.027140096 425:0.15694857 426:0.017575063 427:0.011023094 428:-0.023481559 429:0.0638898 430:-0.024375435 431:0.06702743 432:-0.032161396 433:0.030596532 434:0.030980716 435:0.06047571 436:-0.06027744 437:-0.026062768 438:-0.013993313 439:0.019024875 440:-0.007671258 441:0.020371469 442:0.01514595 443:0.07756786 444:0.052087747 445:-0.06956719 446:-0.0037539322 447:-0.009148851 448:-0.033290233 449:-0.02025063 450:-0.019669242 451:0.05518432 452:-0.028518599 453:-0.0057782736 454:-0.012290847 455:-0.018247994 456:-0.045952316 457:0.06930029 458:0.036722016 459:0.020738218 460:0.086416416 461:0.0948748 462:0.047204938 463:-0.0069238925 464:-0.021029739 465:0.02050428 466:-0.0013305413 467:0.05285711 468:0.0068343473 469:0.00042842005 470:0.080466 471:-0.027074004 472:0.053947054 473:0.0016650045 474:-0.01910819 475:0.014958596 476:0.004974403 477:-0.01911861 478:0.03771117 479:0.008638014 480:-0.02755851 481:0.002697797 482:0.024167834 483:0.004369363 484:-0.03562777 485:0.054247536 486:-0.053868152 487:0.034106564 488:-0.011581611 489:-0.033906866 490:0.024369044 491:-0.03430133 492:-0.041600958 493:0.05589486 494:0.11130345 495:-0.03945489 496:0.052232303 497:0.070699684 498:0.029696269 499:0.01685324 500:-0.0016963681 501:-0.026132543 502:0.060537662 503:-0.06860424 504:-0.047763284 505:0.091601476 506:-0.0029038547 507:0.03544036 508:-0.029520804 509:-0.066592395 510:-0.043982524 511:0.06610761 
0 0 0 0 0 0 0.775876917599299 0 0:-0.008114171 1:-0.004468846 2:-0.081097834 3:0.039776985 4:0.11271182 5:-0.054790113 6:0.048900947 7:-0.0019160128 8:0.048413955 9:0.045413826 10:0.10565939 11:0.03762036 12:0.07662387 13:0.0018794611 14:-0.041318472 15:-0.04257644 16:-0.005862368 17:0.05133023 18:0.012357689 19:0.0059997393 20:-0.025556646 21:-0.02890971 22:-0.013433651 23:-0.095058754 24:-0.082728185 25:-0.05382783 26:-0.011384112 27:-0.055874463 28:0.02796395 29:-0.027528288 30:-0.01097484 31:-0.05109484 32:-0.008120316 33:-0.03281854 34:-0.008615625 35:-0.061972182 36:0.02169134 37:-0.04386902 38:-0.06792426 39:0.05484405 40:-0.10369621 41:0.037138164 42:-0.0045037195 43:0.04443501 44:-0.0007921359 45:0.07474394 46:0.016354606 47:0.076532945 48:-0.0695229 49:-0.05639269 50:-0.023365302 51:-0.080077045 52:-0.033811152 53:0.0036562206 54:-0.020024903 55:-0.04097548 56:-0.012623396 57:-0.0055094706 58:-0.08137084 59:-0.027361043 60:0.0006748754 61:0.10372115 62:-0.05180059 63:-0.03882113 64:-0.040978584 65:-0.036841284 66:0.013438958 67:-0.04665702 68:0.000770517 69:-0.0053741545 70:0.04660301 71:-0.0076812254 72:-0.033652842 73:-0.022764176 74:0.041022077 75:-0.07418444 76:0.06367918 77:0.015054107 78:-0.014969256 79:0.019085785 80:-0.024596812 81:0.10860487 82:0.032801677 83:0.010686475 84:-0.033008713 85:0.02691343 86:0.046002574 87:0.013531906 88:-0.009284011 89:-0.025386339 90:0.011021589 91:0.0016980552 92:0.011202709 93:-0.014111418 94:0.051648907 95:0.07223385 96:0.012610226 97:0.050951816 98:-0.071195774 99:0.056621697 100:-0.026905157 101:-0.012326179 102:0.023874346 103:0.016701687 104:-0.10157234 105:-0.013994741 106:-0.026389416 107:0.0065541985 108:-0.021572027 109:0.020995855 110:0.084290855 111:0.017289862 112:-0.06650819 113:0.0022030473 114:0.015668815 115:0.017297847 116:0.10923808 117:0.07299786 118:0.037733298 119:0.09871998 120:0.0011973421 121:-0.005031889 122:0.022468694 123:-0.04177151 124:-0.05328081 125:-0.04688607 126:-0.051982872 127:-0.043984756 128:-0.024755372 129:0.010817985 130:-0.0022053937 131:-0.01635335 132:0.052398235 133:0.016797489 134:-0.033350863 135:0.013438837 136:-0.026822895 137:-0.027629944 138:0.04753622 139:0.032081787 140:-0.037222814 141:0.078652315 142:-0.04683297 143:0.065992415 144:0.06615309 145:0.032650474 146:-0.027593514 147:0.031124141 148:0.036553845 149:-0.017142056 150:0.036035355 151:-0.016079053 152:-0.068461075 153:0.09346349 154:0.055427864 155:-0.09596159 156:-0.037629355 157:0.014812379 158:-0.013753261 159:-0.047130063 160:0.046226118 161:0.026246717 162:-0.05324943 163:0.046463333 164:0.044278633 165:0.050052363 166:0.016582413 167:0.01723111 168:-0.045770835 169:0.07233582 170:-0.00797487 171:0.02328888 172:-0.0036283415 173:-0.020044515 174:-0.011022621 175:0.025484568 176:0.05501225 177:0.03361792 178:-0.0013620273 179:-0.025644438 180:0.056757007 181:-0.047772523 182:-0.045408506 183:0.014935494 184:0.039077014 185:0.077210546 186:-0.0020169076 187:-0.047607176 188:0.038017277 189:0.016180912 190:-0.050350133 191:-0.017737072 192:0.0665239 193:-0.0061991154 194:0.048579007 195:-0.026100295 196:0.004961604 197:0.03893653 198:0.012722802 199:0.02441643 200:0.031163832 201:-0.09412065 202:0.0077144834 203:-0.05575627 204:-0.0050470955 205:0.07713455 206:0.020186102 207:-0.018196845 208:0.07778439 209:0.039755315 210:-0.012610351 211:-0.056985755 212:-0.04912011 213:-0.029181946 214:-0.0037920645 215:-0.0003664774 216:-0.07344923 217:0.041422397 218:-0.016177582 219:0.02202623 220:0.021170935 221:-0.05988689 222:0.041980222 223:-0.019089902 224:-0.013210648 225:-0.0043552015 226:0.007400794 227:-0.011017006 228:-0.05582003 229:-0.018296665 230:-0.0382732 231:0.058909357 232:0.003789519 233:-0.07064295 234:-0.042155314 235:0.067951165 236:-0.04598564 237:0.003437154 238:0.038020205 239:0.043128766 240:0.043360624 241:0.016908217 242:0.005744538 243:0.007101392 244:-0.03654707 245:-0.013516706 246:-0.020114345 247:0.0056388755 248:-0.006740007 249:0.09596958 250:-0.015991142 251:0.030236319 252:0.03648735 253:0.0029382205 254:-0.03052346 255:0.016638754 256:-0.01733343 257:0.037086356 258:0.05733206 259:-0.042683855 260:-0.08971043 261:0.046339177 262:-0.005877408 263:-0.049361132 264:-0.024602652 265:0.024358356 266:0.035629608 267:-0.0013195827 268:-0.019794412 269:-0.0940399 270:0.017886879 271:-0.019687643 272:0.018959828 273:-0.009436071 274:0.0011378556 275:-0.016797643 276:0.052889567 277:0.026798856 278:0.01754826 279:-0.00044739145 280:0.04110281 281:0.08836856 282:-0.031589396 283:-0.03209928 284:0.0060728216 285:-0.023909142 286:0.032925826 287:0.032311726 288:-0.036248527 289:-0.029213428 290:-0.0037149782 291:-0.09885277 292:-0.054309558 293:0.06214491 294:-0.0065787663 295:-0.029507237 296:0.02742858 297:0.020155426 298:0.05503563 299:-0.04328282 300:0.022491325 301:0.07441687 302:-0.0066202367 303:-0.015681567 304:-0.0066814907 305:0.008809971 306:-0.005552032 307:-0.018200094 308:-0.05258357 309:0.060701735 310:0.0017631399 311:0.074812576 312:0.0919727 313:0.032274097 314:0.072153114 315:0.005017278 316:0.0364688 317:-0.016721176 318:0.037566654 319:5.785504e-06 320:0.030569347 321:0.03568476 322:0.036734972 323:0.024015643 324:0.0061334465 325:-0.0465716 326:0.05782517 327:0.07488931 328:0.03933874 329:-0.022448108 330:0.015102849 331:0.069337845 332:-0.0050470755 333:0.09434536 334:-0.046479605 335:-0.028410448 336:-0.020549146 337:-0.055907007 338:-0.007961822 339:0.048255287 340:0.11110618 341:0.042172015 342:-0.025888275 343:0.0063735642 344:0.037269413 345:0.0051855394 346:-0.12251246 347:0.0038052017 348:0.047647823 349:-0.0361652 350:0.024012817 351:-0.008767073 352:0.015048089 353:0.05390391 354:-0.024346307 355:-0.012727152 356:0.07875196 357:0.0462957 358:0.058006592 359:0.0029715118 360:-0.014801968 361:0.030036129 362:-0.071125835 363:0.034565244 364:-0.032209743 365:0.013592044 366:0.005591077 367:0.0025000693 368:-0.0011411582 369:-0.018995093 370:-0.023537232 371:-0.06657883 372:-0.023649417 373:0.03209955 374:-0.04706602 375:0.05672807 376:0.021394463 377:0.024288634 378:-0.058811817 379:-0.062744066 380:0.03995836 381:-0.071503125 382:-0.039777637 383:0.020401545 384:-0.03971006 385:0.023208685 386:-0.08232059 387:-0.036970276 388:-0.010909053 389:-0.041476328 390:0.0038169944 391:0.024144016 392:-0.019440122 393:-0.01760445 394:0.038137373 395:0.07290905 396:0.06364809 397:0.029403888 398:0.09439899 399:-0.015792353 400:-0.0287004 401:0.052161314 402:0.015218358 403:0.06725246 404:0.081137896 405:0.0438019 406:-0.058474153 407:-0.018967671 408:0.051003087 409:-0.040786374 410:0.03021198 411:0.026999023 412:0.027181694 413:-0.03290288 414:0.011597769 415:0.03587073 416:0.07639653 417:0.10250414 418:-0.02449906 419:0.042617813 420:-0.0075703776 421:0.022093607 422:-0.035458237 423:0.025427807 424:-0.028315445 425:0.11442734 426:-0.014210042 427:0.0077442923 428:-0.027818909 429:0.047167983 430:-0.027697057 431:0.06128074 432:-0.059285916 433:0.03548124 434:-0.05947522 435:0.024379436 436:-0.07152584 437:-0.029487342 438:-0.009232059 439:0.044928152 440:0.0008067759 441:-0.03034844 442:-0.023155361 443:0.07234914 444:0.019193426 445:-0.009403297 446:-0.028923277 447:-0.025004933 448:-0.05651703 449:-0.041157447 450:-0.012283964 451:0.05613522 452:-0.051899686 453:-0.03246094 454:-0.023066442 455:-0.00063083816 456:-0.043046463 457:0.011935726 458:0.035189718 459:-0.008602528 460:0.07674756 461:0.041379888 462:0.008198921 463:-0.035588417 464:-0.025892183 465:-0.00858603 466:-0.0023199562 467:0.051132064 468:-0.04152635 469:-0.007092812 470:0.05664766 471:0.006938094 472:0.055930156 473:-0.048946857 474:-0.034033585 475:0.013199976 476:0.027185626 477:-0.018631315 478:0.07120498 479:0.027455922 480:-0.021752812 481:0.038716864 482:-0.02959525 483:0.022674548 484:-0.040781725 485:0.03069465 486:-0.11630862 487:0.03223629 488:0.0004973786 489:-0.010216147 490:0.0215418 491:-0.030546084 492:-0.036663067 493:-0.008642371 494:0.093455605 495:-0.08525451 496:0.018695278 497:0.0016889015 498:-0.033591967 499:-0.024362318 500:-0.02705706 501:-0.018649003 502:0.011844121 503:-0.09223095 504:-0.016058866 505:0.10706323 506:-0.018141408 507:0.030291505 508:0.002348486 509:-0.090523064 510:-0.0021040987 511:0.029929707 
