svm_type c_svc
kernel_type linear
nr_class 9
total_sv 263
rho -0.00397599 0.00596044 0.202396 0.292176 0.0238694 -0.0582328 0.142899 -0.212503 0.102699 0.36352 0.499524 0.0927039 0.0201489 0.356606 0.0653953 0.126215 0.138277 -0.0101749 -0.123404 0.125823 -0.15195 0.175804 -0.190703 -0.269265 0.0422909 -0.21293 -0.13232 -0.307459 -0.150363 -0.363876 -0.141588 0.0512418 -0.19449 0.188969 -0.0435753 -0.268082
label 0 1 2 3 4 5 6 7 8
probA -4.1654 -3.99686 -4.03723 -4.05005 -4.01096 -4.08774 -4.09545 -4.00543 -4.15325 -4.17007 -4.10681 -4.17847 -4.13833 -4.06242 -4.1113 -4.19624 -4.15873 -3.92833 -3.98728 -4.10465 -3.87557 -3.72207 -4.069 -4.23584 -3.89664 -4.16722 -4.14739 -3.94221 -3.82692 -3.97991 -4.0676 -4.08752 -3.92656 -4.17045 -4.10114 -4.08165
probB 0.0748297 -0.0537144 0.109122 0.23558 0.0628208 0.183958 0.139087 0.0645054 -0.158642 0.112706 0.308478 -0.132273 -0.0619484 -0.109878 -0.0925808 0.18583 0.0588776 0.0772289 0.147794 0.148724 0.0534723 -0.158602 -0.0308556 -0.207637 -0.0962828 0.0314849 -0.0499701 -0.144895 -0.273549 -0.292286 0.0739436 0.0833568 -0.00560865 -0.0514129 -0.162405 0.0363595
nr_sv 20 32 31 25 29 30 35 33 28
SV
0.519206281773948 0 0 0 0 0 0.3624672128329566 0 0:-0.018438686 1:0.002124906 2:-0.06878084 3:0.040369753 4:0.070455834 5:-0.04621116 6:0.054779004 7:-0.024449386 8:0.046581257 9:0.08454124 10:0.099875614 11:0.03780106 12:0.050875824 13:0.01483663 14:-0.013804309 15:0.006351402 16:0.055634577 17:0.10450675 18:0.018876689 19:0.04224782 20:0.052381624 21:-0.027212434 22:0.017247455 23:-0.11064174 24:-0.08028406 25:-0.041511893 26:0.0044207047 27:-0.055230945 28:0.009525467 29:-0.029073097 30:-8.083045e-05 31:-0.042135157 32:-0.020671384 33:0.050657067 34:0.00441403 35:-0.06456008 36:0.03410421 37:-0.061363023 38:-0.037998818 39:0.049716692 40:-0.08866604 41:-0.02027504 42:-0.01313806 43:0.05003092 44:-0.05988876 45:0.077928245 46:0.023872422 47:0.021790048 48:-0.045038585 49:-0.024168493 50:-0.022740811 51:-0.045552548 52:-0.022139061 53:-0.004533763 54:-0.01787931 55:-0.14118247 56:0.007008938 57:-0.012700714 58:-0.07359197 59:0.0060723983 60:-0.028971178 61:0.09357939 62:-0.06558853 63:0.0007321865 64:-0.045640636 65:-0.07480642 66:0.0019338508 67:-0.061330806 68:0.013687877 69:-0.022013078 70:-0.010515351 71:-0.040983442 72:-0.0052708536 73:-0.02731856 74:0.055630695 75:-0.028296398 76:0.033047024 77:0.008822781 78:-0.030060904 79:-0.029289944 80:-0.056948986 81:-0.0051156012 82:0.02581725 83:-0.046694998 84:-0.06756653 85:0.058373034 86:0.020521725 87:0.03579256 88:-0.059991464 89:-0.020537658 90:-0.056157608 91:-0.007857544 92:-0.07100462 93:0.03363103 94:0.06928431 95:0.06878225 96:0.03408594 97:0.030851189 98:-0.07699238 99:0.052741334 100:-0.02095269 101:0.016275115 102:0.025878409 103:0.011120071 104:-0.06222996 105:-0.08316262 106:-0.019267006 107:-0.04178027 108:-0.023881363 109:0.02572437 110:0.035616346 111:-0.031773563 112:-0.048879907 113:-0.05702233 114:-0.014763554 115:-0.01165033 116:0.049332153 117:0.047985956 118:0.021664957 119:0.1060524 120:0.057119828 121:0.0053099035 122:-0.0070961816 123:-0.015340764 124:-0.07050884 125:-0.07541644 126:-0.055321753 127:-0.0028546997 128:-0.010781193 129:-0.021157786 130:0.014823109 131:0.025461111 132:0.02574468 133:-3.444301e-05 134:0.021000102 135:0.04137934 136:-0.022307465 137:-0.05143678 138:0.009587806 139:0.026197452 140:0.005544275 141:0.08673311 142:-0.022091888 143:0.07133769 144:0.039923724 145:0.016005678 146:-0.010099853 147:0.021883627 148:0.046781253 149:0.018168744 150:0.025853606 151:0.014562736 152:-0.016861364 153:0.07523153 154:0.055866305 155:-0.08792043 156:-0.072584346 157:0.048132382 158:-0.023595767 159:-0.06693204 160:0.014085227 161:0.0733603 162:-0.06311445 163:0.13749568 164:0.0565182 165:0.09110658 166:-0.03116642 167:-0.010369277 168:-0.025522208 169:0.04329437 170:0.022604525 171:0.025276437 172:0.016740197 173:0.013263154 174:-0.03686172 175:-0.030199967 176:-0.036130928 177:0.011312541 178:0.0067743342 179:-0.0067397035 180:0.013165453 181:-0.022507241 182:0.0075772586 183:0.030010317 184:0.0059570987 185:0.045606915 186:0.05625747 187:-0.04964651 188:0.021419436 189:-0.016945777 190:-0.02667924 191:0.034816112 192:0.05157423 193:0.015511107 194:0.015248375 195:-0.056536224 196:-0.055798173 197:0.032660127 198:0.036077857 199:0.025662811 200:0.06852702 201:-0.064658 202:0.0070262756 203:-0.030533627 204:-0.0029740257 205:0.07259943 206:0.009753851 207:-0.025308136 208:0.013594204 209:-0.002813633 210:-0.015635224 211:-0.02973797 212:-0.017905531 213:-0.018017428 214:-0.0001604599 215:-0.04012043 216:0.023457533 217:0.00358729 218:0.030607928 219:0.06218164 220:0.05804636 221:-0.058860213 222:0.07280596 223:-0.047843322 224:0.045916803 225:-0.009136637 226:0.017193938 227:-0.04149634 228:-0.042876855 229:0.0066072466 230:-0.020784577 231:0.07939742 232:0.008670454 233:-0.015415541 234:-0.020494698 235:0.04476861 236:0.010222169 237:-0.018477863 238:0.03606228 239:0.03281295 240:0.017588692 241:0.000884639 242:0.03734264 243:0.05552441 244:-0.05131906 245:0.04909519 246:-0.008479398 247:0.017566841 248:0.025631186 249:0.063345045 250:-0.046024956 251:-0.017971626 252:0.10458563 253:-0.022732465 254:-0.077426106 255:-0.00671688 256:-0.011801889 257:0.0041081 258:0.060134407 259:-0.054968514 260:-0.07718591 261:0.0370863 262:-0.019540591 263:-0.009470249 264:-0.047244143 265:0.0022167254 266:0.018914161 267:-0.052913636 268:-0.023052027 269:-0.09773774 270:0.08931229 271:-0.007698742 272:0.020013232 273:0.017790614 274:0.019814942 275:0.023462137 276:-0.026127903 277:0.027888346 278:-0.019616093 279:0.038798902 280:0.009953222 281:0.02395317 282:-0.016331548 283:0.010134432 284:-0.038486145 285:-0.04497716 286:0.024377124 287:-0.031742066 288:-0.033144128 289:0.049979564 290:0.01444578 291:-0.07758698 292:-0.03499032 293:0.036526836 294:-0.03503437 295:-0.058610316 296:-0.013168647 297:-0.007299417 298:0.04603506 299:-0.050110888 300:0.024045132 301:0.032024056 302:-0.048624914 303:0.046254165 304:0.0064446614 305:-0.017797824 306:-0.021294925 307:0.023756783 308:-0.027825348 309:-0.010477984 310:-0.00020872038 311:0.060351457 312:0.028461356 313:-0.040532682 314:0.06713896 315:0.016799675 316:0.07224071 317:-0.03995602 318:0.10866488 319:-0.061352313 320:-0.011657255 321:0.012892369 322:0.003444036 323:0.010912597 324:-0.03731548 325:0.01957224 326:0.046162352 327:0.065947846 328:0.037869506 329:0.02764309 330:-0.014573627 331:0.055224866 332:-0.06758641 333:0.028675394 334:-0.057633046 335:0.03495386 336:0.043963842 337:-0.0825012 338:-0.043273233 339:0.015400487 340:0.060834896 341:-0.013305882 342:-0.024282254 343:0.016650092 344:0.036609396 345:0.034017995 346:-0.09038962 347:0.008780215 348:-0.01293305 349:-0.02772948 350:0.011490286 351:0.017346507 352:0.040450394 353:0.069721185 354:0.060699522 355:-0.009312827 356:0.0530885 357:0.10143019 358:-0.018723706 359:0.0055112345 360:0.0021352 361:0.010787943 362:-0.06591243 363:-0.021831095 364:0.003658012 365:0.026721066 366:-0.02995524 367:0.049875688 368:-0.018424407 369:-0.006922543 370:-0.044057507 371:-0.0175041 372:-0.00021968767 373:0.0514812 374:-0.059102625 375:0.017658876 376:0.030020852 377:0.063537516 378:-0.08132119 379:-0.021875056 380:0.024541914 381:-0.01285361 382:0.007472688 383:-0.0037519783 384:0.03130605 385:0.015780468 386:-0.08410588 387:-0.007004297 388:-0.035841994 389:0.025288127 390:-0.025096381 391:0.06493239 392:-0.020685043 393:0.058920912 394:-0.003021777 395:0.022400884 396:-0.037191354 397:0.048440967 398:0.064781606 399:-0.043763813 400:0.024641454 401:-0.033080973 402:0.06317393 403:0.08028841 404:0.061960626 405:0.024587806 406:-0.0028679215 407:0.02692165 408:0.0037912359 409:-0.03481362 410:0.007271055 411:-0.030389214 412:0.034691393 413:0.058904648 414:-0.06684075 415:0.016411103 416:0.069860645 417:-0.0011996208 418:0.011457481 419:-0.014791609 420:0.03800238 421:0.016012015 422:-0.004186062 423:0.01701757 424:-0.03605708 425:0.14255826 426:-0.007416315 427:0.0065981606 428:-0.012698976 429:0.04438601 430:-0.031903353 431:0.033801127 432:-0.018417796 433:0.020338984 434:0.036318466 435:0.053521365 436:-0.08430162 437:-0.044717062 438:-0.011501511 439:0.008682885 440:-0.035783317 441:0.031368807 442:0.023083827 443:0.08874719 444:0.042685337 445:-0.05206763 446:-0.004755554 447:-0.035576817 448:-0.03979106 449:-0.01637314 450:-0.029098589 451:0.05861902 452:-0.029647864 453:0.0071701603 454:-0.033035588 455:-0.019156594 456:-0.056120694 457:0.07557555 458:0.06538526 459:0.053918436 460:0.09425145 461:0.10310091 462:0.058700904 463:-0.028825339 464:-0.038951926 465:0.03854704 466:-0.018167656 467:0.034107216 468:0.02709968 469:0.011900266 470:0.07371243 471:-0.03351196 472:0.058904294 473:-0.004435254 474:-0.0025140187 475:0.04299145 476:0.0077189337 477:-0.0052853953 478:0.056358043 479:0.021704057 480:0.0034089189 481:-0.0011001813 482:-0.0022421237 483:0.0075691827 484:-0.017009284 485:0.043566845 486:-0.06396863 487:0.051801067 488:-0.0026195266 489:-0.04207644 490:0.010727944 491:-0.066182 492:-0.031928204 493:0.05690896 494:0.10303809 495:-0.030575244 496:0.044325363 497:0.06559723 498:0.042131856 499:-0.0038545248 500:0.0033555576 501:-0.03158097 502:0.065055795 503:-0.03971476 504:-0.04486699 505:0.08193111 506:-0.0021041923 507:0.03602023 508:-0.019149201 509:-0.068288 510:-0.042909093 511:0.06598236 
0 0.9965460312112158 0 0 0 0 0 0 0:-0.021201218 1:0.006256764 2:-0.049926255 3:0.021691753 4:0.10666332 5:-0.02873699 6:0.07516868 7:-0.04767784 8:0.044814136 9:0.017334584 10:0.10047944 11:-0.0075007062 12:0.08789441 13:-0.008405221 14:-0.06222942 15:0.0016138963 16:0.04163145 17:0.08684596 18:0.048738796 19:-0.0073626214 20:0.02373923 21:-0.06680357 22:-0.004812234 23:-0.11386122 24:-0.08185792 25:-0.05650873 26:0.018667199 27:-0.0761631 28:-0.0024679159 29:-0.011947778 30:0.015085643 31:-0.04579306 32:-0.02618413 33:0.014899685 34:0.010991445 35:-0.06246905 36:0.06928765 37:-0.043393325 38:-0.07658557 39:0.048217498 40:-0.10902349 41:-0.0030047537 42:0.0021944253 43:0.0767524 44:-0.02525677 45:0.03807237 46:0.021188319 47:0.05771258 48:-0.045863397 49:-0.058184866 50:-0.03468371 51:-0.023943162 52:-0.03834074 53:-0.00016203447 54:-0.009060027 55:-0.09428749 56:0.034894194 57:-0.015974242 58:-0.06863508 59:0.012305472 60:0.019450441 61:0.06189278 62:-0.026377695 63:-0.04938337 64:-0.053800277 65:-0.043570623 66:0.015724473 67:-0.019886332 68:-0.008125361 69:-0.025557823 70:0.0028018204 71:-0.05955501 72:0.0076306853 73:-0.043159332 74:0.047662273 75:-0.05548256 76:0.062404692 77:0.0231776 78:-0.02792357 79:-0.018193591 80:-0.11158943 81:0.034476507 82:0.04707545 83:-0.00010275002 84:-0.07941201 85:0.0292203 86:0.03853422 87:0.035281293 88:-0.0011788568 89:-0.01375411 90:-0.050862044 91:-0.010130457 92:-0.06400259 93:0.041722246 94:0.06794216 95:0.024829457 96:0.012885447 97:0.021208767 98:-0.086684294 99:0.06287453 100:-0.020072665 101:-0.02740234 102:0.00024344659 103:-0.0026598503 104:-0.098974764 105:-0.033910654 106:-0.015862146 107:-0.022557762 108:-0.019584361 109:0.022118509 110:0.034354832 111:0.009905574 112:-0.07785903 113:-0.01487585 114:-0.011219372 115:0.012536511 116:0.07481294 117:0.059500016 118:0.06527412 119:0.09477866 120:0.041922614 121:-0.020016998 122:0.016353263 123:0.017197056 124:-0.0719698 125:-0.03506531 126:-0.082425535 127:0.021274673 128:0.023169344 129:0.032319617 130:0.006199362 131:0.015883459 132:0.04602587 133:0.014663123 134:0.02589133 135:0.0379995 136:-0.041835297 137:-0.05766 138:0.004804841 139:-0.0008890706 140:-0.018225309 141:0.052669976 142:-0.0600049 143:0.04366721 144:0.03311135 145:0.018506106 146:0.021206211 147:-0.012721047 148:0.08648875 149:0.031138621 150:0.04685531 151:-0.009640201 152:-0.014760206 153:0.06430287 154:0.03643134 155:-0.085384995 156:-0.03334563 157:0.0253847 158:0.03384714 159:-0.033295725 160:0.002015217 161:0.02644986 162:-0.0777642 163:0.098902225 164:0.04012393 165:0.0690768 166:0.005327596 167:0.02199124 168:-0.009682522 169:0.038646337 170:0.07328797 171:0.04810437 172:0.00046632192 173:0.00020269747 174:-0.051135257 175:-0.018593682 176:0.0042264736 177:0.020879578 178:0.024756107 179:-0.02478879 180:0.043582186 181:0.02641068 182:-0.021268066 183:0.008315761 184:0.007402152 185:0.09183626 186:0.0075827343 187:-0.02417803 188:0.008059269 189:-0.021158796 190:-0.05087763 191:-0.005688947 192:0.008207104 193:0.009260659 194:0.006966675 195:-0.071510434 196:-0.02941569 197:0.05908452 198:0.010537861 199:0.04169184 200:0.03648414 201:-0.09354816 202:-0.0067481482 203:-0.010991723 204:-0.022043295 205:0.075765006 206:-0.016474484 207:-0.026484154 208:0.018951986 209:-0.01681656 210:-0.008234296 211:-0.08094554 212:-0.0029231785 213:0.016956992 214:-0.019704236 215:-0.016405433 216:-0.016523074 217:0.025782166 218:0.060270756 219:0.06421147 220:0.055404186 221:-0.09386945 222:0.046352077 223:-0.044854674 224:0.009161192 225:0.014089254 226:0.0004923492 227:-0.044319436 228:-0.058841404 229:-0.00554147 230:-0.031786367 231:0.09208408 232:0.0030223574 233:-0.008897415 234:0.012577463 235:0.046765924 236:-0.009271999 237:-0.038118 238:0.058327563 239:0.004319274 240:0.039969765 241:-0.005289369 242:0.038936943 243:0.009984378 244:-0.03911623 245:-0.015592928 246:-0.008329055 247:0.01610987 248:0.013271971 249:0.05405671 250:-0.0215047 251:-0.0352123 252:0.0507288 253:-0.037249774 254:-0.069955274 255:-0.010624265 256:0.018307129 257:0.0074267276 258:0.06577188 259:-0.08052659 260:-0.08197887 261:0.05735214 262:-0.015944082 263:0.021979518 264:-0.0373044 265:0.016793992 266:0.030016676 267:-0.074931465 268:-0.011662225 269:-0.07126849 270:0.059552077 271:-0.0010954589 272:0.00540212 273:-0.014940443 274:-0.015100487 275:-0.0041480428 276:0.018479075 277:0.029376602 278:-0.013787431 279:-0.016504161 280:0.03480672 281:0.04285181 282:0.013737102 283:0.023108726 284:-0.028024279 285:-0.058831017 286:-0.005451588 287:-0.046975978 288:-0.007669913 289:0.015788984 290:0.004739204 291:-0.0783994 292:-0.07509704 293:0.01652348 294:0.015373155 295:-0.011318844 296:0.014736112 297:0.02687757 298:0.08464994 299:-0.047435787 300:0.018422842 301:0.05944316 302:-0.02110451 303:0.009986967 304:-0.019042898 305:0.01693733 306:-0.0064603 307:0.01436498 308:-0.040113535 309:0.042338654 310:0.013194022 311:0.04654876 312:0.055902116 313:-0.053444404 314:0.04925838 315:0.009662318 316:0.069839194 317:-0.030099439 318:0.08022205 319:-0.044883743 320:0.019323556 321:0.025684364 322:0.018906986 323:0.0077055786 324:-0.009599048 325:0.006232127 326:0.07509596 327:0.07522011 328:0.06574365 329:-0.00572817 330:-0.011925358 331:0.056803215 332:-0.020558855 333:0.05007867 334:-0.060891937 335:-0.009582402 336:0.03798542 337:-0.0804664 338:-0.014829921 339:0.025184011 340:0.04310159 341:0.010970037 342:-0.028079672 343:0.010636344 344:-0.015548701 345:0.053228028 346:-0.11215027 347:-0.015049644 348:-0.00030158312 349:-0.059375815 350:0.0034529166 351:0.020943293 352:0.06428118 353:0.0431775 354:0.030839927 355:-0.041258223 356:0.0882689 357:0.10817275 358:0.00027869444 359:-0.009104898 360:-0.012975609 361:0.033793323 362:-0.08318276 363:-0.026181094 364:-0.015064728 365:0.00352535 366:-0.019857818 367:0.0099427905 368:-0.022998208 369:0.0025060247 370:-0.034024738 371:-0.017311748 372:-0.033833377 373:0.04533269 374:-0.06911333 375:-0.0052030175 376:0.04662512 377:0.02907229 378:-0.07765141 379:-0.050807144 380:0.03177362 381:-0.039732363 382:-0.02442208 383:-0.01654769 384:-0.029418942 385:0.060588423 386:-0.09836137 387:-0.039379112 388:-0.008217765 389:-0.013171794 390:-0.025373532 391:0.057436787 392:-0.026126923 393:0.04469755 394:0.018468644 395:0.048749186 396:0.018541697 397:0.053164765 398:0.063924275 399:-0.04178449 400:0.01342527 401:0.0058941734 402:0.011838662 403:0.07248037 404:0.07931942 405:0.028534401 406:-0.02797871 407:0.004624232 408:0.022112051 409:-0.010478565 410:0.010760403 411:0.028473048 412:-0.0030859774 413:0.047380585 414:-0.015376599 415:0.019667203 416:0.026982386 417:0.034677267 418:0.014973293 419:0.067477986 420:-0.008065323 421:0.004704917 422:-0.02541199 423:0.01763698 424:-0.02804184 425:0.14450184 426:-0.023535177 427:0.030727869 428:-0.030518085 429:0.10068421 430:-0.04755838 431:0.025212098 432:-0.059756074 433:0.051708076 434:-0.01605319 435:0.03564674 436:-0.055994052 437:-0.009657842 438:0.019909224 439:0.025132826 440:0.0075175203 441:0.0020787702 442:0.02696243 443:0.04769363 444:0.062231675 445:-0.031454876 446:-0.022531595 447:-0.04237987 448:-0.029013867 449:-0.018195597 450:-0.025697881 451:0.087929964 452:-0.068100706 453:-0.03284835 454:-0.042716775 455:-0.022396512 456:-0.1037927 457:0.062755 458:0.035378635 459:0.045754667 460:0.09206983 461:0.08006165 462:0.02705076 463:-0.014486206 464:-0.055168904 465:0.0048465384 466:-0.011230375 467:0.063984215 468:0.00139874 469:-0.015334824 470:0.07451237 471:-0.018127158 472:0.03762208 473:-0.0008005782 474:-0.013023707 475:0.013353923 476:0.012408798 477:0.0036075194 478:0.007379012 479:-0.008088409 480:-0.04436516 481:-0.003237786 482:0.02461667 483:-0.01037598 484:-0.04757756 485:0.095704444 486:-0.0801395 487:0.026605763 488:-0.026712433 489:-0.031503096 490:0.01926524 491:-0.023362217 492:-0.06483851 493:0.029419066 494:0.09403204 495:-0.023965681 496:0.012311609 497:0.06429123 498:0.02132538 499:0.028112886 500:-0.019800402 501:-0.053356662 502:0.059182674 503:-0.042359393 504:-0.019704053 505:0.10217458 506:0.03305536 507:0.007438757 508:-0.03469522 509:-0.04893611 510:-0.037274525 511:0.051196963 
0 0 0 0 0.5266344411253747 0 0 0 0:-0.019565178 1:-0.0049233017 2:-0.06924001 3:0.03409339 4:0.095011845 5:-0.042442106 6:0.041316 7:-0.020023696 8:0.013837585 9:0.059854146 10:0.11996047 11:0.031701867 12:0.06536004 13:-0.011737838 14:-0.00021763636 15:-0.006167099 16:0.03520433 17:0.09522021 18:0.032951303 19:0.021795617 20:0.030554514 21:-0.0371523 22:0.007965487 23:-0.13250919 24:-0.08213135 25:-0.05564234 26:0.004754072 27:-0.06955734 28:0.013372011 29:-0.014631003 30:-0.008339417 31:-0.05437112 32:-0.026825288 33:0.033800453 34:-0.00019417195 35:-0.06642755 36:0.04351765 37:-0.060468215 38:-0.057943705 39:0.06674237 40:-0.09749871 41:0.012495028 42:-0.011321612 43:0.058034625 44:-0.029748147 45:0.07552262 46:0.038160957 47:0.03667578 48:-0.055907685 49:-0.04583932 50:-0.046398554 51:-0.05061845 52:-0.020070793 53:-0.0037810223 54:-0.016568966 55:-0.11689554 56:0.021130411 57:0.0051366575 58:-0.091768675 59:-0.008260452 60:-0.012008723 61:0.09822867 62:-0.06570524 63:-0.027641805 64:-0.026763719 65:-0.05962296 66:0.004097982 67:-0.071328394 68:-0.019695902 69:-0.024235487 70:0.011588432 71:-0.01571334 72:-0.02009338 73:-0.05451277 74:0.057098616 75:-0.04858082 76:0.04534903 77:0.011538411 78:-0.019227834 79:-0.024031954 80:-0.06446228 81:0.029727386 82:0.026686352 83:-0.032456893 84:-0.05690855 85:0.043127898 86:0.01107825 87:0.06746975 88:-0.034367584 89:-0.008218901 90:-0.018926335 91:-0.018130785 92:-0.07262879 93:-0.0038803008 94:0.07093566 95:0.04838149 96:0.03874582 97:0.05942117 98:-0.08542708 99:0.05572544 100:-0.023910541 101:-0.018826619 102:0.024323434 103:0.023040406 104:-0.085252956 105:-0.06748787 106:-0.003255727 107:-0.024442522 108:-0.02750495 109:0.036676124 110:0.03741331 111:-0.005735071 112:-0.05714547 113:-0.037434094 114:-0.015309026 115:0.004124465 116:0.056164913 117:0.069776915 118:0.050443158 119:0.12360043 120:0.024929792 121:-0.027531637 122:0.016009253 123:-0.008613939 124:-0.052225653 125:-0.043422714 126:-0.051415727 127:-0.01007608 128:-0.007285017 129:-0.030475773 130:0.023452444 131:-0.0013109043 132:0.05500958 133:0.015833562 134:0.019553153 135:0.048427522 136:-0.015538905 137:-0.018454911 138:0.0017443103 139:0.009474145 140:-0.021830264 141:0.07867438 142:-0.054724284 143:0.07474229 144:0.045977306 145:0.017382182 146:-0.009190043 147:0.016066613 148:0.069831684 149:0.03280182 150:0.03588468 151:0.010962631 152:-0.04408294 153:0.06989451 154:0.06382984 155:-0.08319946 156:-0.050540514 157:0.02585342 158:0.0030011968 159:-0.03915699 160:0.008296704 161:0.026206478 162:-0.078029454 163:0.127857 164:0.026864804 165:0.08728475 166:-0.019721588 167:-0.0015288471 168:-0.022490041 169:0.03800656 170:0.024079423 171:0.01764338 172:0.012778296 173:-0.0042048236 174:-0.05200058 175:-0.008190885 176:0.0020353666 177:0.006398901 178:0.003939559 179:-0.018149916 180:0.029996851 181:-0.035473052 182:0.002864317 183:0.049757276 184:0.018177722 185:0.06515057 186:0.045251086 187:-0.024615299 188:0.029392822 189:-0.013848484 190:-0.043344837 191:0.0068026464 192:0.057211477 193:0.023774588 194:0.018804612 195:-0.050157264 196:-0.03866321 197:0.030638495 198:0.010172842 199:0.03584533 200:0.050992288 201:-0.09904583 202:-0.005303092 203:-0.042132244 204:-0.027074827 205:0.08515458 206:-0.001779753 207:-0.024564011 208:0.027454771 209:-0.0013575235 210:-0.02954181 211:-0.045074444 212:-0.017257128 213:-0.02785463 214:-0.020855457 215:-0.034623224 216:-0.0010886368 217:0.022042226 218:0.048086658 219:0.06643856 220:0.032519776 221:-0.062797695 222:0.049805894 223:-0.04427798 224:0.047179997 225:-2.4557854e-05 226:0.007548402 227:-0.04770408 228:-0.06268368 229:0.010730864 230:-0.037595607 231:0.1011923 232:0.018330237 233:-0.024655124 234:-0.0066767456 235:0.040971823 236:0.020142166 237:-0.012931904 238:0.044852134 239:0.028083578 240:0.007558764 241:0.001438047 242:0.027624205 243:0.037633054 244:-0.051451128 245:0.007841773 246:-0.028413342 247:0.0012759165 248:0.028186996 249:0.07258289 250:-0.014358226 251:-0.0068603517 252:0.06423719 253:-0.034469955 254:-0.06999225 255:0.014014435 256:0.001749819 257:0.030759877 258:0.08470294 259:-0.06518755 260:-0.0922709 261:0.03557323 262:-0.01859337 263:0.0047068424 264:-0.034952585 265:0.019045731 266:0.02656291 267:-0.05210507 268:-0.02760875 269:-0.09676556 270:0.063067086 271:0.0045170905 272:0.011968536 273:-0.014453898 274:-0.01621954 275:-0.008810884 276:-0.004853751 277:0.02102718 278:-0.0027176533 279:0.022734324 280:0.03486369 281:0.044985965 282:0.0012810255 283:0.006270735 284:-0.01878227 285:-0.03200617 286:0.029739967 287:-0.037148464 288:-0.007262254 289:0.017649222 290:0.019831453 291:-0.089451246 292:-0.040278744 293:0.06369355 294:-0.027368011 295:-0.051116813 296:0.018366994 297:0.011001154 298:0.057601627 299:-0.0425808 300:0.01889447 301:0.05434217 302:-0.04345799 303:0.031314794 304:0.011375161 305:-0.0020547037 306:-0.003852752 307:0.02801202 308:-0.059725773 309:0.03136444 310:0.004218593 311:0.07092222 312:0.047937535 313:-0.016454626 314:0.073631786 315:0.022047801 316:0.061745692 317:-0.054179497 318:0.072801866 319:-0.041412756 320:0.017286075 321:0.021097293 322:-0.0062105632 323:0.01547105 324:-0.011538622 325:-0.01274443 326:0.082511365 327:0.082748346 328:0.050392374 329:0.03211559 330:-0.009131935 331:0.07279598 332:-0.047043774 333:0.034480087 334:-0.06565657 335:0.02063539 336:0.010143012 337:-0.06975309 338:-0.03734676 339:0.02980455 340:0.059700258 341:0.017090013 342:-0.0322758 343:0.055276174 344:0.012347341 345:0.06291342 346:-0.08737889 347:-0.01397286 348:0.01337756 349:-0.033882376 350:0.0074256877 351:0.016580367 352:0.04656107 353:0.06976589 354:0.037741125 355:-0.020253286 356:0.06941473 357:0.09784569 358:0.022199303 359:-0.015352669 360:-0.006258332 361:0.0005513117 362:-0.09367302 363:-0.011472207 364:-0.0075595393 365:0.025074372 366:-0.01720603 367:0.01795958 368:-0.024719968 369:0.014248526 370:-0.046433188 371:-0.043444153 372:-0.022563476 373:0.03089338 374:-0.052259337 375:0.015731081 376:0.05346573 377:0.033057906 378:-0.07524078 379:-0.04530878 380:0.03627278 381:-0.06572944 382:-0.0069852723 383:-0.012771168 384:0.0054446706 385:0.035622716 386:-0.08082053 387:-0.037158083 388:-0.007528111 389:0.011848642 390:-0.026925623 391:0.063497014 392:-0.012833278 393:0.030522915 394:0.034818478 395:0.053508252 396:-0.010556309 397:0.045606688 398:0.055270314 399:-0.018201912 400:0.008829624 401:0.004333641 402:0.054808483 403:0.07173378 404:0.07408098 405:0.04098418 406:-0.0294209 407:0.014130652 408:0.013980292 409:-0.037050772 410:0.021485252 411:-0.0071669966 412:0.01100676 413:0.040270172 414:-0.028809112 415:0.020234566 416:0.07023812 417:0.045534253 418:0.0068139154 419:0.016566765 420:0.000435981 421:0.01465413 422:-0.0060244915 423:0.032004602 424:-0.036097046 425:0.13901244 426:0.0023049822 427:0.011119344 428:-0.022726199 429:0.06446907 430:-0.031473827 431:0.06629749 432:-0.02644929 433:0.034933742 434:-0.0023137243 435:0.046445873 436:-0.07456445 437:-0.04006396 438:-0.023687253 439:0.01822367 440:0.002872748 441:0.0073541263 442:0.019989435 443:0.075016096 444:0.056688663 445:-0.054316103 446:0.0023317842 447:-0.036719956 448:-0.06494382 449:-0.020747587 450:-0.018317526 451:0.07381086 452:-0.03650243 453:-0.0044319113 454:-0.01132859 455:-0.015117907 456:-0.041810364 457:0.06736405 458:0.045983277 459:0.021154506 460:0.08979732 461:0.088659115 462:0.036135633 463:-0.036720857 464:-0.02966566 465:0.026290828 466:-0.009958158 467:0.07092237 468:0.013848606 469:0.01665732 470:0.067920275 471:-0.017416641 472:0.06862179 473:-0.017516382 474:-0.0036105665 475:0.0056660497 476:-0.0043144454 477:-0.011165917 478:0.044956315 479:0.030247578 480:-0.029579353 481:0.00019523149 482:0.022382157 483:0.008894247 484:-0.015003111 485:0.061476838 486:-0.06468099 487:0.026978815 488:0.005895913 489:-0.02641599 490:0.009028016 491:-0.043267388 492:-0.062592745 493:0.03867328 494:0.07970182 495:-0.054197233 496:0.055195533 497:0.05761348 498:0.032968596 499:0.01823005 500:-0.028932603 501:-0.030718455 502:0.043242242 503:-0.0496834 504:-0.07031918 505:0.098082304 506:-0.0014231561 507:0.022169475 508:-0.03437077 509:-0.078785785 510:-0.036439672 511:0.062303495 
0 1 0 0 0.5780208769655989 0 0 0 0:-0.025309922 1:0.010040189 2:-0.0810948 3:0.029813584 4:0.094288394 5:-0.04609852 6:0.014237883 7:0.007051254 8:0.039273802 9:0.0046431017 10:0.10776093 11:-0.0035072688 12:0.08244494 13:-0.03969107 14:-0.03138321 15:-0.062492546 16:0.015716545 17:0.062310997 18:0.05434778 19:-0.037514217 20:-0.003561163 21:-0.009805075 22:-0.0031820973 23:-0.11022858 24:-0.048554204 25:-0.040783774 26:0.024402633 27:-0.059783965 28:0.05150417 29:-0.0038843844 30:0.010839351 31:-0.06492846 32:-0.020198394 33:0.012840857 34:-0.0006572225 35:-0.032273013 36:0.016979337 37:-0.024382744 38:-0.073806524 39:0.056803245 40:-0.08994906 41:0.006714753 42:0.030989803 43:0.05743104 44:-0.018500155 45:0.03539277 46:0.00398491 47:0.046628237 48:-0.08192169 49:-0.08636778 50:-0.0044878656 51:-0.03444553 52:-0.010297356 53:0.007255032 54:0.017538872 55:-0.044705566 56:0.002685584 57:-0.00773785 58:-0.08940823 59:-0.016570281 60:0.025142856 61:0.06833361 62:-0.04554547 63:-0.030606812 64:-0.012706739 65:-0.056054424 66:0.0060998346 67:-0.011696291 68:-0.035710227 69:-0.015083718 70:0.03951357 71:-0.021064527 72:-0.031687085 73:-0.07319862 74:0.08096937 75:-0.08895573 76:0.05299569 77:0.035251595 78:-0.012020294 79:-0.01027309 80:-0.039473217 81:0.08252798 82:0.044735245 83:-0.0037627094 84:-0.061917577 85:0.06216451 86:-0.00033113544 87:0.028529534 88:0.041898273 89:0.0052173585 90:0.009088043 91:-0.0019561886 92:-0.049923748 93:0.01986202 94:0.026663475 95:0.056317847 96:0.03266095 97:0.061407756 98:-0.069238536 99:0.02084618 100:-0.044970356 101:-0.06072435 102:0.032348733 103:0.0021947818 104:-0.10437853 105:-0.003432312 106:-0.0017916232 107:-0.013319767 108:-0.00068499765 109:0.058984745 110:0.05125288 111:0.035402395 112:-0.026348397 113:0.01369578 114:0.030469587 115:0.046909597 116:0.055561025 117:0.08164777 118:0.03577805 119:0.12333705 120:0.012168514 121:-0.030934174 122:0.015410164 123:0.00038802737 124:-0.07077338 125:-0.022669956 126:-0.057083007 127:-0.012514863 128:0.012945702 129:0.025249746 130:0.037417464 131:0.02569949 132:0.061096933 133:0.02894447 134:0.015578201 135:0.041540883 136:-0.019267784 137:-0.04838588 138:0.0006488831 139:-0.008117899 140:-0.079396605 141:0.050848484 142:-0.03779888 143:0.03578123 144:0.02762424 145:-0.0057945717 146:0.023526004 147:0.023257071 148:0.04557557 149:-0.018985154 150:0.023834154 151:-0.00821658 152:-0.032997437 153:0.07981339 154:0.048945088 155:-0.08943267 156:-0.017540945 157:-0.029741466 158:0.039323393 159:-0.03974035 160:0.043259487 161:0.02263254 162:-0.052271865 163:0.018403225 164:0.040688246 165:0.05360915 166:-0.008417476 167:0.017615475 168:-0.04826546 169:0.06739467 170:0.012186624 171:0.011507497 172:0.014654125 173:0.017312316 174:-0.052885856 175:0.011015855 176:0.03907709 177:0.027400805 178:-0.004328837 179:-0.036179267 180:0.08394368 181:-0.020253414 182:-0.01975229 183:0.038191974 184:0.036315285 185:0.10175266 186:0.018324815 187:-0.024534693 188:0.049142648 189:0.036358215 190:-0.065139994 191:-0.01683938 192:0.017250251 193:0.012715219 194:0.013678831 195:-0.044981696 196:-0.00024470745 197:0.05063824 198:0.015491024 199:0.017347697 200:0.028912425 201:-0.1326443 202:0.016519267 203:-0.036971457 204:-0.057779454 205:0.044404745 206:0.033855934 207:-0.018883888 208:0.06804117 209:0.00820121 210:-0.013286292 211:-0.034701735 212:-0.029079478 213:0.00037896135 214:-0.02384934 215:-0.025985058 216:-0.04606578 217:0.04502114 218:0.0037651472 219:0.008155107 220:0.01706626 221:-0.09228128 222:0.033068772 223:-0.012976136 224:-0.010075587 225:-0.020679975 226:-0.018906973 227:-0.03569913 228:-0.02003889 229:-0.07574463 230:-0.045386847 231:0.07676472 232:0.043462478 233:-0.010879831 234:-0.018449565 235:0.04077744 236:-0.049805507 237:-0.013766378 238:0.04013865 239:0.02935797 240:-0.008022787 241:-0.013249431 242:-0.018793045 243:-0.0044499934 244:-0.042699035 245:0.023970125 246:-0.027509946 247:-0.001857057 248:-0.0006746484 249:0.07110551 250:-0.003059651 251:0.017248983 252:0.046080478 253:-0.0369642 254:-0.06457141 255:0.007251668 256:0.025349766 257:-0.0056815036 258:0.08671625 259:-0.10401835 260:-0.08465758 261:0.008432343 262:-0.036922917 263:-0.01645893 264:-0.019305414 265:0.036823034 266:0.043095246 267:-0.009075987 268:-0.0485821 269:-0.05538732 270:0.04541811 271:0.018111838 272:0.011737112 273:-0.04476316 274:0.01400092 275:0.01439459 276:0.06298439 277:0.038160894 278:0.0008158525 279:0.024686854 280:0.047004797 281:0.035480667 282:0.0062299343 283:-0.01872771 284:0.014397496 285:-0.00059836503 286:0.010249077 287:0.0070539215 288:0.0070386054 289:-5.8231224e-05 290:0.05576553 291:-0.11505561 292:-0.08024638 293:0.05186021 294:-0.033319328 295:0.011898108 296:0.045183055 297:0.03208498 298:0.08230657 299:-0.019179372 300:0.0042947587 301:0.08449356 302:-0.029457288 303:-0.01115283 304:-0.0042186943 305:-0.02589584 306:0.023802966 307:0.029570466 308:-0.05023015 309:0.045434184 310:-0.014245146 311:0.06778118 312:0.10564148 313:0.024514694 314:0.08935186 315:0.010305479 316:0.08055668 317:-0.05252199 318:0.070040934 319:0.008302226 320:0.023939991 321:0.0027285013 322:0.042745203 323:0.021845642 324:-0.009522402 325:-0.04617168 326:0.08497983 327:0.07904199 328:0.08677093 329:0.014308265 330:0.006840197 331:0.06723123 332:-0.0023106183 333:0.075940125 334:-0.043913275 335:-0.0177669 336:-0.029270263 337:-0.04385626 338:-0.0003136677 339:0.059618454 340:0.08041301 341:0.015294749 342:-0.06611932 343:0.035926446 344:0.032909032 345:0.012265872 346:-0.10770746 347:-0.015309309 348:0.045242418 349:-0.04907699 350:0.0334136 351:-0.0062275357 352:0.027116021 353:0.04705977 354:0.01066505 355:-0.024768434 356:0.042574536 357:0.038941473 358:0.028232224 359:-0.018610427 360:0.0035153774 361:-0.023507077 362:-0.09517475 363:0.01099923 364:-0.0035325014 365:0.0002497402 366:0.021078225 367:-0.012311973 368:-0.002525831 369:-0.018849587 370:-0.033201966 371:-0.08013631 372:-0.033739578 373:0.0064217215 374:-0.04241515 375:0.017099533 376:0.0550577 377:0.017806804 378:-0.052889008 379:-0.062382232 380:0.052969594 381:-0.05373953 382:-0.009975723 383:-0.0015490248 384:-0.054018665 385:0.014537492 386:-0.10515765 387:-0.033597864 388:0.0367286 389:-0.038287967 390:-0.04024299 391:0.016022751 392:-0.010339391 393:0.00629972 394:0.028148582 395:0.048428286 396:0.032291844 397:0.08417207 398:0.081171975 399:-0.017848669 400:-0.02782121 401:0.04191712 402:0.045023624 403:0.058969755 404:0.10187781 405:0.06141804 406:-0.04237116 407:0.034633532 408:0.056052636 409:-0.030838601 410:0.05449899 411:0.061621882 412:0.016550193 413:-0.006255652 414:0.009789085 415:0.015254888 416:0.059995737 417:0.078987464 418:-0.01477004 419:0.050596606 420:-0.015381242 421:0.03775915 422:0.00127621 423:0.027381217 424:-0.06403292 425:0.10697468 426:-0.05368378 427:0.00086855 428:-0.018592732 429:0.055104483 430:-0.031514265 431:0.052527495 432:-0.05330401 433:0.06908891 434:-0.052507594 435:0.025386216 436:-0.047363605 437:-0.051970992 438:-0.03203337 439:0.0862431 440:0.035222378 441:-0.005188055 442:-0.0054304046 443:0.022878498 444:0.061289568 445:-0.029900013 446:-0.070550896 447:-0.019120947 448:-0.023521435 449:-0.014985645 450:-0.02481782 451:0.06575551 452:-0.070757076 453:-0.029956318 454:-0.036867864 455:0.0045747226 456:-0.07968735 457:0.03077516 458:0.023747774 459:0.007643419 460:0.08215608 461:0.033592515 462:0.01758653 463:0.0028716659 464:-0.0034121543 465:-0.026245302 466:0.004080343 467:0.02854894 468:-0.059397656 469:0.028241636 470:0.045428514 471:-0.015089798 472:0.03106326 473:-0.013473669 474:-0.03187151 475:-0.0004609347 476:0.022478212 477:-0.028603138 478:0.041016303 479:0.008662391 480:-0.015990777 481:-0.011680456 482:-0.025244212 483:0.014182117 484:-0.068836704 485:0.030413289 486:-0.07031321 487:0.065818936 488:-0.053202387 489:-0.011005474 490:0.035272278 491:-0.028308092 492:-0.021487106 493:0.023854354 494:0.059227824 495:-0.036168948 496:0.02685928 497:0.048859693 498:0.0056065964 499:-0.0021540897 500:-0.022431752 501:-0.04331665 502:0.030092439 503:-0.07338833 504:-0.02246347 505:0.084002376 506:-0.0017492349 507:-0.016425738 508:-0.006842728 509:-0.096502475 510:0.023118531 511:0.047101274 
0 1 0 0.8962068421563558 0 0 0 0 0:-0.026607206 1:0.0060098646 2:-0.05920773 3:0.043567922 4:0.08597734 5:-0.03231907 6:0.055737354 7:-0.042117935 8:0.024670076 9:0.074839935 10:0.10162458 11:0.027490634 12:0.041833606 13:-0.0016406177 14:-0.024844987 15:0.011289215 16:0.04584056 17:0.11380529 18:0.020331012 19:0.029571947 20:0.044969227 21:-0.04069213 22:-0.0041146744 23:-0.11558429 24:-0.09465524 25:-0.042355068 26:0.01301856 27:-0.05169079 28:0.0017147964 29:-0.023239132 30:0.010259352 31:-0.0444496 32:-0.009922941 33:0.045785833 34:0.0029053553 35:-0.07839346 36:0.046051074 37:-0.06613655 38:-0.04802625 39:0.059656005 40:-0.10035305 41:-0.012631327 42:-0.008447987 43:0.050580442 44:-0.03026123 45:0.06915007 46:0.022345865 47:0.03254859 48:-0.039022326 49:-0.017235044 50:-0.025949502 51:-0.027637217 52:-0.021053119 53:-0.017531993 54:-0.012950296 55:-0.13531424 56:0.012829027 57:-0.007109555 58:-0.075012974 59:0.015606194 60:-0.010134566 61:0.08804683 62:-0.044387583 63:-0.020973038 64:-0.05726356 65:-0.066103525 66:-0.0025791693 67:-0.047628526 68:-0.012976856 69:-0.023099981 70:-0.008307181 71:-0.03134487 72:-0.016992811 73:-0.02348607 74:0.059834342 75:-0.03294279 76:0.040503744 77:0.0171137 78:-0.02228655 79:-0.03874973 80:-0.08196353 81:0.0058804573 82:0.029432766 83:-0.04425196 84:-0.07154574 85:0.035786714 86:0.03185374 87:0.04768631 88:-0.047991943 89:-0.023554297 90:-0.053119462 91:-0.03095768 92:-0.0689948 93:0.025354104 94:0.07522482 95:0.06440394 96:0.04295082 97:0.034684315 98:-0.06919293 99:0.0670774 100:-0.007373531 101:0.0030270035 102:0.0168431 103:0.006915327 104:-0.07394552 105:-0.08023465 106:-0.024957927 107:-0.034637205 108:-0.02075895 109:0.014930623 110:0.05142237 111:-0.015523334 112:-0.06096361 113:-0.04480554 114:0.0046227574 115:0.008399964 116:0.05920065 117:0.044380326 118:0.044338856 119:0.10864331 120:0.053082597 121:0.0064884345 122:-0.0006882581 123:-0.0010165974 124:-0.06140972 125:-0.06582867 126:-0.061951198 127:0.0018603661 128:0.0015653436 129:-0.01120004 130:0.014402711 131:0.007775985 132:0.048163533 133:-0.005191948 134:0.015291157 135:0.02520566 136:-0.023211662 137:-0.04724166 138:0.007058373 139:0.023947094 140:0.0185888 141:0.080351904 142:-0.04538949 143:0.06746023 144:0.040604085 145:0.012428294 146:-0.0045716665 147:0.01505236 148:0.052315503 149:0.032476105 150:0.019773763 151:0.022020781 152:-0.026272072 153:0.056873053 154:0.063080065 155:-0.092409685 156:-0.0652955 157:0.043420244 158:-0.0033015674 159:-0.055800166 160:0.0025487563 161:0.055781197 162:-0.067702115 163:0.14311935 164:0.042324275 165:0.09737217 166:-0.014240298 167:0.0047163074 168:-0.026101716 169:0.043601092 170:0.0352923 171:0.040927764 172:0.020108819 173:-0.00066940696 174:-0.041113604 175:-0.02218872 176:-0.02996056 177:0.011711206 178:0.0068703657 179:-0.014395569 180:0.014425952 181:-0.021689774 182:0.011659402 183:0.031870283 184:0.012974521 185:0.050244484 186:0.03203276 187:-0.044254478 188:0.024960866 189:-0.0072078444 190:-0.037314836 191:0.0295854 192:0.061220363 193:0.014922765 194:0.008594482 195:-0.068451874 196:-0.044225253 197:0.035723854 198:0.02196665 199:0.012376407 200:0.055617943 201:-0.08906117 202:0.0010409404 203:-0.036451742 204:-0.007868765 205:0.059382252 206:-0.0072140736 207:-0.025134144 208:-0.0061590536 209:-0.009540571 210:-0.016506413 211:-0.053074397 212:0.0037749643 213:-0.015599382 214:0.00835133 215:-0.028720971 216:0.011834398 217:0.016769582 218:0.041873056 219:0.061322764 220:0.054793693 221:-0.06366964 222:0.05940939 223:-0.048028897 224:0.045072116 225:-0.0099055115 226:0.029327104 227:-0.047773946 228:-0.052395064 229:0.020831823 230:-0.014120965 231:0.09665193 232:-0.0004946545 233:-0.022077756 234:-0.00542978 235:0.049615692 236:0.012048145 237:-0.016282521 238:0.05142444 239:0.018712318 240:0.014391378 241:0.0060097896 242:0.03907056 243:0.048554678 244:-0.04033081 245:0.018754762 246:0.008128378 247:0.014324298 248:0.027633492 249:0.05580516 250:-0.05208282 251:-0.023542974 252:0.1001234 253:-0.026067918 254:-0.07080027 255:-0.00733153 256:-0.014995483 257:0.016506227 258:0.06785531 259:-0.039424036 260:-0.07794435 261:0.04689299 262:-0.017863 263:0.0076185735 264:-0.047800582 265:-0.005827258 266:0.019613847 267:-0.06026106 268:-0.014521744 269:-0.10645176 270:0.08591688 271:0.009254683 272:0.013066989 273:0.0035772205 274:0.014844555 275:-0.00182284 276:-0.011494357 277:0.033840656 278:-0.018018205 279:0.022841625 280:0.013684784 281:0.023088539 282:-0.0034171888 283:0.012264015 284:-0.032838497 285:-0.04675022 286:0.03421431 287:-0.044239115 288:-0.041189197 289:0.027615769 290:0.0028864676 291:-0.07153623 292:-0.042839408 293:0.03585366 294:-0.014742748 295:-0.04114289 296:-0.009662975 297:0.003373277 298:0.07328528 299:-0.048419837 300:0.03742237 301:0.03300271 302:-0.037897512 303:0.04419144 304:0.005812571 305:0.0048335446 306:-0.01362606 307:0.02670405 308:-0.036504835 309:0.017982094 310:0.005479588 311:0.058358226 312:0.036147706 313:-0.038973108 314:0.06926806 315:0.014810592 316:0.059436243 317:-0.053276256 318:0.088150606 319:-0.059718706 320:0.011110407 321:0.020970963 322:-0.020371024 323:0.007926956 324:-0.026696874 325:0.00406839 326:0.05615725 327:0.063549444 328:0.038040373 329:0.033141382 330:-0.02762565 331:0.06360618 332:-0.061259344 333:0.040199336 334:-0.0704367 335:0.034193434 336:0.03615544 337:-0.077531695 338:-0.052366894 339:0.02319363 340:0.044806417 341:-0.009946922 342:-0.00014299687 343:0.033702124 344:0.01822742 345:0.051551506 346:-0.09114398 347:-0.0034818584 348:0.008374994 349:-0.036824223 350:-0.01204328 351:0.01622126 352:0.045072272 353:0.07651379 354:0.053344507 355:-0.01566614 356:0.07872008 357:0.10339131 358:-0.011428269 359:-0.0042913635 360:-0.012404531 361:0.014108779 362:-0.07756032 363:-0.03390816 364:-0.016052889 365:0.024468962 366:-0.043833077 367:0.047705512 368:-0.027631726 369:-0.0027187779 370:-0.027357114 371:-0.005471409 372:-0.020270634 373:0.054253887 374:-0.06373395 375:0.011028447 376:0.03731081 377:0.050913997 378:-0.08189228 379:-0.035006523 380:0.014073906 381:-0.023502609 382:-0.006560955 383:-0.016347632 384:0.02279471 385:0.022636455 386:-0.073756665 387:-0.04121358 388:-0.04060152 389:0.025514659 390:-0.031745944 391:0.085125946 392:-0.01065914 393:0.051158343 394:0.0021899638 395:0.036105122 396:-0.026683576 397:0.060494892 398:0.070307866 399:-0.034198843 400:0.03326736 401:-0.027614916 402:0.046193622 403:0.08193008 404:0.056544468 405:0.019346833 406:-0.015421008 407:0.01922014 408:0.005698119 409:-0.02781034 410:0.005808246 411:-0.01913917 412:0.01893996 413:0.058204804 414:-0.054172184 415:0.014905935 416:0.05162867 417:0.017900253 418:0.01369054 419:0.0053283307 420:0.032096457 421:0.009253237 422:-0.002027704 423:0.010783913 424:-0.035716888 425:0.14469971 426:0.01151932 427:0.015584304 428:-0.024448035 429:0.06520645 430:-0.047984798 431:0.036681138 432:-0.032706246 433:0.009065516 434:0.024594551 435:0.051345527 436:-0.08525392 437:-0.030964782 438:-0.0046546333 439:0.013536765 440:-0.026580403 441:0.034356374 442:0.015081736 443:0.073143 444:0.04024259 445:-0.06004542 446:0.0043607308 447:-0.034758955 448:-0.040978763 449:-0.036673695 450:-0.020129336 451:0.061399803 452:-0.030973498 453:0.00577279 454:-0.035171505 455:-0.019409632 456:-0.06149024 457:0.06963007 458:0.054847322 459:0.053519852 460:0.08868026 461:0.1064431 462:0.056674615 463:-0.023280395 464:-0.029423667 465:0.042625926 466:-0.0022267 467:0.045568015 468:0.024618741 469:0.0022700042 470:0.07283444 471:-0.03491277 472:0.048474964 473:-0.0025370964 474:-0.017743817 475:0.040223517 476:0.013986295 477:-0.011524562 478:0.061844178 479:0.019721873 480:-0.010367105 481:0.00072995573 482:0.009054404 483:0.015488653 484:-0.008238148 485:0.05901183 486:-0.07012148 487:0.028608859 488:0.00318113 489:-0.040634394 490:0.0046292506 491:-0.024402581 492:-0.046901744 493:0.043488055 494:0.11336675 495:-0.028647542 496:0.040427294 497:0.059786607 498:0.04172169 499:0.013557001 500:-0.012586644 501:-0.024126036 502:0.067141056 503:-0.05149304 504:-0.049763948 505:0.09428656 506:0.005694052 507:0.027991349 508:-0.024820166 509:-0.07051059 510:-0.041539345 511:0.06564664 
0 0 0 0 0 0 0 0.606742938527255 0:-0.0058631753 1:0.013498901 2:-0.088768385 3:0.030449256 4:0.09101429 5:-0.037797544 6:0.032462746 7:0.0067670983 8:0.026047355 9:0.005720583 10:0.11290094 11:0.016456418 12:0.09613795 13:-0.03558218 14:-0.029987022 15:-0.02649156 16:0.031915687 17:0.057307567 18:0.04121243 19:-0.03051469 20:-0.014707435 21:-0.048781157 22:-0.013058194 23:-0.10210034 24:-0.04716977 25:-0.06140715 26:0.016896497 27:-0.05304188 28:0.04673959 29:-0.008485967 30:-0.014824057 31:-0.05625545 32:-0.019372916 33:0.0011079148 34:-0.019663224 35:-0.017987883 36:0.03861934 37:-0.028450413 38:-0.072703704 39:0.069963835 40:-0.10061381 41:0.0328006 42:0.022659013 43:0.033308063 44:0.0030629174 45:0.0661062 46:0.017935077 47:0.059697703 48:-0.06761743 49:-0.07699109 50:-0.0244965 51:-0.051078305 52:-0.024913685 53:0.008971012 54:-0.0048668752 55:-0.050485794 56:0.01175406 57:0.016577074 58:-0.06607533 59:-0.010187299 60:0.016462915 61:0.075022705 62:-0.05211646 63:-0.052792314 64:-0.024759045 65:-0.023999812 66:0.027930936 67:-0.0271481 68:-0.02669259 69:-0.013215755 70:0.047322653 71:-0.044020634 72:-0.015254129 73:-0.04037663 74:0.066083804 75:-0.08798388 76:0.051868208 77:0.06370182 78:-0.030970694 79:0.0021283187 80:-0.051407173 81:0.098339625 82:0.04269983 83:-0.0040797843 84:-0.04789716 85:0.030369632 86:0.01708951 87:0.050574124 88:0.010946283 89:-0.0027494484 90:-0.010980787 91:-0.0019164195 92:-0.05120669 93:-0.011700287 94:0.039733883 95:0.03991405 96:0.022759536 97:0.052986335 98:-0.08678474 99:0.057508305 100:-0.060149983 101:-0.05345553 102:0.0033086857 103:-0.013736296 104:-0.10780699 105:-0.01469811 106:0.016669188 107:-0.014198609 108:-0.009809744 109:0.037130553 110:0.045320846 111:0.007731555 112:-0.049375184 113:-0.00072651875 114:0.038193595 115:0.042931285 116:0.08696287 117:0.05715455 118:0.047044612 119:0.10357301 120:-0.008270818 121:-0.015023164 122:0.033560187 123:-0.025158994 124:-0.05905285 125:-0.055363074 126:-0.06701418 127:-0.015970128 128:-0.0027324618 129:0.015999021 130:0.012584419 131:-0.0047782944 132:0.055694412 133:0.025218708 134:-0.012963866 135:0.04243751 136:-0.003295823 137:-0.027285265 138:0.023792278 139:-0.023425013 140:-0.022825142 141:0.027733626 142:-0.047572523 143:0.050724305 144:0.045617487 145:0.0028189346 146:-0.0031232631 147:0.015919387 148:0.068365514 149:-0.009016809 150:0.042635128 151:-0.01889823 152:-0.058215413 153:0.09932281 154:0.05982285 155:-0.08816225 156:-0.023129018 157:-0.016455967 158:0.025359713 159:-0.035213083 160:0.0387078 161:0.038374282 162:-0.05305329 163:0.044286963 164:0.049500227 165:0.052907836 166:-0.0038291363 167:0.01954222 168:-0.037068326 169:0.07322232 170:-0.0015876716 171:0.021497224 172:0.0010297792 173:-0.015171876 174:-0.021262357 175:0.0059408816 176:0.076048456 177:0.0050573866 178:0.00076019636 179:-0.046696678 180:0.057986207 181:-0.026465038 182:-0.028613353 183:0.02899398 184:0.0268392 185:0.08617419 186:0.0038674173 187:-0.036803517 188:0.04309846 189:0.03414616 190:-0.07350562 191:-0.00932328 192:0.041947987 193:0.012310246 194:0.029358808 195:-0.037901375 196:0.005691055 197:0.04278779 198:0.009585905 199:0.026596349 200:0.022134077 201:-0.11851084 202:0.024369221 203:-0.02059894 204:-0.023955237 205:0.05642406 206:0.0010321273 207:-0.026637206 208:0.046102263 209:0.028153151 210:-0.012663743 211:-0.051180158 212:-0.045011424 213:-0.008259928 214:-0.011944206 215:-0.0060435673 216:-0.048180737 217:0.033953555 218:0.0050210035 219:0.025751356 220:0.023688398 221:-0.094136715 222:0.024369312 223:-0.04662957 224:-0.024649918 225:-0.015858721 226:-0.0056758514 227:-0.00019571921 228:-0.06027415 229:-0.031007174 230:-0.055456348 231:0.078310095 232:0.030376673 233:-0.0481566 234:-0.01014701 235:0.04848088 236:-0.020093532 237:-0.023322802 238:0.042444974 239:0.014732033 240:0.022773717 241:0.012308338 242:0.026271008 243:-0.0062472625 244:-0.01988144 245:0.0020801579 246:-0.052117825 247:-0.019107774 248:-0.0029066307 249:0.071205735 250:5.0880048e-05 251:0.043243926 252:0.029591573 253:-0.0269699 254:-0.06482551 255:0.011321493 256:0.017361335 257:0.011317184 258:0.080664545 259:-0.06088225 260:-0.1035512 261:0.016693758 262:-0.044770528 263:-0.0416214 264:-0.045311194 265:0.015814455 266:0.042906176 267:-0.018585412 268:-0.05160578 269:-0.0754172 270:0.018411057 271:0.007970762 272:-0.0016603881 273:-0.029604433 274:-0.015408022 275:-0.024417551 276:0.032369375 277:0.031347953 278:0.0067014373 279:0.020777937 280:0.04373959 281:0.07298986 282:-0.011774673 283:-0.018286066 284:0.01858645 285:-0.02041381 286:0.04132323 287:0.009020737 288:-0.025687858 289:-0.030680595 290:0.03207459 291:-0.09588622 292:-0.072944894 293:0.05743678 294:1.9824125e-05 295:-0.011559063 296:0.05921421 297:0.079119526 298:0.078927115 299:-0.031204414 300:0.02917959 301:0.054651782 302:-0.044973932 303:-0.013869356 304:-0.024248267 305:0.00083307736 306:0.014152858 307:0.0029394738 308:-0.028586613 309:0.054575365 310:-0.010836921 311:0.051121693 312:0.08110829 313:0.013988856 314:0.06298596 315:0.02291734 316:0.083204366 317:-0.05856338 318:0.06719634 319:-0.013961123 320:0.03637133 321:0.003947529 322:0.019177962 323:0.017672349 324:-0.009689943 325:-0.026075622 326:0.063014135 327:0.088746324 328:0.06178654 329:0.0058800518 330:0.015206035 331:0.07617165 332:0.008755887 333:0.056600172 334:-0.038899172 335:-0.010694683 336:-0.029273558 337:-0.05971299 338:0.011574374 339:0.06296962 340:0.0706805 341:0.030224076 342:-0.06514425 343:0.027307712 344:0.03494678 345:0.013722175 346:-0.10769097 347:-0.00744433 348:0.054032914 349:-0.038571287 350:0.04671418 351:0.017002273 352:0.02097144 353:0.06694565 354:-0.014055984 355:-0.028254466 356:0.06550753 357:0.072417386 358:0.0368669 359:0.005712657 360:-0.0058218287 361:-0.012340705 362:-0.098585576 363:-0.0019166438 364:-0.033821553 365:0.030950442 366:0.028436758 367:-0.011289071 368:-0.004645292 369:-0.005984428 370:-0.042221565 371:-0.06576841 372:-0.043359272 373:0.008265922 374:-0.030644715 375:0.04012469 376:0.06405953 377:0.005357217 378:-0.058885496 379:-0.083216995 380:0.03343543 381:-0.07235191 382:-0.041994303 383:-0.0007370776 384:-0.04285128 385:0.023266496 386:-0.11629534 387:-0.047818847 388:0.014168424 389:-0.043291815 390:-0.015569448 391:0.04561482 392:-0.013087936 393:-0.011657099 394:0.018135156 395:0.06690435 396:0.064106226 397:0.04400072 398:0.08826531 399:0.010667119 400:-0.013196732 401:0.056056958 402:0.029462967 403:0.05606788 404:0.09240054 405:0.04348248 406:-0.038594436 407:-0.0041272687 408:0.06282228 409:-0.019544883 410:0.06570954 411:0.02401866 412:0.014891404 413:-0.014250234 414:-0.0013263697 415:0.029484827 416:0.061536025 417:0.082648925 418:-0.015152798 419:0.067189746 420:-0.009546376 421:0.04289906 422:-0.015418115 423:0.025039509 424:-0.06846709 425:0.1214017 426:-0.02430559 427:0.009135764 428:-0.022921717 429:0.08008275 430:-0.023360977 431:0.07353056 432:-0.076394685 433:0.03831407 434:-0.050951995 435:0.042161133 436:-0.07218017 437:-0.04806888 438:0.0048481543 439:0.05635481 440:0.03357525 441:-0.0060975663 442:0.00650015 443:0.054967582 444:0.05551114 445:-0.03346251 446:-0.05417244 447:-0.008560528 448:-0.047728997 449:-0.023568148 450:-0.004544368 451:0.04341603 452:-0.08518664 453:-0.040609658 454:-0.01323096 455:0.00985028 456:-0.04569566 457:0.037001245 458:0.03560585 459:0.009561433 460:0.06459069 461:0.035077184 462:0.01566164 463:-0.021356232 464:-0.023896335 465:-0.016913282 466:-1.0497482e-05 467:0.05987248 468:-0.052885897 469:0.03150369 470:0.05452519 471:-0.015537518 472:0.05470614 473:-0.026245115 474:-0.018980438 475:0.0026036077 476:0.016977668 477:-0.012064655 478:0.05269111 479:0.01958442 480:-0.010477341 481:-0.0024879184 482:-0.01903151 483:-0.0048881704 484:-0.060485035 485:0.038481656 486:-0.08580181 487:0.062149487 488:-0.02367128 489:0.013746561 490:0.029530047 491:-0.01897391 492:-0.049738534 493:0.009369931 494:0.06752796 495:-0.05820172 496:0.022757262 497:0.054780703 498:0.0063608903 499:-0.00746816 500:-0.032593023 501:-0.025272928 502:0.023398124 503:-0.06786359 504:-0.035718665 505:0.078531735 506:0.0050539407 507:0.0052443775 508:-0.016374916 509:-0.07764715 510:0.0021118242 511:0.06123738 
0 0 0 0 0 0 0 0.1109316678568115 0:0.0022374594 1:0.017722808 2:-0.07060524 3:0.022919586 4:0.07445968 5:-0.04624103 6:0.04240847 7:-0.0176617 8:0.036214586 9:0.013586371 10:0.11437908 11:0.0069366763 12:0.08286721 13:0.004318021 14:-0.029339459 15:-0.014619973 16:0.06578103 17:0.097201325 18:0.051034763 19:-0.012052601 20:0.0022310282 21:-0.07608693 22:0.00012525995 23:-0.12323497 24:-0.06187599 25:-0.08121368 26:0.015126647 27:-0.06025148 28:0.0418596 29:-0.002517114 30:-0.010621968 31:-0.054242693 32:-0.013515173 33:0.021213308 34:0.008220192 35:-0.07111157 36:0.023610003 37:-0.029784825 38:-0.054369953 39:0.046608645 40:-0.12309384 41:-0.013298482 42:-0.0392396 43:0.047146417 44:-0.016951239 45:0.03284169 46:-0.0036840264 47:0.01288997 48:-0.029930945 49:-0.04170859 50:-0.059848223 51:-0.052642696 52:-0.038655408 53:0.011448771 54:-0.043231636 55:-0.09695905 56:0.0012491987 57:0.0064148884 58:-0.0764098 59:0.01849452 60:0.015490281 61:0.06263171 62:-0.036276937 63:0.009574642 64:-0.019020695 65:-0.047899887 66:0.037467357 67:-0.046054687 68:-0.015178198 69:-0.030815504 70:-0.0041243196 71:-0.04389083 72:-0.0038174547 73:-0.030766338 74:0.03921067 75:-0.064598724 76:0.05093672 77:0.025458332 78:0.010509196 79:0.0024120475 80:-0.073455416 81:0.042252496 82:0.037667617 83:-0.008399427 84:-0.028723964 85:0.037426468 86:0.028860288 87:0.07531109 88:-0.0021056768 89:-0.010329792 90:-0.031156246 91:-0.03538326 92:-0.06740724 93:0.0067262985 94:0.052213967 95:0.040749438 96:0.024237648 97:0.04109619 98:-0.09135003 99:0.045726366 100:-0.031090973 101:-0.034928873 102:0.003915374 103:0.011693996 104:-0.08144435 105:-0.029050473 106:-0.00196913 107:-0.013600411 108:-0.009446444 109:0.007524259 110:0.024630036 111:-0.0053879083 112:-0.063989 113:-0.030388765 114:-0.012773572 115:0.017840907 116:0.0669665 117:0.06324359 118:0.061649505 119:0.12167037 120:0.027262311 121:-0.011465694 122:-0.008126793 123:0.0074032648 124:-0.07192521 125:-0.045663856 126:-0.06051405 127:-0.013230668 128:-0.02133884 129:0.021413956 130:-0.014343991 131:0.0099108815 132:0.059283007 133:0.006129448 134:0.03659613 135:0.023139339 136:-0.019670926 137:-0.051795222 138:0.008480169 139:-0.004272465 140:-0.013129394 141:0.08891043 142:-0.056029543 143:0.05100382 144:0.011845009 145:0.02123916 146:-0.018992651 147:0.022143299 148:0.056487996 149:0.02230462 150:0.03597343 151:0.011422841 152:-0.021517284 153:0.077168256 154:0.063531354 155:-0.0764085 156:-0.049298678 157:0.007299593 158:0.028837876 159:-0.044238992 160:0.014785388 161:0.051049806 162:-0.037492618 163:0.09634839 164:0.03478047 165:0.06431544 166:0.010071731 167:0.031628836 168:-0.009772336 169:0.08356921 170:0.02135417 171:0.033987384 172:0.0036981998 173:-0.025596568 174:-0.075874895 175:-0.018714523 176:-0.005856319 177:0.004141004 178:0.02333731 179:-0.039222814 180:0.06994401 181:-0.025086079 182:-0.020285547 183:0.056691397 184:0.03249266 185:0.067332104 186:0.0014659262 187:-0.03635189 188:-0.0001495282 189:0.0009971849 190:-0.075000584 191:0.0043301284 192:0.02447809 193:0.010103663 194:0.017295467 195:-0.051259264 196:-0.035858944 197:0.028791772 198:0.040425103 199:0.032346804 200:0.06905519 201:-0.09296686 202:0.011373155 203:-0.0076468987 204:-0.024653358 205:0.06359835 206:-0.032216627 207:-0.032346517 208:0.032186862 209:0.01061781 210:-0.026621372 211:-0.06821301 212:-0.040554542 213:-0.008551719 214:-0.017736157 215:-0.032274332 216:-0.0068879826 217:0.05070558 218:0.04007366 219:0.08424557 220:0.05188919 221:-0.040852357 222:0.032521058 223:-0.048081752 224:0.01689093 225:-0.004716056 226:0.023613913 227:-0.024049267 228:-0.09975073 229:-0.022388728 230:-0.0379372 231:0.071404405 232:0.02499572 233:-0.05356167 234:-0.009159127 235:0.06843081 236:0.024941541 237:-0.033700917 238:0.05225431 239:0.018841917 240:0.03556005 241:0.003951362 242:0.0240119 243:0.014212442 244:-0.040378556 245:0.008233342 246:-0.035339855 247:-0.01213883 248:0.015951173 249:0.048312858 250:-0.022909895 251:0.00018586277 252:0.0656072 253:-0.00341269 254:-0.10409053 255:-0.0004818677 256:0.027113633 257:0.01597961 258:0.056305677 259:-0.061177142 260:-0.074712165 261:0.039120052 262:-0.024066143 263:-0.012573302 264:-0.027438426 265:0.024589254 266:0.04311914 267:-0.05518778 268:-0.03965224 269:-0.09405741 270:0.05572123 271:0.0019283046 272:0.03781769 273:0.003598417 274:-0.018125527 275:0.006835272 276:-0.0048456127 277:-0.004811123 278:-0.013794491 279:-0.012460502 280:0.01843732 281:0.05961899 282:-0.01714721 283:0.034594778 284:0.0037315188 285:-0.033675585 286:0.037680022 287:-0.001529301 288:-0.01987077 289:-0.019477073 290:-0.0060959277 291:-0.11090073 292:-0.03444152 293:0.016990086 294:0.0006527883 295:-0.036206894 296:0.023464227 297:0.060204167 298:0.1014393 299:-0.034972098 300:0.03955324 301:0.031735126 302:-0.041653458 303:0.012776286 304:-0.037266888 305:0.0036301936 306:0.00787854 307:0.0003223497 308:-0.035376873 309:0.04441912 310:-0.026310941 311:0.05838802 312:0.08657692 313:-0.043156233 314:0.07107678 315:0.004513694 316:0.072614335 317:-0.03390295 318:0.066934474 319:-0.055758253 320:0.006626316 321:-0.00054723065 322:0.008765056 323:-0.008867246 324:-0.01698608 325:-0.025156165 326:0.054968152 327:0.08988392 328:0.07592899 329:0.011792839 330:0.016526291 331:0.08316681 332:-0.049054813 333:0.05276783 334:-0.049018808 335:0.026320541 336:-0.0181677 337:-0.082884274 338:-0.020485055 339:0.044131972 340:0.071265474 341:0.018807767 342:-0.043913722 343:0.012814502 344:0.011919153 345:0.045085423 346:-0.11751396 347:-0.020715415 348:0.008106432 349:-0.034344085 350:0.020427732 351:-0.008992022 352:0.043860633 353:0.06819595 354:0.016375 355:-0.01752597 356:0.087062575 357:0.10224903 358:0.007858735 359:-0.00754654 360:-0.05181467 361:0.0068762563 362:-0.09264882 363:0.00596834 364:-0.019412564 365:-0.00015744434 366:0.02571713 367:0.010869755 368:-0.01761837 369:0.024621738 370:-0.048375886 371:-0.0090851765 372:-0.014172088 373:0.054213326 374:-0.03221055 375:0.0033970664 376:0.06792469 377:0.032703657 378:-0.1057863 379:-0.06735659 380:0.035058882 381:-0.039559007 382:-0.03417491 383:-0.011363454 384:0.0049873604 385:0.020796482 386:-0.10666691 387:0.00014971038 388:0.0030810558 389:0.00095180207 390:-0.03254662 391:0.0681642 392:-0.033854794 393:0.019689053 394:0.0054201395 395:0.045272127 396:0.016604133 397:0.038291853 398:0.05116248 399:-0.026325122 400:0.002181281 401:0.019367434 402:0.035521466 403:0.06636858 404:0.08346492 405:0.02479666 406:-0.02073295 407:-0.007870147 408:0.013175667 409:-0.043945838 410:0.029591253 411:0.019468525 412:-0.018248204 413:0.0322016 414:-0.016846454 415:0.022411602 416:0.05392598 417:0.060836043 418:-0.013215004 419:0.04897569 420:0.020365905 421:0.03333139 422:0.006715038 423:0.053832904 424:-0.036668416 425:0.1488576 426:-0.026847886 427:0.008758754 428:-0.044424836 429:0.069294415 430:-0.037575714 431:0.027184067 432:-0.061498743 433:0.034670744 434:-0.01845888 435:0.043843582 436:-0.08023084 437:-0.063600734 438:0.011611761 439:0.042002004 440:0.017425144 441:0.0061620194 442:0.03578863 443:0.06664219 444:0.04982373 445:-0.03032817 446:-0.011198102 447:-0.022246845 448:-0.04667849 449:0.0041918764 450:-0.008065009 451:0.058993574 452:-0.04018044 453:-0.022230966 454:-0.021017862 455:-0.012732427 456:-0.076512545 457:0.084189855 458:0.038960487 459:0.045458212 460:0.085840315 461:0.06937256 462:0.034251623 463:-0.02523516 464:-0.02556866 465:0.012530036 466:0.010831363 467:0.037656214 468:0.008749362 469:-0.0031821087 470:0.055331632 471:-0.056409486 472:0.06283152 473:-0.01976863 474:0.0049684905 475:0.0211219 476:-0.0024938015 477:-0.034137793 478:0.050166517 479:0.0011849563 480:0.006737421 481:0.003980131 482:-0.00221789 483:-0.0050594294 484:-0.051938005 485:0.059658937 486:-0.06917403 487:0.03652112 488:-0.0035518983 489:-0.0074400334 490:0.013432479 491:-0.011713196 492:-0.07247774 493:0.014959502 494:0.09533303 495:-0.055766594 496:0.027184576 497:0.06376187 498:0.011597796 499:-0.012373486 500:-0.014255886 501:-0.019262215 502:0.0335142 503:-0.046554703 504:-0.023051584 505:0.0860539 506:-0.00082546804 507:0.014283489 508:-0.03850813 509:-0.0799481 510:-0.031178912 511:0.07215996 
0 0.145503549702531 0 0 0 0 0 0 0:-0.014349969 1:-0.021266432 2:-0.08474803 3:0.02695436 4:0.07383828 5:-0.036307476 6:0.054578718 7:-0.040588718 8:0.002392679 9:0.055982076 10:0.12639043 11:0.024894295 12:0.07410861 13:-0.01346983 14:-0.034656886 15:0.0037191955 16:0.033107013 17:0.10005343 18:0.035817306 19:0.030956093 20:0.04719074 21:-0.051485628 22:-0.0067160917 23:-0.12502444 24:-0.077531084 25:-0.063134894 26:0.005095923 27:-0.057800457 28:0.01910865 29:-0.02892036 30:0.014374754 31:-0.05418677 32:-0.030939888 33:0.048083648 34:0.00056653045 35:-0.07750209 36:0.04343835 37:-0.056614663 38:-0.04948844 39:0.05498335 40:-0.12381764 41:0.0053174286 42:-0.00448215 43:0.05383432 44:-0.01796567 45:0.06632971 46:0.023414329 47:0.014782589 48:-0.03220319 49:-0.020016788 50:-0.043282807 51:-0.04872293 52:-0.012848444 53:0.00971351 54:-0.0012435712 55:-0.11277762 56:0.010166904 57:0.009519855 58:-0.08628488 59:0.021458117 60:0.027201463 61:0.098282166 62:-0.052471306 63:-0.00874456 64:-0.024125896 65:-0.048547063 66:0.023382703 67:-0.058481578 68:-0.019042829 69:-0.024732692 70:-0.029825922 71:-0.03368641 72:-0.00702841 73:-0.011150795 74:0.05041672 75:-0.045434665 76:0.044342104 77:0.022463975 78:-0.009709076 79:-0.0375532 80:-0.08889158 81:0.033926897 82:0.030728761 83:-0.029236922 84:-0.057691816 85:0.03690188 86:0.016659508 87:0.060865488 88:-0.037485737 89:-0.010325621 90:-0.017434629 91:-0.031246819 92:-0.07176395 93:0.019764502 94:0.052520324 95:0.06825658 96:0.059208155 97:0.040882353 98:-0.06701172 99:0.061314024 100:-0.033297762 101:-0.029944506 102:0.032896448 103:-0.0008199382 104:-0.09228861 105:-0.0800885 106:-0.035959184 107:-0.037927326 108:-0.04674746 109:0.023991305 110:0.04431718 111:0.0076707043 112:-0.04542551 113:-0.03512868 114:0.006091692 115:0.006775558 116:0.055201955 117:0.05984489 118:0.047901373 119:0.1251508 120:0.028967628 121:-0.005612198 122:0.01747063 123:0.013466381 124:-0.06038551 125:-0.033971712 126:-0.06549275 127:-0.017172279 128:0.005216927 129:-0.009361498 130:0.0088025145 131:0.015402193 132:0.048667457 133:0.010678702 134:0.01709554 135:0.012211792 136:-0.015307535 137:-0.028900124 138:0.0065097674 139:0.009469164 140:-0.0104495 141:0.068777114 142:-0.041952543 143:0.056049213 144:0.013556293 145:0.00404448 146:-0.022030992 147:0.024537453 148:0.06650503 149:0.03763273 150:0.028498288 151:0.01672739 152:-0.045443706 153:0.0683764 154:0.06431878 155:-0.094597295 156:-0.0628678 157:0.03755397 158:0.0022941984 159:-0.04148837 160:0.0093262475 161:0.03289751 162:-0.05623882 163:0.10650098 164:0.041262295 165:0.0923327 166:-0.0075031193 167:-0.008902322 168:0.0020864175 169:0.056056794 170:0.013027691 171:0.041270167 172:0.022244545 173:-0.024674393 174:-0.049521744 175:-0.025195904 176:-0.0077794185 177:0.04183677 178:0.009831236 179:-0.029766373 180:0.031481445 181:-0.026002057 182:0.002006115 183:0.034466486 184:0.0024609603 185:0.069440514 186:0.032913834 187:-0.051078923 188:0.008859136 189:-0.005731102 190:-0.05809211 191:0.0063408897 192:0.056512747 193:0.027607622 194:-0.018843595 195:-0.044191457 196:-0.035019003 197:0.054213002 198:0.01858779 199:0.020821562 200:0.06233833 201:-0.07959577 202:-0.013171043 203:-0.043551285 204:-0.017448984 205:0.06398742 206:-0.030694203 207:-0.030556655 208:0.011160833 209:-0.0024963971 210:-0.017893592 211:-0.049154807 212:-0.0066977693 213:-0.01448857 214:-0.017466947 215:-0.016973985 216:-0.009270699 217:0.026308626 218:0.030669628 219:0.06313967 220:0.04330446 221:-0.065056436 222:0.0638395 223:-0.042900983 224:0.04381233 225:-0.010685525 226:0.032345366 227:-0.041339397 228:-0.057554737 229:-0.00077611045 230:-0.008285785 231:0.10222238 232:0.012128179 233:-0.040229294 234:0.005776576 235:0.056522693 236:0.002669793 237:-0.022814877 238:0.061437044 239:0.021585044 240:0.019570502 241:0.021522116 242:0.017556716 243:0.044393703 244:-0.061996624 245:-0.0035358237 246:-0.017164627 247:0.017221723 248:0.011109476 249:0.06479741 250:-0.05174993 251:-0.0051676584 252:0.07711782 253:-0.024536202 254:-0.06478948 255:-0.00850118 256:-0.01705316 257:0.015286407 258:0.08489864 259:-0.051818546 260:-0.08525302 261:0.023419479 262:-0.036448132 263:0.013132948 264:-0.041758087 265:0.0063630445 266:0.01605541 267:-0.04909724 268:-0.019017417 269:-0.10894979 270:0.076811425 271:0.013390946 272:0.016631668 273:0.011116476 274:0.014200308 275:0.009890354 276:0.0071263723 277:0.023416206 278:-0.02922172 279:0.013336809 280:0.017628191 281:0.03430571 282:-0.014867891 283:0.01019513 284:-0.0017282269 285:-0.04511902 286:0.0266301 287:-0.039403908 288:-0.035268366 289:0.03059408 290:0.016654678 291:-0.074190445 292:-0.055266023 293:0.058653697 294:-0.0073574693 295:-0.018803952 296:0.001347007 297:0.025904892 298:0.065868996 299:-0.047945797 300:0.044141144 301:0.06746746 302:-0.013523628 303:0.038416293 304:0.011807899 305:0.011747785 306:-0.005862111 307:0.02913382 308:-0.041351307 309:0.024145555 310:-0.0052014114 311:0.06311077 312:0.07191949 313:-0.025592173 314:0.08101292 315:0.018721297 316:0.045065653 317:-0.05521351 318:0.07683252 319:-0.03323001 320:0.0031498016 321:-0.0027700486 322:-0.013512364 323:0.009357667 324:-0.010472312 325:-0.0096526155 326:0.059724513 327:0.056741696 328:0.02660953 329:0.033776093 330:-0.020508116 331:0.06604686 332:-0.070552155 333:0.047384623 334:-0.05220803 335:0.018195225 336:0.014235039 337:-0.082377255 338:-0.04324672 339:0.055333212 340:0.08297279 341:0.0037027353 342:-0.00714266 343:0.022460742 344:0.012679204 345:0.052268684 346:-0.09447566 347:-0.023594745 348:0.019342067 349:-0.014102121 350:0.0026462413 351:0.002911361 352:0.06979351 353:0.08038109 354:0.039903484 355:-0.015996635 356:0.092487 357:0.08268378 358:0.0008148262 359:-0.012517653 360:-0.024283178 361:-0.016126147 362:-0.08550731 363:-0.029810905 364:-0.010099858 365:0.023267552 366:-0.016539732 367:0.022104623 368:-0.043915346 369:-0.008620846 370:-0.03490872 371:-0.003673681 372:-0.03542458 373:0.054420084 374:-0.05947277 375:0.016212752 376:0.054735783 377:0.029736202 378:-0.08311509 379:-0.045794774 380:0.03272827 381:-0.03160216 382:0.0070714657 383:-0.026474044 384:0.0074799843 385:0.017670752 386:-0.07267497 387:-0.042438652 388:-0.0275913 389:0.02322388 390:-0.028133022 391:0.078286335 392:-0.010282779 393:0.043490637 394:0.02496334 395:0.06815267 396:-0.006158235 397:0.07331192 398:0.06773368 399:-0.032277644 400:0.019513955 401:-0.0051186904 402:0.05875235 403:0.06233449 404:0.059249017 405:0.034061518 406:-0.022972306 407:0.023741825 408:0.009635804 409:-0.04353115 410:0.026477445 411:0.0061394554 412:0.004626473 413:0.035042867 414:-0.041422646 415:0.0050045135 416:0.0664711 417:0.041448504 418:0.003119568 419:0.01889142 420:0.0093434295 421:0.0375154 422:-0.012814975 423:0.037704132 424:-0.019073272 425:0.15604462 426:0.024025248 427:0.017621364 428:-0.019752223 429:0.07286294 430:-0.039852902 431:0.05683852 432:-0.034156326 433:0.014892818 434:0.008087865 435:0.064181075 436:-0.052980132 437:-0.03068478 438:-0.010529445 439:0.023406828 440:-0.0053080935 441:0.016781757 442:0.010212225 443:0.064224884 444:0.061947476 445:-0.050800584 446:0.008765818 447:-0.015222297 448:-0.04005947 449:-0.02875915 450:0.0073429304 451:0.06000083 452:-0.02658497 453:-0.0057545574 454:-0.029211925 455:-0.021996075 456:-0.048293136 457:0.06712377 458:0.05401259 459:0.026448637 460:0.07760784 461:0.08985056 462:0.04751396 463:-0.011252422 464:-0.033738744 465:0.023283055 466:0.0023033456 467:0.04683233 468:0.0038810524 469:0.006907979 470:0.071768105 471:-0.014393237 472:0.053982627 473:-0.0069120494 474:-0.020663856 475:0.009140071 476:-0.0042432365 477:-0.029520774 478:0.057136837 479:0.0008614251 480:-0.020760844 481:-0.0013656631 482:0.022058958 483:0.031914342 484:-0.030373015 485:0.044449512 486:-0.06779897 487:0.03478507 488:-0.007574155 489:-0.036473725 490:0.008290939 491:-0.021739084 492:-0.048423205 493:0.053410057 494:0.11903623 495:-0.036651056 496:0.054583266 497:0.058969475 498:0.0306291 499:0.009407936 500:-0.020249669 501:-0.024410896 502:0.03661206 503:-0.056810778 504:-0.06051345 505:0.090918526 506:0.008719907 507:0.028652573 508:-0.031874135 509:-0.0691957 510:-0.03291749 511:0.06884324 
0 1 0 0 0 0 0 0 0:-0.01311066 1:0.018852517 2:-0.03645632 3:0.022967163 4:0.080224216 5:-0.035078906 6:0.053901196 7:-0.042451445 8:0.03217025 9:0.035568763 10:0.11490565 11:0.0022572137 12:0.069506355 13:0.02117065 14:-0.020380814 15:-0.025025858 16:0.016282767 17:0.08840091 18:0.003645201 19:0.010860975 20:0.047206588 21:-0.037234027 22:0.0071702045 23:-0.11342984 24:-0.07533739 25:-0.060563482 26:0.0070733777 27:-0.08078814 28:0.005874582 29:-0.035891138 30:0.052408915 31:-0.024472872 32:0.0059813363 33:0.04738805 34:0.0215811 35:-0.06638964 36:0.06573217 37:-0.059368417 38:-0.03895835 39:0.046237435 40:-0.10400987 41:-0.02780209 42:-0.0061189397 43:0.078802675 44:-0.013143431 45:0.061896123 46:0.026155382 47:0.019142643 48:-0.02419025 49:-0.055839118 50:-0.004241593 51:-0.026869657 52:-0.04320218 53:-0.0022263124 54:0.0057470673 55:-0.10669003 56:0.023918375 57:-0.031635255 58:-0.086658664 59:0.019952724 60:-0.0031284136 61:0.0641106 62:-0.06114568 63:-0.062416706 64:-0.04574371 65:-0.04299137 66:0.0042601894 67:-0.018559875 68:0.019223945 69:-0.03327668 70:0.018601129 71:-0.03240285 72:-0.018116122 73:-0.029866168 74:0.08088391 75:-0.04528671 76:0.063109964 77:0.015394456 78:-0.054525457 79:0.010879486 80:-0.09713419 81:0.02250743 82:0.055316202 83:-0.030330542 84:-0.08300885 85:0.036438428 86:0.038460825 87:0.04415574 88:-0.013180396 89:0.013367808 90:-0.06842965 91:-0.019627178 92:-0.057731096 93:0.04201612 94:0.04394241 95:0.033930864 96:0.004532092 97:0.039295293 98:-0.07775519 99:0.052569475 100:-0.014797186 101:0.022665463 102:0.06014186 103:-0.021246508 104:-0.061684683 105:-0.031085499 106:-0.028310396 107:-0.05862922 108:-0.055410024 109:0.00395986 110:0.040735934 111:0.0066613895 112:-0.06588733 113:-0.025295828 114:0.0034934983 115:0.026504342 116:0.07967701 117:0.03461308 118:0.04304656 119:0.08806186 120:0.041166067 121:0.023441076 122:-0.0037881238 123:0.053875316 124:-0.077716686 125:-0.044653766 126:-0.09513304 127:-0.01602102 128:0.065273345 129:-0.005895542 130:0.054341517 131:0.045076195 132:0.032221746 133:0.016230406 134:0.05344668 135:0.0070525208 136:-0.036943056 137:-0.079166226 138:-0.016332285 139:-0.008009404 140:-0.015287587 141:0.082500264 142:-0.066825286 143:0.027416833 144:0.056757174 145:0.03809868 146:-0.010692408 147:-0.011564937 148:0.077885404 149:0.01341564 150:0.019534579 151:-0.018926201 152:-0.03185654 153:0.0676869 154:0.026955739 155:-0.098690145 156:-0.03545948 157:0.02499086 158:0.0020510103 159:-0.072797164 160:0.00057618367 161:0.040010672 162:-0.082149014 163:0.084618814 164:0.06592579 165:0.07042614 166:-0.010932798 167:0.03024033 168:-0.012810947 169:0.040845647 170:0.03317947 171:0.054727625 172:-0.01329065 173:-0.0059362473 174:-0.06827144 175:-0.058804896 176:-0.014844871 177:0.0029855557 178:0.012243333 179:-0.004023039 180:0.079427615 181:0.0047019646 182:0.0055065234 183:0.015255223 184:0.0351941 185:0.07454675 186:0.025580626 187:-0.057464924 188:0.004604797 189:-0.0042604776 190:-0.060521472 191:0.008384509 192:0.03241052 193:0.048267897 194:-0.013971689 195:-0.07484982 196:-0.029851533 197:0.025810907 198:0.038660016 199:0.0419745 200:0.04173064 201:-0.08903164 202:0.00916163 203:-0.00011327855 204:-0.025913944 205:0.050533418 206:-0.022545274 207:-0.024614964 208:0.009095615 209:0.025826681 210:-0.013066372 211:-0.06219197 212:-0.02144859 213:0.012445195 214:-0.02688451 215:-0.0014828151 216:0.0014612355 217:-0.008671831 218:0.062867135 219:0.030979339 220:0.04614769 221:-0.07185824 222:0.06192415 223:-0.03624527 224:0.014431277 225:0.009199 226:0.017256103 227:-0.02998646 228:-0.01997745 229:0.012283454 230:-0.037092336 231:0.06285428 232:0.006345923 233:0.014087441 234:0.01752423 235:0.042204488 236:-0.043885063 237:-0.020572694 238:0.08599793 239:0.027489958 240:0.032873992 241:0.01242795 242:0.067066684 243:0.016108397 244:-0.03518286 245:-0.0055976603 246:-0.01739732 247:0.02775255 248:0.019905781 249:0.030731268 250:-0.0027632567 251:-0.017320177 252:0.05483683 253:-0.062493328 254:-0.043108616 255:-0.03141733 256:0.04921268 257:0.018889941 258:0.080165185 259:-0.0778572 260:-0.061300978 261:0.032927923 262:-0.028305493 263:0.01584962 264:-0.030881837 265:0.014076437 266:0.03451371 267:-0.046581287 268:-0.0032493318 269:-0.06931054 270:0.05244656 271:-0.0022623248 272:0.009775875 273:-0.0040226597 274:0.027821664 275:0.009070065 276:0.01334863 277:0.044857673 278:-0.030561434 279:0.005666988 280:0.027895762 281:0.023839846 282:-0.010968358 283:0.015598413 284:-0.010165284 285:-0.060906157 286:0.004890371 287:-0.06798806 288:-0.031388782 289:0.03808925 290:0.006683911 291:-0.061321497 292:-0.05849872 293:-0.0060022357 294:-0.023036996 295:0.023391267 296:-0.023754803 297:0.0018844627 298:0.059967622 299:-0.033514246 300:0.01821973 301:0.044677034 302:-0.026326528 303:0.009200691 304:-0.0070551895 305:-0.046476845 306:0.012978949 307:0.023097238 308:-0.053996053 309:0.017097665 310:-0.0076213633 311:0.041426335 312:0.078599535 313:-0.04181465 314:0.05128565 315:0.0076541947 316:0.04880819 317:-0.04594461 318:0.084588 319:-0.005568886 320:-0.010238611 321:0.0014260279 322:0.017231988 323:0.0096069155 324:0.0010586345 325:-0.021338398 326:0.07065714 327:0.06435684 328:0.07206905 329:0.029191498 330:-0.02078743 331:0.04584599 332:-0.047430005 333:0.05965718 334:-0.07093167 335:-0.004946502 336:0.024316251 337:-0.083364576 338:-0.005261141 339:0.025107898 340:0.05178464 341:-0.026709262 342:-0.0334724 343:0.02917583 344:0.01988088 345:0.061781652 346:-0.1039833 347:-0.010662788 348:-0.009467827 349:-0.035703946 350:0.026270373 351:-0.0028185467 352:0.073356085 353:0.059252456 354:0.09772828 355:-0.00039272403 356:0.031620488 357:0.10435708 358:-0.04773953 359:-0.008806111 360:-0.017133322 361:-0.005298992 362:-0.085260555 363:-0.036771055 364:-0.0048688697 365:-0.017574638 366:-0.03219485 367:0.046632223 368:-0.046935543 369:0.0059856055 370:-0.013388228 371:-0.04743787 372:-0.013498813 373:0.009062403 374:-0.06780696 375:-0.002499767 376:0.045182273 377:0.03388357 378:-0.0782128 379:-0.025237028 380:0.005941756 381:-0.04256203 382:-0.024825819 383:-0.03290178 384:-0.052820995 385:0.04164988 386:-0.100927 387:-0.049642585 388:-0.017969975 389:0.015192168 390:-0.059819017 391:0.053450074 392:-0.03716336 393:0.06168706 394:0.028646378 395:0.046877228 396:0.013609531 397:0.07086465 398:0.061068647 399:-0.030626483 400:0.006895208 401:0.0018378997 402:0.06005109 403:0.054007657 404:0.05106169 405:0.023443332 406:-0.008838522 407:-0.0035426475 408:-0.012861409 409:-0.016625902 410:-0.0055311834 411:-0.019134495 412:0.01682374 413:0.06337034 414:-0.053447578 415:0.02510413 416:0.032106183 417:0.013215071 418:0.039166704 419:0.019226372 420:0.0018784654 421:0.029420711 422:-0.04560945 423:0.007953771 424:-0.03419942 425:0.14300491 426:-0.050661955 427:0.018136432 428:-0.014492983 429:0.05884931 430:-0.03337776 431:0.031482834 432:-0.058417108 433:0.03885749 434:-0.02119986 435:0.024149407 436:-0.045394424 437:0.0027163343 438:-0.004449618 439:0.031392377 440:-0.0046352562 441:0.0169192 442:0.0062041185 443:0.03674848 444:0.06477782 445:-0.025834663 446:-0.011553681 447:-0.08262719 448:-0.010484131 449:-0.023587445 450:-0.01144659 451:0.09047219 452:-0.049935073 453:0.003190384 454:-0.060955904 455:-0.020370312 456:-0.08330263 457:0.09594262 458:0.059964236 459:0.06869251 460:0.06140084 461:0.048379246 462:0.048639894 463:-0.038966447 464:-0.06155224 465:0.007815748 466:-0.053165298 467:0.049631506 468:0.02498833 469:0.0027327288 470:0.07061091 471:0.016293008 472:0.038179103 473:-0.015822453 474:-0.013065073 475:-0.013532617 476:0.00032357938 477:-0.04358831 478:0.038588274 479:0.025550658 480:-0.024438635 481:0.022521337 482:-0.0018921688 483:0.004593947 484:-0.025736611 485:0.043675568 486:-0.04066223 487:0.021010559 488:0.011425697 489:-0.05591637 490:-0.018634867 491:-0.045476623 492:-0.036311954 493:0.04133892 494:0.089609295 495:-0.020186525 496:0.03282487 497:0.074126355 498:0.034821626 499:0.029813975 500:-0.006684201 501:-0.06448001 502:0.0674216 503:-0.04452451 504:-0.038486164 505:0.10115217 506:0.04317284 507:0.025278505 508:-0.015388613 509:-0.05373737 510:-0.01844081 511:0.037959978 
0.1759450109111505 1 0.08046628687008262 0 0 0.7445668343251458 0 0.4663727989112587 0:-0.00891454 1:0.02894918 2:-0.03365517 3:0.026678625 4:0.06785754 5:-0.02170468 6:0.06369052 7:-0.036325105 8:0.028388776 9:0.03583998 10:0.09664928 11:0.0037647977 12:0.067659035 13:0.02410732 14:-0.027088359 15:-0.017655876 16:0.046264585 17:0.10591066 18:0.022760902 19:0.009149873 20:0.03834049 21:-0.02861869 22:0.017805101 23:-0.12546265 24:-0.06533276 25:-0.07384711 26:0.018686222 27:-0.07164382 28:0.032358263 29:-0.029498188 30:0.051621664 31:-0.024777403 32:0.012068582 33:0.042268507 34:0.0274479 35:-0.081951514 36:0.051905412 37:-0.05620999 38:-0.023611428 39:0.040940292 40:-0.092133686 41:-0.04078642 42:-0.00436527 43:0.0703806 44:-0.027011404 45:0.055074546 46:0.0034825134 47:0.01710473 48:-0.03242798 49:-0.038105153 50:-0.013750073 51:-0.026793059 52:-0.043637555 53:-0.016710464 54:-0.003205302 55:-0.11785895 56:0.031706836 57:-0.028255282 58:-0.069912106 59:0.029877756 60:-0.005510967 61:0.062239915 62:-0.043568466 63:-0.036354866 64:-0.06116235 65:-0.055145893 66:0.005859559 67:-0.028684864 68:0.0072104684 69:-0.047446713 70:0.0018460073 71:-0.034876626 72:-0.016694218 73:-0.023031788 74:0.07867517 75:-0.043910045 76:0.06256813 77:0.010771898 78:-0.044987153 79:-0.015674317 80:-0.09526602 81:-0.008009671 82:0.0310517 83:-0.04867112 84:-0.0708085 85:0.032624234 86:0.037043888 87:0.036859736 88:-0.034187265 89:-0.0031604685 90:-0.07280576 91:-0.055158623 92:-0.059041794 93:0.031413537 94:0.04645752 95:0.023630777 96:-0.0032773053 97:0.024894457 98:-0.08793109 99:0.06985076 100:0.0049790326 101:0.027134797 102:0.053151324 103:-0.014696714 104:-0.057977382 105:-0.039874703 106:-0.03542934 107:-0.05431648 108:-0.037235733 109:0.0032393318 110:0.034286577 111:0.0021443206 112:-0.06348752 113:-0.045992233 114:0.0044002524 115:0.026730133 116:0.06468939 117:0.03987223 118:0.05396472 119:0.08789808 120:0.056277514 121:0.034634028 122:-0.010243352 123:0.034499504 124:-0.08599109 125:-0.05298495 126:-0.061033413 127:-0.015838688 128:0.04839172 129:0.016326133 130:0.040752187 131:0.033421487 132:0.021095231 133:0.009164845 134:0.042669818 135:0.01368985 136:-0.03797253 137:-0.078789316 138:0.008016356 139:-0.0056143585 140:-0.00056866393 141:0.08568589 142:-0.04900038 143:0.024597222 144:0.04309043 145:0.041141525 146:0.004846011 147:-0.011454192 148:0.063227125 149:0.0060195974 150:0.034840707 151:-0.005180641 152:-0.021777064 153:0.049636874 154:0.05446819 155:-0.09430444 156:-0.059721053 157:0.031245224 158:0.0068780105 159:-0.059307158 160:-0.009019853 161:0.056081884 162:-0.06662547 163:0.10335918 164:0.06658179 165:0.08811902 166:-0.0035427515 167:0.027598176 168:-0.036867376 169:0.047203396 170:0.027230356 171:0.05638872 172:0.01985884 173:-0.009003032 174:-0.057084814 175:-0.065548316 176:-0.029272782 177:-0.0056694923 178:0.016456971 179:0.00040642035 180:0.07044634 181:-0.0013994797 182:0.013027208 183:0.008353724 184:0.035976645 185:0.061244063 186:0.03699158 187:-0.06571614 188:0.0002770243 189:-0.011377602 190:-0.055306178 191:0.035931606 192:0.04135008 193:0.028311737 194:0.0061873225 195:-0.07992796 196:-0.05379729 197:0.017451826 198:0.053459216 199:0.015344265 200:0.04633667 201:-0.086240314 202:0.027928863 203:-0.018967455 204:-0.025603974 205:0.04132664 206:-0.034201596 207:-0.025336672 208:0.003103817 209:0.014691062 210:-0.018523332 211:-0.05762831 212:-0.02421779 213:0.010026545 214:-0.015891217 215:-0.0088024195 216:0.029113445 217:-0.027184501 218:0.05752934 219:0.050864145 220:0.0650491 221:-0.0525469 222:0.059080023 223:-0.03875071 224:0.01339855 225:0.001477585 226:0.030325264 227:-0.043963972 228:-0.030529393 229:0.010071095 230:-0.034588065 231:0.07018115 232:0.0077336207 233:0.008284662 234:-0.007668572 235:0.051516294 236:-0.012065512 237:-0.033661976 238:0.08444221 239:0.025805987 240:0.022173865 241:-0.008393528 242:0.05366041 243:0.01380326 244:-0.032940283 245:0.00093135174 246:-0.02248322 247:0.0016445849 248:0.007894519 249:0.025224566 250:-0.011386472 251:-0.02141238 252:0.06378502 253:-0.04254012 254:-0.066297956 255:-0.032538097 256:0.03918448 257:0.008041606 258:0.06716985 259:-0.05688705 260:-0.06924619 261:0.043346353 262:-0.020125791 263:0.019546699 264:-0.04009364 265:0.003770472 266:0.033735774 267:-0.06387661 268:-0.006212743 269:-0.08202247 270:0.07967928 271:0.019111192 272:0.023519851 273:-0.0040235263 274:0.01338675 275:0.019342612 276:-0.002014955 277:0.03367468 278:-0.019240456 279:0.009292816 280:0.029153466 281:0.026836859 282:-0.014920098 283:0.016214356 284:-0.014425005 285:-0.06516592 286:0.017695494 287:-0.06865589 288:-0.03511623 289:0.030267024 290:-0.005728594 291:-0.069062695 292:-0.06319522 293:-0.0056009693 294:-0.013627155 295:0.016349185 296:-0.040525448 297:0.0037700217 298:0.070952944 299:-0.037387244 300:0.037192076 301:0.030151336 302:-0.031369314 303:0.0068424586 304:-0.02049219 305:-0.041884642 306:0.01709719 307:0.025327334 308:-0.056094088 309:0.011900258 310:-0.01667589 311:0.024903763 312:0.056759592 313:-0.04662845 314:0.04803011 315:-0.0019015003 316:0.054876104 317:-0.06328306 318:0.081662364 319:-0.034360982 320:-0.0022663774 321:-0.0028438657 322:-0.0017083854 323:0.005036966 324:-0.0074917157 325:-0.0057089776 326:0.057803687 327:0.055672914 328:0.0642592 329:0.014053479 330:-0.033614706 331:0.041030362 332:-0.057656612 333:0.047038008 334:-0.074225165 335:0.018874533 336:0.04156805 337:-0.08731992 338:-0.022963215 339:0.03322014 340:0.03294336 341:-0.037584133 342:-0.024328431 343:0.039387804 344:0.016027138 345:0.06063663 346:-0.097269244 347:-0.018290184 348:-0.014211139 349:-0.022504374 350:0.020204382 351:0.00043275254 352:0.07021369 353:0.07001608 354:0.078501925 355:-0.008615613 356:0.052803192 357:0.11812564 358:-0.063913025 359:-0.0080316365 360:-0.013545513 361:-0.009788292 362:-0.09148715 363:-0.027074173 364:-0.0035443348 365:0.012268103 366:-0.03517428 367:0.05578689 368:-0.057086192 369:0.021805752 370:-0.025650904 371:-0.03509281 372:-0.018415729 373:0.0329227 374:-0.05376417 375:-0.013192949 376:0.02940843 377:0.030928265 378:-0.0803023 379:-0.02646518 380:-0.0047286325 381:-0.017368326 382:-0.031036485 383:-0.029484939 384:-0.021723678 385:0.030489413 386:-0.09269503 387:-0.028795967 388:-0.03317627 389:0.010939088 390:-0.03264251 391:0.066169694 392:-0.05340881 393:0.06829732 394:0.015869867 395:0.031524017 396:0.006575471 397:0.07318804 398:0.058586873 399:-0.03416585 400:0.009481775 401:-0.0030502346 402:0.05406555 403:0.077709906 404:0.046142876 405:0.0077409153 406:-0.02038217 407:0.0027143226 408:-0.000550264 409:-0.023472602 410:-0.011638432 411:-0.017803108 412:-0.002212936 413:0.07005533 414:-0.05847635 415:0.005391068 416:0.0269609 417:0.019054456 418:0.054715905 419:0.0050239926 420:0.0055952994 421:0.023463547 422:-0.031498227 423:0.0059545906 424:-0.03272387 425:0.1326948 426:-0.033662792 427:0.0099616945 428:-0.02174576 429:0.07332696 430:-0.051568 431:0.030892178 432:-0.052216563 433:0.02846237 434:-0.0071813366 435:0.030681849 436:-0.05671896 437:-0.025234139 438:0.0070992378 439:0.02143279 440:-0.007215716 441:0.023247836 442:0.018279241 443:0.020246804 444:0.058288384 445:-0.042598456 446:-0.0024469544 447:-0.070444584 448:-0.024394622 449:-0.025326889 450:-0.013935228 451:0.06941227 452:-0.0477035 453:0.0016269089 454:-0.056849815 455:-0.026773237 456:-0.07731684 457:0.09750084 458:0.04933319 459:0.09613224 460:0.058799163 461:0.079463996 462:0.06197685 463:-0.016370494 464:-0.056879077 465:0.029838065 466:-0.030051038 467:0.03225659 468:0.039716344 469:5.7828962e-05 470:0.07755775 471:-0.015688134 472:0.05372019 473:-0.0052084154 474:-0.012689021 475:-0.00038527435 476:0.01594479 477:-0.030885845 478:0.032235667 479:0.027292037 480:-0.005516522 481:0.0059993695 482:0.0044978345 483:0.0069717634 484:-0.019972524 485:0.06370697 486:-0.04646915 487:0.0320598 488:0.009265023 489:-0.036742344 490:-0.01822414 491:-0.056123633 492:-0.044217568 493:0.017277276 494:0.09454013 495:-0.018390251 496:0.036446247 497:0.0667524 498:0.029999686 499:0.020471435 500:0.0047230707 501:-0.06931843 502:0.08563559 503:-0.03679906 504:-0.043862157 505:0.10516093 506:0.051785268 507:0.03649942 508:-0.025491746 509:-0.062092915 510:-0.050165206 511:0.039315898 
0 0.08218701989659508 0 0 1 0 0 0 0:-0.013913782 1:0.013653971 2:-0.040130224 3:0.029875344 4:0.07817318 5:-0.04964026 6:0.061168823 7:-0.03885836 8:0.020044796 9:0.03356718 10:0.11970706 11:-0.0035675669 12:0.073434316 13:0.020508261 14:0.013952252 15:-0.005709741 16:0.03674463 17:0.10008596 18:0.0218772 19:0.014677703 20:0.042099785 21:-0.037794724 22:0.010984217 23:-0.10754795 24:-0.06431036 25:-0.0806787 26:-0.0067010587 27:-0.08968784 28:0.028005486 29:-0.032636877 30:0.015247449 31:-0.048002437 32:-0.013366445 33:0.043433066 34:0.02121976 35:-0.07375767 36:0.056779694 37:-0.06374279 38:-0.024575217 39:0.042977415 40:-0.08815283 41:-0.0182266 42:-0.014760655 43:0.066062614 44:-0.019487683 45:0.08752083 46:0.026438914 47:0.01083937 48:-0.028443169 49:-0.02773975 50:-0.011372524 51:-0.026119102 52:-0.059028022 53:-0.012896535 54:-0.010003239 55:-0.13776374 56:0.034314744 57:-0.048905883 58:-0.09158607 59:0.01805294 60:-0.01652558 61:0.075220816 62:-0.05407678 63:-0.034290448 64:-0.042572353 65:-0.06330982 66:-0.00037939203 67:-0.04098819 68:0.006616012 69:-0.037894007 70:0.008430764 71:-0.007430581 72:-0.026833262 73:-0.03778994 74:0.08187294 75:-0.045578938 76:0.06280785 77:0.0078780195 78:-0.042026114 79:-0.0019633498 80:-0.073222056 81:0.009892208 82:0.01469388 83:-0.03545965 84:-0.0628389 85:0.047294725 86:0.042801928 87:0.05790497 88:-0.023946868 89:0.009186103 90:-0.051256265 91:-0.03196511 92:-0.073758714 93:0.032625753 94:0.05108646 95:0.026201721 96:0.00012566756 97:0.038715538 98:-0.08842367 99:0.042735506 100:-0.017645964 101:0.007734723 102:0.045397937 103:0.00019102904 104:-0.07933022 105:-0.05952669 106:-0.0269887 107:-0.04326675 108:-0.049330633 109:0.020968007 110:0.029594691 111:-0.009672353 112:-0.053217836 113:-0.03121249 114:-0.01177136 115:0.0026533697 116:0.05757044 117:0.03998241 118:0.03211203 119:0.10737084 120:0.05056443 121:0.018388031 122:0.0019939353 123:0.020872965 124:-0.058317073 125:-0.034982126 126:-0.07010793 127:-0.013680292 128:0.04204507 129:-0.0030704325 130:0.058275227 131:0.021399114 132:0.025710065 133:0.024087438 134:0.05547893 135:0.023388788 136:-0.032736093 137:-0.054524753 138:-0.01471854 139:0.0032680032 140:-0.016031237 141:0.10403682 142:-0.039683796 143:0.036867443 144:0.05873887 145:0.0355653 146:0.00012279657 147:0.00680964 148:0.069827124 149:0.0011912215 150:0.025291229 151:-0.01582349 152:-0.026200797 153:0.05217051 154:0.038797922 155:-0.10385145 156:-0.04990168 157:0.03094196 158:0.008370291 159:-0.051135175 160:-0.007900063 161:0.024996748 162:-0.08318483 163:0.11373555 164:0.044534232 165:0.08395061 166:-0.02153849 167:0.027329296 168:-0.022962619 169:0.019423509 170:0.027564194 171:0.046573598 172:0.020270329 173:-0.013558071 174:-0.06417646 175:-0.041732285 176:-0.012054943 177:-0.0013227868 178:0.02096089 179:0.0060444465 180:0.06470789 181:-0.0322374 182:0.015064612 183:0.02680237 184:0.022232043 185:0.060825046 186:0.04175433 187:-0.060295835 188:-0.0066711004 189:-0.018480433 190:-0.06279611 191:0.011631565 192:0.05822262 193:0.04550154 194:-0.0017713272 195:-0.086886145 196:-0.05355339 197:0.0014829733 198:0.025559647 199:0.038654163 200:0.051275514 201:-0.089690275 202:0.018055394 203:-0.017970927 204:-0.040169097 205:0.062424112 206:-0.023020178 207:-0.018372675 208:0.016250858 209:0.019201659 210:-0.021613851 211:-0.044323266 212:-0.036940213 213:-0.01544477 214:-0.029952792 215:-0.02182403 216:0.017177327 217:-0.017551221 218:0.07051044 219:0.0535465 220:0.058597557 221:-0.059554223 222:0.04193164 223:-0.038270254 224:0.033643708 225:0.007312496 226:0.022154957 227:-0.03681737 228:-0.047085352 229:0.0063193077 230:-0.050031558 231:0.06800657 232:0.020535734 233:0.0070540006 234:-0.00067699625 235:0.047544975 236:-0.006889837 237:-0.013128621 238:0.082188725 239:0.046837665 240:0.022686923 241:-0.0067089326 242:0.044970486 243:0.028356997 244:-0.04636444 245:0.0016071524 246:-0.02902155 247:0.024693202 248:0.024711642 249:0.039303973 250:-0.00083762984 251:-0.01573459 252:0.04465351 253:-0.050662052 254:-0.064260855 255:-0.012066925 256:0.0308304 257:0.013297282 258:0.07018044 259:-0.07218742 260:-0.089570984 261:0.0249869 262:-0.024879806 263:0.0071597276 264:-0.025014646 265:0.030851243 266:0.027355071 267:-0.061684042 268:-0.0097105075 269:-0.07855064 270:0.06194962 271:-0.0009944806 272:0.03202144 273:-0.005396997 274:0.008926446 275:0.0017349288 276:-0.015624317 277:0.02994704 278:-0.013826405 279:0.015813481 280:0.014548821 281:0.014316715 282:0.0058936286 283:0.012764948 284:-0.001973242 285:-0.04571709 286:0.013443652 287:-0.06115494 288:-0.01971434 289:0.032092374 290:0.009276357 291:-0.07894785 292:-0.04098974 293:0.013996148 294:-0.023673136 295:-0.0019413551 296:-0.032319788 297:-0.0021110596 298:0.056315925 299:-0.051046718 300:0.021694522 301:0.033920504 302:-0.020519821 303:0.014023903 304:0.0063850656 305:-0.03708429 306:0.014567393 307:0.022147445 308:-0.048113964 309:0.013974273 310:-0.0044168946 311:0.055999357 312:0.073668964 313:-0.027081411 314:0.066010065 315:-0.0110858 316:0.051180914 317:-0.05350746 318:0.0660965 319:-0.021648716 320:-0.012365049 321:0.011268043 322:0.012747775 323:0.0023728102 324:0.0021944179 325:-0.021124337 326:0.07089885 327:0.07506526 328:0.06568561 329:0.029904444 330:-0.03968974 331:0.042415936 332:-0.06166213 333:0.052879505 334:-0.078086615 335:0.0041840645 336:0.026049105 337:-0.08053751 338:-0.018157393 339:0.04538453 340:0.04810936 341:-0.02004411 342:-0.03899957 343:0.056458548 344:0.026128916 345:0.07019994 346:-0.08769344 347:-0.014850912 348:-0.015748858 349:-0.022962749 350:0.032862987 351:-0.0046370975 352:0.06926242 353:0.07813758 354:0.08296188 355:0.007156567 356:0.032828726 357:0.10440516 358:-0.030300353 359:-0.03007085 360:-0.003923954 361:-0.011727771 362:-0.08369236 363:-0.011278862 364:-0.010364476 365:0.0019826621 366:-0.029348845 367:0.03750981 368:-0.05547755 369:0.01660192 370:-0.026186299 371:-0.051425267 372:-0.0046785325 373:0.010603154 374:-0.04866135 375:0.0073543913 376:0.047932267 377:0.015843246 378:-0.09149258 379:-0.01211789 380:0.02162507 381:-0.04291787 382:-0.021722082 383:-0.0031992726 384:-0.014849545 385:0.04480066 386:-0.10632328 387:-0.014892186 388:-0.009690676 389:0.009776956 390:-0.045590494 391:0.05303138 392:-0.044539083 393:0.059968475 394:0.020244991 395:0.030770326 396:-0.0044668964 397:0.054043975 398:0.031019172 399:-0.020988287 400:-0.002131687 401:-0.0060269833 402:0.0638402 403:0.06669972 404:0.048359867 405:0.01967907 406:-0.0050328183 407:0.012502934 408:-0.013647617 409:-0.04106034 410:-0.010488658 411:-0.014244559 412:0.00013986767 413:0.07248321 414:-0.041459125 415:0.009647014 416:0.034637406 417:0.0361496 418:0.049879987 419:0.008161559 420:-0.02621494 421:0.010451129 422:-0.044440538 423:0.005505448 424:-0.03439511 425:0.14637682 426:-0.023225958 427:0.0082105575 428:-0.023863738 429:0.061774746 430:-0.027190091 431:0.05030424 432:-0.03495588 433:0.04603048 434:-0.015371408 435:0.03900463 436:-0.05287959 437:-0.024910612 438:-0.015924845 439:0.027801909 440:0.00087024143 441:0.017834261 442:0.021902952 443:0.038882434 444:0.06562414 445:-0.046834208 446:0.020752126 447:-0.07002723 448:-0.025593117 449:-0.008105487 450:-0.038972855 451:0.07209673 452:-0.030042158 453:0.0017872322 454:-0.051194493 455:-0.024853034 456:-0.04536245 457:0.10181706 458:0.032346155 459:0.06849122 460:0.056424543 461:0.05505852 462:0.050462913 463:-0.029979115 464:-0.05404693 465:0.021057392 466:-0.035547096 467:0.053012967 468:0.039781533 469:0.014330613 470:0.08265003 471:0.0036475663 472:0.050074384 473:-0.015623833 474:-0.006068575 475:-0.015722003 476:-0.0026119838 477:-0.02292539 478:0.033027235 479:0.034905452 480:-0.03168141 481:0.003328896 482:0.015912268 483:0.008078384 484:-0.026642833 485:0.06455258 486:-0.034895495 487:0.019657204 488:0.027343366 489:-0.033174064 490:-0.021001693 491:-0.06979187 492:-0.041645255 493:0.025635788 494:0.083642334 495:-0.03789326 496:0.05141669 497:0.075154334 498:0.03369144 499:0.027432565 500:0.0034733976 501:-0.072778806 502:0.06730236 503:-0.041291732 504:-0.061639078 505:0.12117236 506:0.035050355 507:0.039912384 508:-0.020544212 509:-0.0758181 510:-0.040570293 511:0.0320024 
0 0 0 0 1 0 0 0 0:-0.014756296 1:-0.01878506 2:-0.07335164 3:0.029885836 4:0.08591216 5:-0.029519195 6:0.05316201 7:-0.03189885 8:0.0057921573 9:0.07477292 10:0.12118622 11:0.034451157 12:0.07582423 13:-0.006163543 14:-0.016564729 15:0.013547828 16:0.04786374 17:0.10086465 18:0.026870657 19:0.022623207 20:0.057435047 21:-0.033929426 22:0.012714086 23:-0.10727119 24:-0.07316049 25:-0.036916375 26:-0.0026531466 27:-0.061846144 28:0.01090523 29:-0.026894234 30:-0.011056946 31:-0.0662332 32:-0.035031084 33:0.036243096 34:0.004910941 35:-0.0590374 36:0.050711576 37:-0.06329865 38:-0.050489496 39:0.042493943 40:-0.10163228 41:0.00395512 42:-0.004639383 43:0.04544692 44:-0.0412153 45:0.077780515 46:0.030995639 47:0.016255157 48:-0.043521587 49:-0.020823881 50:-0.036100578 51:-0.05162148 52:-0.018438296 53:-0.00076826045 54:-0.009240759 55:-0.13670255 56:0.014803862 57:-0.0067863665 58:-0.096563235 59:0.0065289605 60:0.012598553 61:0.09993393 62:-0.07328793 63:-0.008834227 64:-0.03506384 65:-0.07773895 66:0.021780005 67:-0.059728205 68:0.007195964 69:-0.0031796282 70:-0.010505952 71:-0.021479337 72:-0.014416064 73:-0.029548679 74:0.05702499 75:-0.036861483 76:0.041001573 77:0.0271175 78:-0.013358194 79:-0.034010414 80:-0.07469032 81:0.012255187 82:0.027425671 83:-0.04398803 84:-0.06688056 85:0.049552053 86:0.018395081 87:0.05915996 88:-0.04457323 89:-0.021169517 90:-0.030913876 91:-0.021317497 92:-0.08938795 93:0.041910682 94:0.07223519 95:0.06337825 96:0.06216051 97:0.026769131 98:-0.073551975 99:0.061049927 100:-0.0463699 101:-0.02229961 102:0.025318222 103:0.014542944 104:-0.08900517 105:-0.09070185 106:-0.0277575 107:-0.035623286 108:-0.02947066 109:0.036347274 110:0.037627336 111:-0.014440429 112:-0.0367996 113:-0.048491314 114:-0.007876729 115:-0.019819226 116:0.051279366 117:0.050312907 118:0.038942456 119:0.12325857 120:0.05714171 121:-0.010668803 122:-0.0056996387 123:-0.013145539 124:-0.053847503 125:-0.034102615 126:-0.068795204 127:0.0074970014 128:0.0030429342 129:-0.022703791 130:0.0299242 131:0.016648857 132:0.03248356 133:0.018544387 134:0.012294355 135:0.032344565 136:-0.012402871 137:-0.021729175 138:0.0053505027 139:0.014683417 140:-0.017030468 141:0.07009967 142:-0.021514501 143:0.06012384 144:0.015529122 145:0.0036767302 146:-0.005837689 147:0.0054976535 148:0.066210456 149:0.023975855 150:0.014436516 151:-0.0013284901 152:-0.032909114 153:0.06969713 154:0.06685785 155:-0.09854521 156:-0.06516208 157:0.047833525 158:-0.00077718846 159:-0.03763101 160:-0.0064920285 161:0.030250492 162:-0.06956756 163:0.13117793 164:0.042179234 165:0.09533412 166:-0.012554982 167:-0.019028611 168:-0.006495006 169:0.036538184 170:0.025894063 171:0.024715008 172:0.012121739 173:0.0028681066 174:-0.035734177 175:-0.013546526 176:-0.011047885 177:0.04312586 178:0.0074527417 179:-0.008296015 180:0.013315449 181:-0.037239093 182:0.0032579447 183:0.03878952 184:0.0044672852 185:0.05059426 186:0.04387772 187:-0.044777542 188:0.020285059 189:-0.016569367 190:-0.048695743 191:0.008128868 192:0.049275406 193:0.01794462 194:-0.009975371 195:-0.04411977 196:-0.044853218 197:0.047048233 198:0.010800486 199:0.034954436 200:0.0683858 201:-0.073654234 202:-0.01235337 203:-0.041720048 204:-0.030090643 205:0.081250355 206:-0.012505053 207:-0.02841769 208:0.008270194 209:-0.026262391 210:-0.020394191 211:-0.04501813 212:-0.0016942514 213:-0.018246822 214:-0.0053450153 215:-0.03081544 216:0.0057071485 217:0.0145636 218:0.032584358 219:0.06167994 220:0.043916877 221:-0.07333934 222:0.059332855 223:-0.041321345 224:0.0450659 225:-0.013396175 226:0.0024751667 227:-0.05217431 228:-0.038407892 229:-0.015794847 230:-0.020881902 231:0.11340646 232:0.016434379 233:-0.028525848 234:0.007191465 235:0.043162018 236:0.012316908 237:-0.02287442 238:0.05368654 239:0.03272219 240:0.0072876383 241:0.010948261 242:0.02262086 243:0.05522808 244:-0.04692172 245:0.015731286 246:0.0047056284 247:0.015552193 248:0.024083022 249:0.0734672 250:-0.039834097 251:-0.016903235 252:0.08209614 253:-0.03754005 254:-0.068584114 255:-0.012544326 256:-0.012639298 257:0.0074683875 258:0.06255655 259:-0.068502285 260:-0.0837971 261:0.032208756 262:-0.033253837 263:-0.0012754288 264:-0.043755 265:0.0043217507 266:0.010310149 267:-0.053594533 268:-0.02122004 269:-0.09742091 270:0.08599811 271:0.013826505 272:0.025432827 273:-0.0018276308 274:0.005390077 275:0.0026069283 276:-0.0036068538 277:0.020848358 278:-0.020710155 279:0.01226071 280:0.026121726 281:0.021019697 282:-0.0070210155 283:0.013562343 284:-0.013603291 285:-0.04138655 286:0.023023471 287:-0.039273076 288:-0.027680581 289:0.03416001 290:0.015637958 291:-0.09141674 292:-0.04504389 293:0.06704292 294:-0.018038074 295:-0.042450387 296:-0.0026828363 297:0.018104974 298:0.044119366 299:-0.055935748 300:0.042227365 301:0.045721933 302:-0.022020899 303:0.052961946 304:0.014742491 305:0.0013542095 306:-0.027376905 307:0.024121651 308:-0.03650881 309:0.020176148 310:0.015235462 311:0.07024516 312:0.05026418 313:-0.019212618 314:0.08468835 315:0.027617577 316:0.0638218 317:-0.038600925 318:0.069945715 319:-0.05016417 320:0.009938097 321:0.014976107 322:-0.01342153 323:0.0029535487 324:-0.031591244 325:0.013175596 326:0.04665995 327:0.066140585 328:0.040563136 329:0.020004956 330:-0.011016069 331:0.06385577 332:-0.058963094 333:0.037016686 334:-0.05050442 335:0.018652974 336:0.024156393 337:-0.07064385 338:-0.054776352 339:0.04814604 340:0.075445585 341:0.006910799 342:-0.022293609 343:0.035860192 344:0.026152302 345:0.05131052 346:-0.08826048 347:-0.01832417 348:0.0074064867 349:-0.052846085 350:0.0010837364 351:0.011400919 352:0.054562077 353:0.0747885 354:0.052329272 355:-0.0071601947 356:0.076798536 357:0.08015815 358:0.006033298 359:-0.009472841 360:-0.0030391377 361:0.0027241823 362:-0.07699381 363:-0.02098983 364:-0.015753267 365:0.023369225 366:-0.019617477 367:0.024180038 368:-0.022838144 369:-0.0036319175 370:-0.0363599 371:-0.012689675 372:-0.013993151 373:0.04028174 374:-0.06015133 375:0.014444178 376:0.048312217 377:0.046176083 378:-0.080859594 379:-0.03913484 380:0.04541008 381:-0.028044483 382:0.017965239 383:-0.0047639045 384:0.035124123 385:0.024266828 386:-0.08570459 387:-0.030184748 388:-0.021293906 389:0.024552854 390:-0.031774722 391:0.072730124 392:-0.006434173 393:0.05856962 394:-0.0012742368 395:0.04892256 396:-0.020007752 397:0.058762014 398:0.06241605 399:-0.021771245 400:0.006812338 401:-0.0030307283 402:0.065468155 403:0.07240291 404:0.06624027 405:0.03036066 406:-0.006877946 407:0.031918533 408:0.0069701746 409:-0.036868047 410:0.029610448 411:-0.012371499 412:0.015457307 413:0.050737176 414:-0.0357912 415:0.0066499384 416:0.076954894 417:0.021405958 418:0.024413453 419:-0.0040512527 420:0.016212178 421:0.010973563 422:-0.011372409 423:0.016805269 424:-0.027140096 425:0.15694857 426:0.017575063 427:0.011023094 428:-0.023481559 429:0.0638898 430:-0.024375435 431:0.06702743 432:-0.032161396 433:0.030596532 434:0.030980716 435:0.06047571 436:-0.06027744 437:-0.026062768 438:-0.013993313 439:0.019024875 440:-0.007671258 441:0.020371469 442:0.01514595 443:0.07756786 444:0.052087747 445:-0.06956719 446:-0.0037539322 447:-0.009148851 448:-0.033290233 449:-0.02025063 450:-0.019669242 451:0.05518432 452:-0.028518599 453:-0.0057782736 454:-0.012290847 455:-0.018247994 456:-0.045952316 457:0.06930029 458:0.036722016 459:0.020738218 460:0.086416416 461:0.0948748 462:0.047204938 463:-0.0069238925 464:-0.021029739 465:0.02050428 466:-0.0013305413 467:0.05285711 468:0.0068343473 469:0.00042842005 470:0.080466 471:-0.027074004 472:0.053947054 473:0.0016650045 474:-0.01910819 475:0.014958596 476:0.004974403 477:-0.01911861 478:0.03771117 479:0.008638014 480:-0.02755851 481:0.002697797 482:0.024167834 483:0.004369363 484:-0.03562777 485:0.054247536 486:-0.053868152 487:0.034106564 488:-0.011581611 489:-0.033906866 490:0.024369044 491:-0.03430133 492:-0.041600958 493:0.05589486 494:0.11130345 495:-0.03945489 496:0.052232303 497:0.070699684 498:0.029696269 499:0.01685324 500:-0.0016963681 501:-0.026132543 502:0.060537662 503:-0.06860424 504:-0.047763284 505:0.091601476 506:-0.0029038547 507:0.03544036 508:-0.029520804 509:-0.066592395 510:-0.043982524 511:0.06610761 
